-0.0418373756 -0.0686244518 -0.0079439878 -0.0063789561 0.0585348792 0.0736202747 -0.0162423030 0.0223077461 -0.2551189363 -0.3120132387 0.0085588740 -0.6850917339 0.0526439026 0.0594988987 0.1293992400 -0.6071559191 -0.0123295803 -0.0162194669 0.0236718375 0.0822838470 0.0462104566 -0.0347726233 -0.0304756090 -0.0531945974 -0.0683889240 -0.0438298583 -0.0402574241 0.0597556829 0.0219148323 -0.0606374070 0.0774909854 -0.0698972642 -0.0896668881 -0.0583064482 -0.0559141077 -0.0263653826 -0.0558786951 0.0396537930 0.0009202729 -0.0433274247 0.0650404543 0.0362219512 0.0554846339 0.0141696557 -0.0096746385 0.0288436506 0.0092096329 0.0685359240 0.0851661265 0.0044158483 -0.0155499782 0.0444552600 0.0890936330 -0.0199796949 -0.0428120866 -0.0068059522 0.0542141646 -0.0248357020 0.0669921488 0.0106953904 -0.0211347155 -0.0716843158 0.0082428679 0.0370462388 0.0738433674 0.1419259608 0.1215747967 -0.0209490303 0.1308075041 0.1071127281 0.1214244068 0.1539295763 -0.0065429057 0.0829684287 -0.0029284672 0.0912488699 -0.0487039685 0.0365878157 -0.0491409823 0.1027116627 -0.0891092196 -0.1452974826 -0.0998672768 -0.1712687314 0.0952329263 -0.0209577139 0.0438177474 0.0113190794 -0.0447309688 0.0049827672 0.0402648672 -0.0057247938 -0.0481282249 -0.0087235197 0.0136096338 -0.0473762602 0.0572188087 0.0948208943 0.0301440954 0.0817819759 0.0350425728 0.0884637162 -0.0258110911 0.0192582756 0.1451105773 0.1147802696 0.1038810760 -0.0693721026 0.1474201977 0.1515474170 0.1581926644 -0.0943061039 0.1002445668 -0.0433352515 0.0862709060 0.0169846173 0.0349140316 0.0606442764 0.0032214441 -0.0001070734 0.0545713007 0.0721531659 0.0857802108 -0.0614464916 0.0735976025 0.1235324889 0.0683933347 -0.0822510794 0.0419816896 -0.0461764559 -0.0598991066 -0.0424988121 0.0065149935 0.0208333209 -0.0058252569 -0.0122142322 -0.0924559012 0.0594785847 -0.0157588702 -0.1133425087 -0.0471356548 -0.0012644882 0.0991573259 -0.0409243032 0.0808741078 0.1196663082 0.1384371668 0.0089537026 0.0435602553 0.0551216863 0.1093314961 0.0109025640 0.1049063876 0.0750476718 0.0902262777 -0.0204259474 0.0975146890 0.0979363024 0.1107743755 -0.0083868168 0.0312046558 0.0748517215 0.0686319545 0.0274189711 -0.0770464242 -0.0728754178 0.0394886769 0.0349483863 -0.0287080593 -0.0475429781 0.0345790014 0.0151574304 -0.0352403447 -0.0017246645 -0.0526183508 0.0301040746 -0.0335215144 0.0045020715 -0.0157569852 -0.0376602635 0.0168721955 -0.0096234130 0.0785484761 0.0830296427 0.1398260593 0.0690953806 0.0296519138 0.0500318520 0.1152034998 -0.0000378250 -0.0007947996 -0.0001600820 0.0921003222 0.0018113487 -0.0294311419 -0.0305462629 0.0341315866 0.0216153823 0.0055317292 -0.0236095861 0.0629935190 0.0410852209 0.0463790409 0.0626275390 0.0465969406 0.0745452940 0.0579020903 0.0886447504 0.0775848478 -0.0454001985 0.0567714088 0.0738759935 -0.0114026610 -0.0183806717 -0.0366598107 -0.0412421860 -0.0459007584 -0.0306054298 0.0011648395 0.0822130963 0.0477834865 0.0292139612 -0.0166059807 0.0185132753 0.0788041353 0.0665846020 -0.0195963159 -0.0033513680 -0.0689377710 0.0640466958 0.0682013035 0.0118797049 0.0028081851 -0.0110015403 0.0110154562 0.0361551456 0.0198448468 0.1094198078 0.1173426434 0.0038168118 0.0732638538 0.0877734125 0.0982034504 0.0629891008 -0.0128457723 0.0892223045 0.0063344929 0.0223335624 0.0336740948 -0.0738256350 -0.0779607072 -0.0651253983 -0.0183185358 0.0639699399 -0.0440385602 0.0711178929 0.0158402305 0.1114336848 -0.0089976462 -0.0258255508 0.0801669210 0.0071460018 0.0227976646 -0.1181522757 0.1116777509 0.0979440436 0.0100045828 -0.0386291891 -0.0314889364 -0.0492112003 -0.0494897515 0.0055818148 -0.0370906778 -0.0132887783 0.1365996748 0.0906393006 0.0896375254 0.0185929891 0.1379639357 0.0329050943 -0.0318427570 -0.0457140058 0.0390091166 -0.0163731091 0.0145543804 0.0550953224 -0.0157157630 0.0346878693 -0.0449935682 -0.0040692850 -0.0751203001 0.0250116792 0.0437710173 0.0587072186 -0.0697324574 -0.0106303934 0.0648829490 0.0188483000 0.0031288862 0.0128701553 -0.0662807897 -0.0084587634 -0.0614583977 -0.0762043223 0.0556048043 0.0874980539 0.0454600900 0.0437779054 0.1015456319 -0.0412072577 0.1066914722 0.0701201186 0.0262212325 -0.1046123132 -0.6040216088 -0.2109488249 0.0621216074 0.0194264390 -0.2475023121 0.0388439782 0.1370227933 0.1712504178 -0.0964557454 -0.2121566981 -0.3229274154 0.1774631143 -0.0258547328 0.0435608104 -0.0278869607 0.0784156397 0.0154093662 -0.4067435563 -0.0087960176 0.0921828225 0.0327898078 -0.2193958759 0.1929658502 0.0935888365 0.0413707718 -0.1175136194 0.0213935655 0.0287994854 0.1251596361 0.0494394302 0.0004379503 -0.0214113351 0.1033024788 0.0274097770 0.0132174799 0.0635492951 -0.0055698878 0.0071078646 0.1025351956 0.0249669272 -0.0198406093 0.0515520051 0.0957413763 0.0860053077 -0.0233234130 -0.0149364509 -0.0821337029 0.1453327388 0.0416452847 0.0697648302 -0.0742985904 0.0766310990 0.0593746640 0.0609883405 -0.0228712987 0.0040442771 -0.0273260418 0.0149662318 -0.0666061118 0.0172139499 -0.0444003604 -0.0622884780 -0.0681305826 -0.0023278049 -0.0472089425 0.0542943738 0.0175803788 0.0648817345 -0.0335639864 0.0997783840 -0.0891854838 -0.0264094360 0.0678193867 0.0080219880 -0.1026340127 -0.0397424735 0.0550044477 -0.0493753031 -0.0232750811 -0.0222023353 -0.0297501180 0.0794021487 0.0048807859 0.0434250832 -0.0663091987 0.0252780393 -0.0705686435 0.0024386421 -0.0063921437 0.0713448822 -0.0715379119 0.0071128532 -0.0770492703 -0.0329015143 0.0638920069 0.0091221333 -0.0109499022 0.0290772617 -0.0325813890 -0.0492638573 -0.0124985054 -0.0658679381 0.0048536509 0.0189789981 -0.0717389882 0.0141399950 0.0766018629 -0.0198942982 0.0057328567 0.0471683443 -0.0409487076 -0.0504078902 0.0321291089 -0.0329531953 -0.0532440953 -0.0510934964 -0.0966747999 0.0817348659 -0.1061005518 -0.0279891286 0.0083418656 -0.0019414452 0.0398020446 -0.0392788425 0.0246406849 -0.1023981124 0.0083822235 0.0267636031 -0.0683342814 -0.0774903372 -0.0683755800 0.0813951343 0.0677263588 0.0563490838 -0.0454739444 0.0304686502 -0.0432224683 -0.0749612078 -0.0383214056 0.0700311214 0.0396684110 -0.0697448254 0.0232738610 -0.0523454621 -0.0340694264 -0.0307284314 -0.0453411750 -0.0516979471 -0.0697306693 -0.0192937944 0.0237255767 -0.0065036081 -0.0041173794 -0.0507897139 -0.0201211609 0.0086040357 0.0062126792 -0.0544223860 -0.0003645018 0.0448558517 -0.0974709094 -0.0221593082 -0.0758898482 -0.0963917598 -0.0841711834 -0.0546431243 -0.1008615196 0.0236164685 -0.0313593596 0.0017505167 -0.0517703556 -0.0193570442 0.0500435010 -0.0414596349 -0.0389616974 0.0439461060 -0.0701048970 -0.0664590150 -0.0912317932 -0.0426954515 -0.0583581142 -0.0074383230 0.0388092436 -0.0144782467 -0.0933520719 -0.0191707127 0.0172402672 0.0497540720 -0.0823236555 -0.0079215635 -0.0115646571 0.0291678291 -0.0381267853 -0.0855045244 -0.0951254740 0.0437531509 -0.0844152793 0.0286598559 0.0674052984 0.0495743901 0.0655122995 0.0790056735 0.0110050812 -0.0646022558 -0.0077429712 -0.0044012666 -0.0712544248 -0.0434472524 0.0342240110 0.0288526155 -0.0585445054 -0.0456216671 0.0503635518 -0.0690418556 -0.0212876815 -0.0156575479 -0.0023642501 -0.1079152152 0.0309285205 -0.0023525846 0.0134417079 -0.0670083985 -0.0649593174 0.0274630114 -0.0454071015 0.0103783570 -0.0381518081 -0.0574133061 -0.1018779203 -0.0839145854 -0.0064949244 0.0569565743 0.0218564067 0.0225146934 0.0058697611 -0.0148998424 -0.0505963862 0.0310389698 0.0606697351 0.0650008321 -0.0610326082 0.0081005767 0.0588846058 0.0005660653 -0.0186805651 -0.0217714719 -0.0027539656 -0.0763731226 -0.0538997725 0.0214554816 -0.0277521089 0.0323564932 -0.0788371041 -0.0564130209 -0.0208453890 -0.0902509317 0.0273829233 -0.0779346228 -0.0664072558 -0.1039395854 -0.0574150160 -0.1044734642 -0.0041983980 -0.0072852671 0.0327358879 0.0041058091 -0.0849395096 -0.0575777516 -0.1053304374 -0.1112570316 -0.0385356136 -0.1058812290 -0.0560548864 -0.0360730588 -0.0629858598 -0.0101278238 0.0039006989 -0.0132937040 -0.0371314697 0.0088930177 0.0343420319 -0.0364669040 0.0301744863 -0.0898530483 -0.0888816416 0.0443545282 0.0404876769 -0.0083443774 -0.0513450243 0.0208350047 0.0283304974 0.0258071497 -0.0951344594 -0.0262918398 0.0449223518 0.0549654067 -0.0103233159 -0.0525051467 -0.0726916492 0.0307849273 0.0352642760 -0.0111212656 -0.0994391218 0.0323826633 -0.0194593333 -0.0670477971 0.0388466008 0.0283866022 -0.0464814231 -0.0463716500 0.0043481635 -0.0123025784 0.0265967138 0.0268296711 -0.0417626351 -0.0606256537 -0.0460788310 -0.0257020537 -0.1025272161 -0.0155569557 -0.0211838782 -0.0731896162 -0.0115194498 0.0342029445 -0.0575572550 -0.0284812581 -0.0196227357 -0.0447937399 -0.1095916778 -0.0384530351 -0.0989422798 -0.0020355890 -0.0140710697 -0.0097995596 0.0297714546 -0.1076616421 -0.0234651398 -0.0573618375 -0.0133948028 0.0137409447 0.0334644653 -0.0068892683 -0.0096288472 -0.0746925548 0.0157631095 0.0689786822 0.0782159418 0.0054124817 -0.0826668888 -0.0175692439 -0.0204966366 0.0281587988 -0.0178306848 0.0514378548 0.0616616607 -0.0009263232 0.0635940880 -0.0367546417 -0.0389368385 0.0252881236 0.0250521731 -0.0552170537 -0.0537775569 -0.0065637971 -0.0527452715 -0.0135947820 0.0478376299 -0.0634168908 0.0436495841 0.0262628719 0.0050105900 0.0641042292 -0.0510224327 -0.0428312086 -0.0507561006 -0.0426236428 0.0419500209 -0.0028319163 0.0517517850 0.0110024083 0.0192252956 0.0186133981 -0.0230837595 0.0879690424 0.0721663907 0.0762432218 -0.0353502408 -0.0571748354 0.0157441013 0.0341887400 0.0528110191 0.0353643373 0.0213269722 0.0715687573 0.0628969744 0.0455701165 0.0203628149 0.0167536810 -0.0397624895 -0.0127634928 -0.0389861390 0.0268994719 0.0042200536 -0.0281347036 -0.0562618971 0.0289786980 -0.0516693890 0.0717136413 0.0117337350 0.0490812957 -0.0204937868 0.0369407460 -0.0031253041 -0.0670609102 0.0049450267 -0.0593505055 0.0354942381 -0.0375972502 -0.0764191225 -0.0588488206 -0.0273952428 -0.0086050313 -0.1054906994 -0.0842087269 0.0461190082 0.0164914764 -0.0107659157 -0.1113160029 -0.0406299047 0.0472830273 -0.0414149165 -0.1037626192 -0.0705867782 0.0197756570 0.0164185986 -0.0925486982 0.0307155494 -0.0282114595 0.0756071508 -0.0322918966 -0.0379040651 0.0409085155 -0.0405745804 0.0423556268 -0.0127896741 0.0065644830 -0.0092701204 -0.0452037863 -0.1111137643 -0.0974729359 -0.0678946376 -0.0684025139 -0.0884686634 -0.0740224794 -0.0306417346 0.0048622563 -0.0024823770 -0.0500914231 0.0799230486 -0.0696846545 -0.0648728013 0.0688605309 0.0136508523 -0.0400334448 0.0066434233 0.2392827570 0.1450826675 0.0135653522 0.1017721966 -0.1067571938 0.0071768458 0.0442052744 0.0746865124 -0.0491600111 -0.0804185942 -0.0202123281 -0.0804325491 -0.0874665380 0.0623920411 0.0752138346 -0.0671812817 -0.0007521361 0.0403595194 -0.0257757045 0.0307231620 0.0245050266 0.0297245532 0.0139313648 0.0119102672 0.0601708405 -0.0383537300 -0.0356248058 0.0100711845 0.0433812775 0.0508751869 -0.0410692431 -0.0890150890 -0.0245692134 -0.0129792169 0.0584499985 -0.0695112050 0.0234810114 0.0699258968 0.0535662137 -0.0386829488 0.0919067115 0.0757850632 -0.0612056144 -0.0028907445 0.0618459247 -0.0637903363 0.0527859777 -0.0450946651 0.0778582990 -0.0764054954 0.0765400976 -0.0527608842 0.0000356436 0.0209287480 -0.0071288710 0.0266271755 0.0034435315 0.0301403906 0.0163192116 0.1012630910 -0.0334336273 -0.0403265953 -0.0156059703 0.0626167506 0.0682700649 0.0173676405 0.0792471245 -0.0283740684 0.0420683995 0.0243205037 -0.0479408912 0.1510244906 0.2295051366 0.0926053151 -0.0476850644 -0.0076786429 -0.0499523953 0.0560226813 -0.0000529182 0.0588894859 0.0701899156 -0.0464096256 -0.0084889485 0.0798535943 0.0276702680 -0.0145070609 0.0036906991 -0.0170024596 -0.0350880101 0.1071178168 0.0656210706 -0.0417182855 0.0294642039 0.0290085524 -0.0993422493 -0.1075321883 -0.1864579767 -0.0282698274 0.0065528052 -0.0949599743 -0.0733047724 0.0027414337 0.0056479592 0.0626718253 0.0900269821 -0.0334009416 -0.0396695100 0.0020140933 0.0482642762 0.0063937567 0.0057780766 0.0158626437 -0.0233708508 -0.0610959753 0.0692786276 -0.0181274544 0.0456980169 0.0574106835 -0.0823923945 0.0165367592 -0.0849719271 0.0483400077 0.0234397836 -0.0121108135 -0.0781699046 -0.0063819280 0.0268214867 0.0176092181 0.1585540920 0.1455582678 0.0617914870 -0.0114320777 -0.0940747783 -0.0028607785 0.0261036921 -0.0704200715 -0.0650424063 0.0537134297 -0.0641016215 -0.0063542831 -0.0576068833 0.0400895700 -0.0389504880 0.0865709260 -0.0306485668 -0.0438284054 0.0653667450 -0.0053755804 0.0773583204 0.0319596156 -0.0568404123 0.0571635179 -0.0464030392 -0.0537200868 0.0367639065 -0.0328733735 0.0711796433 0.0100705344 0.0100313732 -0.0563740060 -0.0563823804 -0.0219676290 0.0055529810 0.0899996608 0.0126011772 -0.0288907439 0.0551969185 0.0278842580 0.0212959852 0.0241723415 0.0808484629 0.0168385170 -0.0092249401 -0.0167925693 -0.0546916649 -0.0633099005 -0.0972955376 -0.0276154000 -0.0895037651 -0.0410782695 -0.0717588365 0.0151461493 0.0484206416 0.0470112562 -0.0216694325 0.0942292139 0.0730364546 0.0285548493 0.0113309743 0.0372528136 0.0120475134 0.0493882149 0.0585640706 0.0563619062 0.0576356873 0.0170884356 -0.0270045996 0.0583095737 -0.0189855061 0.0797419250 0.0979447216 -0.0071629970 0.0934648290 0.0531663485 0.0077886521 -0.0018624174 0.0385014899 -0.0290211346 0.0698626041 0.0258277487 0.0752177909 0.0723881721 0.1057377979 0.0639976561 -0.0175003931 -0.0692829788 0.0609771162 0.0017526969 0.0122381225 -0.0306849778 0.0187997743 -0.0617225096 0.0710256770 -0.0505676121 0.0063774064 -0.0019549425 0.0153467432 0.0881633088 0.0276086498 -0.0497438423 0.0644531399 0.0690207481 -0.0394386649 0.0567649938 -0.0107044429 0.0842485204 0.0085396562 -0.0847392008 -0.0514309332 0.0635590926 -0.0947777182 0.0758289918 0.0249619503 0.0040728347 -0.0341528654 -0.0127158826 -0.0301664080 -0.0522261225 0.0400392301 -0.1072163060 0.0282905772 -0.0203354713 0.1046146601 -0.0041771592 0.0852931365 0.0377171896 0.1041100547 0.0409921706 0.0923714712 0.0126230344 -0.0048302929 -0.0326188840 0.0244333725 0.0547483414 -0.0537576079 0.0474936105 -0.0293193068 0.0603542849 -0.0688527077 0.0417648889 0.0233791228 0.0467990227 0.0750025585 -0.0111478092 -0.0185843185 -0.0183160622 -0.0096314363 -0.0428697988 -0.0624027811 -0.0688193738 0.0333600044 0.0579797365 -0.0226633884 0.0182551555 -0.0176485367 0.0492887199 -0.0246737488 -0.0008832440 -0.0728329569 0.0180831850 -0.0778209418 -0.0222430564 0.0766694248 -0.0021940200 0.0994320810 0.0439451598 0.0707133114 0.0970412940 0.0497404970 0.0863554552 -0.0071170037 0.0049776090 0.0808867216 -0.0327666365 0.3713723719 -0.0435210913 -0.0145882564 0.0179381147 -0.0308141541 -0.0041709901 -0.1163009778 0.0203022361 0.0742281303 0.0413328223 -0.1102129519 0.0711786076 0.0058777155 0.0373120084 -0.0196209028 0.0682859793 0.3715412617 0.0643743873 0.0273983590 0.0353484936 -0.0460480638 -0.0373362750 0.0180190112 -0.1022676229 -0.0143812159 -0.0846024901 -0.0863629580 -0.1041184440 0.0638629794 0.0605911352 0.0734736696 0.1103767753 0.1083141863 -0.0062332079 -0.0468955934 0.0889055207 0.0606895797 0.0463617630 0.0188603960 -0.0277876984 0.0473650806 0.0503887720 0.0399390906 0.0458687954 -0.0450752079 0.0231933203 -0.0981872156 0.0797831342 -0.0674097687 -0.0051142243 -0.0181647670 -0.0222557317 -0.0435762703 0.0415803753 -0.0737908930 -0.0908933878 -0.0452184789 0.0577138737 -0.0418826528 -0.0223862324 0.0301454682 0.0147238830 -0.0239279941 0.0504707247 0.0208085161 0.0871975943 0.0048402492 0.0565313324 -0.0060557085 -0.0371529013 0.0612250417 -0.0715980232 0.0559337586 -0.0243100598 0.0366048440 -0.0001464412 -0.0008690059 -0.1418638229 -0.0008931634 -0.1030609384 -0.0651922226 -0.0324029736 0.0034018452 -0.0617125481 0.0001307800 0.0023240373 0.0753902197 0.0420018956 -0.0240862183 0.0576132536 -0.1022869274 -0.0920479372 0.0743276030 -0.0038973764 0.0695708096 0.0711444169 -0.0653320700 -0.0143202171 -0.0305276103 0.0814719647 0.0324639007 0.0366432369 -0.0085830614 0.0743314177 -0.0699364394 0.0359730646 0.0557704568 -0.0393897481 -0.0614342615 0.0699229985 0.0253950804 -0.0217576809 0.0729657263 -0.0306131616 -0.0300264824 0.0253725555 0.0714601874 0.0318230279 -0.1070195585 -0.0958599225 -0.0472937860 -0.1047642529 -0.0047755199 0.0186853167 -0.0965457857 0.0676806867 0.0480198562 0.0722822696 -0.0358170979 0.0396481603 0.0660104603 -0.0228191093 0.0213148519 -0.0017421246 -0.0499530174 0.0033824667 -0.0387705714 0.0183286592 0.0414083302 0.0732355863 0.0074894950 0.0480093807 -0.1095521823 0.0288634915 -0.0241419878 -0.0665835738 -0.0682290345 -0.0464047566 0.0420759022 -0.0943085924 -0.0907326937 0.0196973886 0.0285420548 -0.0434741788 -0.0449718051 -0.0412171148 -0.0268406700 -0.1101079881 0.0269888248 0.0147687932 -0.0570206977 -0.0428234935 0.0297248662 0.0014444772 -0.0520122945 -0.0348499864 -0.0229113139 -0.0872146487 -0.0660393164 -0.0534173325 0.0208355263 -0.0681369901 0.0412088186 0.0162825566 -0.0514129736 -0.0364431851 0.0165031552 -0.0309524350 0.0162864104 -0.0013569477 -0.0418672934 0.0511632413 -0.0269837473 -0.0733634233 -0.1062371060 -0.0563292205 -0.0799089596 0.0016701060 0.0229632352 -0.0746391416 -0.0278520063 0.0203821771 -0.0792295188 0.0018974167 -0.0131385569 -0.0016029015 -0.0193629786 -0.0733676776 -0.0010828972 -0.0427541845 0.0303951949 -0.0614658296 -0.0421008840 0.0611596406 -0.0040394142 -0.0309933685 -0.1288401037 -0.0306810159 0.0216664895 -0.0743768588 -0.0930224881 0.0143884784 -0.0136522269 -0.0520911478 0.0016583466 -0.0011338339 -0.0834210068 -0.0862468705 -0.0306910798 -0.0055839755 0.0509276465 -0.1067028418 -0.0207097307 0.0136478925 -0.0386317708 -0.0222551059 0.0448146351 -0.0504391789 -0.0038441692 0.0110308900 -0.0317936651 -0.1049750522 0.0344496295 -0.0104223266 -0.0052190349 0.0109919207 0.0214065313 0.0053353757 -0.0608618706 0.0690024346 -0.0003969371 0.0405797884 0.0139239579 -0.0521294810 0.0627326518 -0.0025208369 -0.0664139837 -0.0475900210 0.0538223982 -0.0214601867 0.0421075970 -0.0306329653 -0.0707671195 -0.1126247123 -0.0107640103 -0.0969159976 0.0301408619 -0.0195429623 -0.0905648544 -0.1126352251 0.0447248369 0.0055097793 -0.0852325633 0.0509595349 -0.0586360916 0.0069728969 0.0347403586 -0.0418818071 0.0393855162 -0.0283218697 0.0307471156 0.0011321744 -0.0955323055 -0.0658842847 -0.0976745635 0.0071309661 -0.0887613446 -0.0958349928 -0.0002311622 0.0306728203 -0.0992620140 -0.0672752783 0.0458064601 -0.0072983494 -0.0691124946 -0.0093552824 -0.0768300891 -0.0064735576 -0.0828904435 0.0142478850 -0.0991414562 -0.0241255499 0.0532099977 0.0360517502 0.0743426979 0.0375302881 -0.0101211146 0.0376036242 0.0444780439 0.0814721882 0.0690507591 0.0236247536 -0.1119901985 -0.0911510214 -0.0581677146 -0.0103611983 -0.0130675966 0.0057975366 -0.0229650699 -0.0484431945 0.0159677919 -0.0231960900 -0.1024036407 -0.0411126986 -0.0602879822 -0.0082028350 0.0200288482 -0.0648023933 -0.0443420596 -0.0843987241 -0.0513270237 -0.0137908449 0.0480202846 0.0083301188 0.0061262590 -0.0141360844 0.0371929966 -0.1021093950 -0.0218419153 -0.1114815325 0.0127537148 0.0027206549 -0.0368771441 -0.0558773577 0.0472096391 -0.1091522947 -0.0323133655 -0.0048935460 -0.0857290551 0.0453709885 -0.0252630673 -0.0352826752 -0.0657862052 -0.0252682809 0.0816433430 0.0037517920 0.0474724770 -0.0029405809 -0.0531707965 -0.0452347510 0.0186033621 -0.0156396702 -0.0704366192 -0.0221855566 -0.0779427215 -0.0109009147 -0.0328358822 0.0329623446 -0.0432503112 -0.0819917098 -0.0082205422 -0.0413465314 0.0305817239 -0.0586426221 -0.0515407622 0.0666492432 0.0617375523 0.0719912648 -0.0133465156 -0.0785657987 -0.0081064701 0.0379315764 0.0123802945 0.0235209428 -0.0785457343 -0.1029229984 -0.1027919948 0.0296490453 -0.0469682552 -0.0865146518 -0.0098738745 -0.0988497958 -0.0113657732 -0.0963411704 -0.0383992344 0.0585446730 0.0224899147 -0.0317350663 -0.0910344869 0.0229379255 -0.0498559996 0.0072821127 -0.0759482905 0.0500469394 -0.0802295059 -0.0559440739 -0.0219563097 -0.1094425544 -0.0552578717 0.0056147659 0.0612742156 -0.0163854435 -0.0124855489 -0.0782050341 -0.0577040501 -0.0034871080 -0.1443205178 -0.1265897006 0.0252543315 -0.0804782882 -0.0155404210 0.0556199811 0.0627935529 -0.0093921330 -0.0200268347 -0.0046549351 0.0415184237 -0.0941805691 -0.0316719636 -0.0818520635 0.0268667750 0.0293753445 0.0485546961 -0.1096961796 0.0132003073 -0.0200656895 0.0119042024 -0.0888449401 -0.0126992939 0.0334636159 0.0083437217 -0.0381287448 -0.0152204968 0.0439113379 -0.0649436638 -0.0759228393 -0.0213216469 -0.0459138602 -0.0106652081 0.0059585636 -0.0658273771 0.0460883975 0.0056978166 -0.0793297514 0.0449888855 -0.0741137415 0.0232970323 -0.0463313237 -0.0634438619 -0.0743761435 -0.0365219004 -0.0832853168 -0.0920236334 -0.0256492384 -0.0461415835 0.0334489867 -0.0483328141 -0.0345242135 -0.0459585004 0.0017970279 -0.0779507235 -0.0427331701 -0.0028627871 -0.0235202089 -0.0263737962 0.0403759032 -0.0731563494 -0.0517193116 -0.0747117847 0.0650298595 -0.0288796388 0.0292985607 0.0073798499 -0.0152001409 -0.0322100259 0.0062217265 -0.0221936665 -0.0234424025 0.0464134514 0.0418771431 -0.0158617347 -0.0544512495 0.0456893742 -0.0065471902 -0.0775380209 -0.0186230727 0.0424728133 -0.0303681530 -0.0068728845 -0.0575360656 0.0088750580 0.0032914635 -0.0828261524 0.0122804642 0.0256506298 0.0281300843 0.0328644663 -0.0100179017 -0.0396069735 0.0842887312 -0.0641000196 -0.0733850300 -0.0137830470 0.0099500986 0.0069342502 -0.0958927944 -0.0586546063 -0.0999640003 -0.0686531439 0.0409918502 -0.0383607410 -0.0291100964 -0.0625187382 -0.0599381998 -0.0581041649 0.0113158748 0.0145809278 0.0770423710 0.0122112408 0.0030767396 -0.0467065610 -0.0187031403 -0.0071960092 0.0796233565 0.0683298856 0.0604552999 -0.0007669312 0.0276248958 0.0408815444 0.0274059642 -0.0057618050 0.0048913569 -0.0562135093 0.0148236854 -0.0506517328 0.0579677112 -0.0753316060 0.0238081049 -0.0253962073 -0.0425430574 0.0424536057 0.0357515961 0.0693910122 0.0538741052 -0.0569543913 0.1103042290 -0.0490174927 0.0435115732 0.0627827048 0.0752239376 0.1089920104 0.0061566178 0.0058281221 -0.0376182497 0.0533429794 0.0020136733 0.0697616190 0.0180189684 -0.0055784141 -0.0425410792 0.0351640470 -0.0211139824 -0.0255362652 -0.0365265459 -0.1033500656 0.0650976524 0.0516866297 0.0324238017 -0.0227648895 -0.0313667022 0.0726308823 0.0998676270 -0.0389616750 0.0252373014 -0.1022186652 -0.0543715395 0.0001966921 -0.0730431229 0.0096704764 0.0477427132 0.0528337955 -0.1109752283 0.0512186252 0.0312182773 0.0389021598 0.0417584777 0.0114098815 -0.0545672774 -0.0694631413 -0.0653456971 0.0108822938 0.0572920702 -0.0474202782 0.0386402756 -0.0923180357 -0.0098224804 -0.0161186140 -0.0058504459 0.0029257054 -0.0801486671 -0.1172889918 -0.0851881504 0.0379744805 -0.0408748128 -0.0028041929 -0.0204069745 0.0789413080 0.0224847887 -0.0656680167 0.0893918723 0.0342945643 0.0840296894 -0.0107073337 0.0039056912 -0.0508992821 -0.0163449682 -0.0229371078 0.0010873452 0.0194401592 0.0205750559 -0.0246996209 -0.0221536607 -0.1095120162 0.0139114885 -0.0927240923 0.0148575073 -0.1015757099 -0.0437448137 -0.0972671285 0.0176599994 -0.0888428912 -0.0343013443 -0.0005578105 -0.0904773399 0.0304704458 -0.0331203490 0.0197397936 -0.0695242137 0.0087016542 -0.0107026221 -0.0810833052 -0.0335565098 -0.0856491402 -0.0520007163 -0.0037002836 -0.0401313789 0.0599150807 -0.0278541893 0.0005758032 0.0787344873 0.0724416524 0.0830385238 -0.0498936661 0.0575258024 -0.0228869766 0.0236947872 -0.1097749472 -0.0143576488 -0.0043866639 0.0555673316 -0.0437895022 0.1050962508 -0.0031544673 0.0887081027 -0.0120303389 0.0595251061 0.0483296923 0.0702445731 -0.0255727842 -0.0417343788 0.0441349633 0.0954600796 -0.0593528636 -0.0125845652 -0.0516645871 0.0616463460 -0.1002903655 0.0515205860 0.0460883379 0.0551689714 0.0014250427 -0.0600442775 -0.0801168978 0.0290017352 -0.0006872043 0.0011671640 0.0542761460 -0.0348128229 -0.0895991921 -0.0159851462 -0.1049118862 0.0228085238 0.0280783158 -0.0316222869 0.0867431834 0.0367329791 -0.0758587122 -0.0079127494 0.0680167750 0.0555758961 -0.0905987993 -0.0438579023 0.0321226791 -0.0063459026 -0.0936704576 -0.0486792102 0.0068853227 0.0287513398 0.0315733887 -0.0714608803 -0.0365301259 -0.0145294806 -0.0343871824 -0.0204675011 -0.0240331814 0.0377928689 -0.0946252123 0.0743386894 0.0718722120 0.0489425361 -0.0174259469 0.0107299937 0.0750239342 0.0324168764 -0.0268317126 -0.0855341926 -0.0926285312 -0.0526108183 0.0341226719 0.0063640038 -0.1054434776 -0.0098774498 -0.1061625630 -0.0836201832 0.0413697660 -0.0885509402 0.0426666997 0.0460827239 -0.0236966610 0.0027957051 -0.0779728219 0.0478499644 0.0588829517 0.0737300813 0.0179571174 0.0139772519 0.0010344160 -0.0140456166 -0.0921349302 -0.0710781142 0.0107798502 -0.0655115843 0.0129668489 0.0582885593 0.0629295856 -0.0798289701 -0.0264551267 0.0866598338 -0.0403871201 0.0006748298 -0.0528206564 0.1095332950 0.0344726220 0.0293880012 -0.0811670348 0.0801553205 -0.0275244210 -0.0294470880 -0.0437378101 -0.0257187095 -0.0110486597 0.0225953571 -0.0750558376 -0.0306139905 0.0214006677 -0.0407079048 -0.0466521457 -0.0147729991 0.0274831932 0.0613689385 -0.0344081223 0.0578865707 -0.0459376425 0.0247030705 0.0694001168 -0.0815741941 -0.0285741314 0.0746368021 0.0655198544 -0.0350988172 -0.0307067428 -0.0936378837 -0.0910793245 -0.0162682813 0.0877061263 0.0106774094 -0.0042907395 -0.0364663415 0.0757205188 -0.0016974625 -0.0024575770 0.0427332409 -0.0213262215 0.1000452116 0.0131289158 0.0514353067 0.1079364866 -0.0353198387 0.0772465318 0.0760251731 -0.0312239267 0.0758062378 0.0263846740 -0.0653800294 0.0022877895 0.0026073991 0.0268697981 -0.0911378488 -0.0593072698 -0.0310177077 0.0443088487 0.0220556296 -0.0494248979 -0.0908460617 -0.0873252973 -0.0833679512 -0.0217397306 0.0395696759 0.0463210270 -0.0326665528 -0.0355692245 0.0241505653 0.0042409161 -0.0874554142 -0.0019779152 0.0374325514 -0.0773521438 0.0175705180 0.0808182955 -0.0529469773 -0.0733291805 0.0752384067 0.0193392113 -0.0635222644 0.0439065099 -0.0176769085 0.0005988837 -0.0081601497 -0.0032758361 -0.0939970389 0.0238191038 -0.0697613433 -0.0176684223 -0.0678664222 0.0262757689 -0.0099499077 0.0527271926 0.0315022394 -0.0777223706 -0.0275506862 0.0622763187 -0.0110416636 0.0812133402 -0.0062437132 0.0782573372 -0.0321288705 -0.0662512705 -0.0324494243 -0.0067180023 -0.0217653383 0.0264176279 -0.0637394488 -0.0333619341 0.0110455500 0.0122154132 -0.0220288895 0.0745380670 0.0736087859 -0.0800432116 0.0230479464 0.0231230035 0.0118251517 0.0452496707 -0.0454941168 -0.0460243262 0.0654634237 0.0066579171 0.0647058859 0.0392416045 -0.0634918809 -0.0694866180 -0.0684498474 -0.0847591311 -0.0127590299 -0.0013304800 -0.0066049993 0.0798066109 -0.0338593647 0.0014146268 -0.0054708943 0.0166565999 -0.0107392147 0.0786139667 -0.0645785257 -0.0029302388 -0.0637350827 -0.0051342249 0.0604536086 0.0283433422 0.0255626366 -0.0041531771 0.0048947781 0.0494552702 0.0738236159 0.0012953430 0.0575947464 -0.0636018440 -0.0132964058 -0.0408075936 -0.0438381992 -0.0639294013 -0.0168088544 0.0164771918 -0.1127313524 0.0498673953 -0.0020482019 -0.0139125288 0.0776793957 0.0064835548 0.0614338666 -0.0770370364 0.0570983887 -0.0536418892 -0.0405797325 0.0583265275 0.0119413137 -0.0648751408 0.0353712291 0.0085605308 0.0624388605 0.0059036687 0.0113554290 -0.0566411242 -0.1176376566 -0.1313544512 -0.0305491108 -0.0646347031 -0.0437426269 -0.0260695834 -0.0140070543 -0.0396579728 -0.0539588928 -0.0615330040 -0.0007046685 0.0483001918 -0.0799855366 -0.0090476424 -0.1467646807 -0.0106390622 -0.0947007835 -0.0771082342 -0.0200503245 -0.1477356702 -0.0360556506 0.0032291533 0.0002732575 -0.0699470937 -0.0684057027 -0.0119679868 0.0042690635 -0.0274069719 0.0240437090 -0.0589108132 -0.1288548112 -0.1190540940 -0.1145156771 -0.0261658616 -0.0286840145 0.0190547947 -0.0662530884 -0.1056026816 0.0498500764 -0.0269266348 -0.0053530103 0.0566160008 0.0357936695 0.0412231460 -0.0482441746 0.0724940524 -0.0163166896 -0.0214771591 -0.0442756675 0.0426380560 0.0180448666 0.0320311859 0.0451835394 0.0554917455 -0.0751975402 -0.0502230972 0.0611812770 -0.0656287968 -0.0554258637 -0.0037384108 0.0774788409 -0.0267512947 0.0651401430 0.0160746630 -0.0763938800 -0.0649041757 -0.0604431853 0.0099025890 -0.0831241235 -0.0126926135 0.0031436586 -0.0458438918 0.0080849743 -0.0447523221 -0.0690890029 0.0612069406 0.0782266855 -0.0357360132 -0.0583757050 -0.1040924862 -0.0449310653 -0.0205588788 -0.1121141613 -0.0260683913 -0.0219679791 -0.0707666799 -0.0478229336 0.0718690753 -0.0478012003 -0.0419417582 -0.0715112612 -0.0123923123 0.0679514259 0.0571159273 -0.0707883909 -0.0392580740 -0.0209655426 -0.0686982200 -0.0745735466 -0.0340657644 -0.0203337632 -0.0244954079 0.0716369599 -0.0136556178 -0.0097471178 0.0601864755 0.0579854697 0.0006442443 -0.0573824830 -0.0281597748 -0.0438517109 -0.0522615835 0.0762798339 0.0355489850 -0.0677379668 0.0010025874 -0.0440262668 0.0208583325 0.0405802801 0.0222104862 -0.0762423500 -0.0267963633 0.0067816302 -0.0288225934 0.0558435023 -0.0535842925 -0.1283514947 -0.1222775951 -0.0718721971 0.0096451975 0.0166647341 -0.1119282171 -0.1207074225 -0.0954317898 -0.0768444315 0.0603617728 -0.0249021351 -0.0596922562 -0.0595553517 -0.0621219389 -0.0353506282 -0.0538390800 -0.0332220010 -0.0714245811 -0.0782948583 -0.0838613957 -0.0115318177 -0.0343237780 -0.0120877204 -0.0266713407 -0.0915684626 -0.1287074685 -0.0883866474 -0.0164972171 -0.1040043905 -0.0036309294 -0.0659548789 -0.0124519216 -0.0516281649 0.0475905240 0.0028464571 -0.0185314491 -0.0637477264 0.0111818388 -0.0060605705 0.0291959792 -0.0014131265 -0.0289637409 -0.0266078264 -0.0418669097 0.0667393729 -0.0155877136 -0.0142207183 0.0305918809 0.0593077838 -0.0155261764 0.0103429398 -0.0730963275 0.0123924278 0.0040062000 -0.0901254639 0.0250678621 -0.0030434355 -0.0472165756 0.0397508442 -0.0344850011 -0.0815258846 -0.0817391947 -0.0625688583 -0.0319365785 0.0090996325 0.0751847923 0.0663453937 -0.0759879127 -0.0533825010 -0.0776234940 -0.0523964353 0.0016647875 -0.0555039421 -0.0377897359 0.0163261518 -0.0283987336 0.0764265209 0.0412149653 0.0735278875 0.0682073981 -0.0015321709 0.0110437069 -0.0056656962 -0.0935025290 -0.0556921586 -0.1015616581 -0.0258088894 0.0048745964 -0.0240030102 -0.0100634620 -0.0324044712 0.0452197045 -0.0692900270 -0.0498279184 -0.0741234049 0.0335567221 -0.0378275365 -0.0413151681 -0.0561110489 -0.0040834295 -0.1112327203 -0.0672743767 -0.0058662090 -0.0708688423 -0.0178930610 0.0404531509 0.0153399333 0.0758262277 0.0275300592 -0.0161656812 -0.0240548290 -0.0017733201 0.0006238744 -0.0238303244 0.0690442920 -0.0315353312 -0.0391471386 0.0710476041 0.0372392535 0.0016921163 -0.0775566921 0.0153552890 0.0599623322 -0.0436238497 -0.0322276689 0.0100813285 -0.0511770286 -0.0030304790 -0.0130325258 -0.0596677214 0.0022870826 -0.0694489777 0.0698295087 0.0733546615 -0.0577774793 0.0101026362 0.0078314319 0.0082483292 0.0328906104 -0.0398515537 0.0183250532 0.0558480620 0.0395517573 0.0263609886 0.0569140837 0.0110236658 -0.0578358769 -0.0513604842 -0.0265100114 0.0436638109 0.0722197816 -0.0436184742 -0.0814522132 -0.0653523952 -0.0741561800 0.0580720901 0.0702370852 0.0702050477 -0.0245264880 -0.0738881081 -0.0374729298 -0.0768408701 -0.0557016283 -0.0025098324 -0.0898999125 0.0640435293 -0.0236611459 -0.0014221594 0.0026626072 0.0040061413 -0.0829489753 -0.0462132841 0.0192031302 0.0262663979 0.0432145894 0.0705319643 -0.0253537185 -0.0044994801 0.0544409305 -0.0672040731 -0.0004184917 -0.0635453612 0.0520669669 -0.0561240353 0.0171594471 -0.0760577619 0.0431538671 0.0564454496 0.0263757892 -0.0481759533 -0.0210580360 0.0494778454 -0.0209279656 -0.0314151235 0.0188540258 0.0728941709 0.0358292535 0.0414735749 -0.0252159610 -0.0680266842 -0.0725568384 -0.0960375369 -0.0665132925 0.0373028740 -0.0595435053 0.0071455766 -0.0080841789 -0.0669118688 -0.0748542771 0.0092070177 -0.0127794370 -0.0183191001 -0.0431504734 0.0814080685 0.0275937021 -0.0626563206 -0.0528736562 -0.0467985682 0.0396574065 0.0589893460 0.0661479831 0.0391960666 -0.0017368942 0.0762687027 0.0417197570 0.0064016809 0.0235678330 -0.0142375249 -0.0669510663 0.0071915681 0.0134676630 -0.0255505815 0.0389066972 -0.0889803097 -0.0731510520 -0.0532373115 -0.0155701693 -0.0232386366 0.0249014888 -0.0040214937 0.0449518748 0.0251852348 -0.0726969242 -0.0110711213 -0.0233720392 -0.0140581951 0.0215077773 0.0386867486 0.0160379354 0.0474365763 0.1002667695 -0.0557987653 0.0452192575 -0.0137179308 -0.0404016376 0.0259395670 0.0285508092 -0.0523766801 -0.0214753076 -0.0684340298 -0.0899777785 -0.0101019917 -0.0325952880 0.0097306166 -0.0458333753 -0.0646043941 -0.0461112708 -0.0677643418 0.0090528233 -0.1076161489 -0.0976316556 -0.0895520747 -0.0683503747 0.0241833124 0.0233063642 -0.1110952720 -0.0579765774 0.0368587561 -0.0070194905 0.0498278998 -0.0515895113 0.0491371751 -0.0134091452 -0.0227478780 -0.0567877144 0.0115105137 0.0023996606 -0.0248800516 0.0133562647 -0.0450722463 -0.0086316941 -0.0128611811 -0.0716940686 0.0565716885 -0.0039702361 -0.0478337556 -0.0137704732 -0.0201112255 -0.0448853262 -0.0423857644 -0.0224656053 -0.0594988093 -0.0163668524 -0.1004003584 -0.0681289062 -0.0353755206 -0.0179906879 0.0331221372 -0.0150921764 0.0074474979 0.0165663864 -0.0132290162 -0.0218211226 0.0037566870 -0.0484505333 0.0805246830 -0.0642767996 -0.0321374945 0.1001004800 0.0676353723 0.0668179169 -0.0460128263 0.0317037478 0.0555406064 -0.0305863060 -0.0335655212 -0.0796194375 0.0324964821 -0.0295766443 -0.0545293503 0.0004238039 -0.0158069506 0.0584994555 0.0212320760 0.0283112898 0.0380844399 -0.1018538699 -0.0893025324 -0.0615549535 -0.0665882081 -0.0121831503 -0.0149497045 -0.0755792409 -0.0710606351 -0.0090643689 -0.0990950689 -0.0671165213 -0.0144185843 -0.0874290541 -0.0371739194 -0.0502545089 -0.0027106805 0.0464449078 -0.0542779304 0.0354335122 -0.0468385629 -0.1097663194 -0.0892319903 0.0242197011 -0.1094278023 0.0157813486 -0.0541879646 0.0180529058 -0.0858689696 -0.0935091227 0.0232492071 -0.0214978922 -0.0142981494 -0.0319485553 0.0082344627 -0.0036651955 0.0267017372 -0.0147168925 0.0493194908 -0.0726526901 -0.0751579180 -0.0765716583 0.0648676455 0.0768835247 0.0091596320 -0.0159112513 0.0180661306 -0.0022825971 -0.0465407819 -0.1094326079 0.0106244180 0.0291358661 0.0086232712 0.0004767575 -0.1053991318 -0.1088338867 -0.0515852086 -0.0143294260 -0.0173995141 -0.1078272760 0.0167680625 0.0373326838 -0.0414946936 -0.0262007546 -0.0807123482 0.0327033959 -0.0174073931 -0.0950927213 -0.0759526417 -0.0901850015 -0.0652344599 0.0144676780 0.0504225194 0.0334300064 0.0373171084 0.0613517500 -0.0075533981 -0.0245870464 -0.0707556978 -0.0420512892 -0.0847310573 0.0331683904 -0.0160834733 -0.0428211093 0.0062620351 0.0128698125 -0.0454615206 0.0057458854 -0.0909567550 -0.0082534784 -0.0746980160 -0.0827124193 -0.0009811074 -0.0897993669 0.0575880371 0.0216400251 0.0804036558 -0.1105948463 -0.0647829771 0.0212184936 -0.0733869523 -0.0600357465 -0.0197467823 -0.0809646100 0.0565097481 -0.0436739549 -0.0342548043 -0.0586446710 -0.0926133394 -0.0843595192 0.0113955382 -0.0343330465 -0.0379344225 0.0484362096 -0.0745771304 0.0563987643 0.0063735917 -0.0137437657 -0.0658043176 0.0159022585 -0.0378224738 -0.0795047432 -0.0118724359 -0.0021291750 0.0518113747 0.0004607599 0.0378859863 -0.1088083237 -0.0633101985 0.0729807019 -0.0777156502 0.0310105309 0.0141654480 -0.0935011357 -0.0558558479 0.0166277215 -0.0055128355 0.0260812640 0.0041063218 0.0455329381 -0.0074346513 -0.0251109712 -0.0063574309 -0.1118394211 0.0014572121 -0.0564862415 -0.0534738675 -0.0815810412 0.0774782151 0.0107639953 0.0270916298 -0.0285260379 0.0588017106 -0.0594111718 0.0434608608 0.0121598803 0.0041018054 0.0219606385 -0.0757846981 -0.0479962490 0.0027742535 -0.0401328877 -0.0865914971 -0.0829446763 0.0029804669 0.0022004331 -0.0888048261 -0.0001836429 0.0503213964 0.0072889146 -0.0404179581 0.0213930272 0.0273047537 -0.0909284353 -0.0036901787 -0.0632539243 -0.0446787439 -0.0090595623 0.0334364139 0.0324969739 -0.0048458460 0.0357453078 -0.0529865250 -0.0278342143 -0.0486789122 -0.0057245493 -0.0400512777 -0.0751108974 -0.0390156396 -0.0106951818 -0.0414866060 -0.0722627640 0.0546098948 -0.0508663915 -0.0702119470 -0.1042759567 -0.0793753266 -0.0560811609 -0.0208189338 0.0331752151 -0.0552685633 0.0830825940 -0.0344829708 0.0240514502 -0.0254486762 -0.0949985012 0.0527079701 0.0655972511 0.0601801723 -0.0076045720 -0.0453714356 -0.0307871141 0.0103694573 -0.0185640790 -0.0393161215 -0.0502580144 0.0195943266 -0.0753234103 0.0102591552 -0.0768624693 -0.0665327087 -0.0430962779 0.0536917411 -0.0600644946 0.0625776052 0.0751360357 0.0154571086 0.0252396017 -0.0294716991 -0.0149269253 -0.0740348846 -0.0806604922 0.0091563091 -0.0079426216 0.0062730890 -0.0513891727 -0.0350485519 0.0656749681 0.0458530225 -0.1021254733 0.0213484094 -0.0511407591 0.0031171441 -0.0443643034 0.0219636261 0.0703405291 0.0212838482 0.0010433132 0.0456117988 0.0322723016 -0.0145371268 -0.0548323728 -0.0950534344 -0.0076672849 -0.1140388176 -0.0359477401 -0.1105903611 0.0206733570 -0.0292669572 -0.0694297999 -0.0562755689 0.0596165359 0.0694033056 -0.0045751631 -0.0212603025 0.0748675168 0.0429851636 -0.0695544481 -0.0387547687 0.0499171168 -0.0298446156 0.0361068994 -0.0461056828 0.0048830868 -0.0589277074 -0.0917580500 -0.0150503367 -0.0246498398 -0.0246735532 0.0158375036 -0.0106499819 -0.0371551998 -0.0079539912 -0.0843872800 -0.1096033454 -0.0560425892 -0.0245013591 -0.0084253652 0.0478403419 0.0425456204 -0.0104410527 0.0135422945 -0.0074115377 -0.0249553397 -0.1106077954 0.0267326981 0.0265321247 -0.0808620751 -0.0791237950 -0.0525813922 -0.0027494605 -0.0270711631 -0.0085869385 -0.0291305240 -0.0324349925 -0.0106233936 -0.0580279268 -0.0604676045 0.0103834178 0.0392384790 0.0202025045 -0.0762051195 -0.0766798928 0.0443127640 -0.0994796008 -0.0599408597 0.0428014249 -0.0031444188 0.0108385943 -0.1042381227 0.0425425433 0.0427838378 -0.0433137678 -0.0892887414 -0.0326056704 0.0156431384 -0.0314492024 -0.0038096977 -0.0068245721 0.0106521174 0.0757254809 -0.0137675256 0.0425576568 -0.0180420950 -0.0421991199 0.0526753366 -0.0363126770 -0.1006054953 -0.0228235088 -0.0077482853 0.0461668372 0.0458367430 -0.0153148444 -0.0795809999 -0.1068406329 0.0325147659 0.0307141226 0.0191081930 -0.0135024879 -0.1142645925 -0.0991444588 -0.0289919246 -0.0448810197 0.0342136212 -0.0151108261 0.0464261658 -0.0872780979 -0.0967391357 -0.0318782777 0.0019326285 0.0099324118 0.0352713019 0.0644104928 -0.0481321029 0.0552865267 0.0732463747 0.0620657355 -0.0335372388 0.0008890033 -0.0437183194 0.0316773467 -0.0665373728 0.0413816422 0.0657546371 -0.0766294152 -0.0377924070 -0.0083133951 -0.0599350035 0.0180149004 0.0794928819 -0.0643571243 -0.0422423147 0.0051018372 0.0297836885 -0.0049285516 -0.0557800718 -0.0248185676 0.0034725938 0.0351860933 -0.1058323458 -0.0373514667 -0.0453157425 0.0470961146 0.0092729228 -0.0035507286 -0.0909647644 -0.0167734697 -0.0876624063 0.0371654704 0.0381830074 -0.0868618488 -0.0609474182 -0.0574338511 -0.0260643791 0.0300966166 -0.0761874691 -0.0650437698 -0.0423071235 -0.0484096110 -0.0419574305 -0.0064016148 -0.0073451675 -0.0098202815 -0.0204811767 0.0161121394 -0.0527104847 -0.0598546602 -0.0876664668 0.0410607271 -0.0777261779 -0.0746213943 0.0414315425 0.0027497860 0.0423095934 -0.1018762216 0.0683768839 -0.0414681695 -0.0546839312 0.0527256578 0.0695061386 0.0456728190 0.0716656893 0.0311821774 -0.0305615626 -0.0465658680 0.0161843989 -0.0715660825 -0.0988974348 -0.0101989293 -0.0536654219 -0.1088138446 -0.1047836095 -0.0278130174 0.0509605892 0.0197997540 -0.0518821217 -0.0802039728 -0.0425361730 -0.0848827362 0.0421613976 -0.0287447907 -0.0938693210 -0.0136033241 -0.0558408611 0.0294410456 -0.0502251312 -0.0097934511 -0.0192165952 -0.0879279003 0.0229922030 -0.0586022660 0.0301467590 0.0344687402 -0.0286599174 0.0297572073 0.0231595263 0.0513873324 -0.0026969374 0.0506115742 -0.0048902752 0.0156164896 -0.0361600742 -0.0334375761 -0.0134722004 0.0242027137 -0.1089757606 -0.0408143811 -0.1000490561 -0.0790482014 -0.0555725731 -0.0573935844 -0.1212205663 0.0049946597 0.0352720730 0.0133913532 -0.0943813100 -0.0970993936 0.0293212179 -0.0229787044 -0.0544867590 0.0136237945 0.0302519947 -0.0352078192 0.0025823188 -0.0701338723 -0.0319258533 0.0218294635 0.0073743314 0.0581437051 0.0639531463 -0.0036374852 0.0485437959 -0.0205161273 0.0200128183 0.0255372524 0.0307603087 -0.0903536826 0.0208557267 -0.0857153982 0.0201331917 0.0350017995 0.0230461191 -0.0692819431 0.0424703546 0.0617378652 -0.0439433083 -0.1015297472 -0.0193387624 0.0137956440 -0.0764511153 -0.0365684107 -0.1032813638 0.0239659250 0.0539724976 0.0137770297 0.0953004211 0.0563701168 0.0012890884 -0.0625139773 0.0005370751 0.0513088554 0.0510375649 -0.0686299205 -0.0108274221 -0.0017074123 0.0597758591 -0.0197499208 -0.0730959550 0.0065632313 0.0181669779 0.0477938652 -0.0215058774 -0.0308346413 0.0116794128 -0.0383632779 -0.0136205899 -0.0143475495 -0.0130662341 -0.0318524241 -0.0917099118 0.0126797212 -0.0906255692 0.0421299227 -0.1030962318 0.0102478378 0.0076802736 0.0412351824 -0.0735738724 0.0294831321 -0.0472045951 0.0047818548 0.0494095162 -0.0015023128 -0.0859990194 -0.0158408638 -0.0880341381 -0.0890868679 0.0251376014 -0.0847216249 -0.0213472024 0.0188574046 -0.1160165295 -0.0593329370 0.0289330035 0.0180652961 -0.0382765494 0.0266084597 -0.0228059590 0.0500075147 -0.0330736525 -0.0831772611 0.0459093750 -0.0734964162 -0.0424075462 -0.0075238943 0.0045917174 -0.0211598650 -0.0342500582 -0.0489426628 -0.0012035170 0.0271676630 -0.0700391382 0.0632887632 0.0982224122 0.0139082633 -0.0254668705 0.0110269794 -0.0354470015 -0.0541321374 -0.0581254251 0.0299490541 0.0349294581 0.0165737122 -0.0933142006 -0.0349129513 0.0085977437 -0.0279917177 0.0349281207 0.0870413557 0.0466033965 0.0097108334 0.0356492922 -0.0496485606 0.0049341470 -0.0656936914 0.0177101716 0.0101851448 0.0322660655 -0.0174523257 0.0258960910 0.0261413641 -0.0055220695 -0.0406977497 -0.0901200026 0.0063059092 0.0056956708 -0.0287831631 0.0528276935 -0.0717502013 -0.0116597638 0.0309346542 0.0039931624 0.0704213232 0.0340389311 -0.0744206458 0.0532402992 0.0157183297 0.0045896000 -0.0011483321 0.0301524419 0.0652207434 0.0367309526 0.0349833071 -0.0527057722 -0.0045462698 -0.0813646540 0.0518562198 -0.0346705206 0.0406062305 0.0302873254 -0.0326556265 -0.0803361163 -0.0454178713 0.0805572569 -0.0572903380 0.0734867454 -0.0657433644 0.0383052677 0.0802400038 -0.0032927985 -0.0071690828 0.0452815890 0.0087927319 -0.0353068449 0.0366735682 -0.1112782583 -0.1116373837 -0.0712305233 -0.0251203794 0.0354582779 -0.0540189035 -0.0587935224 -0.0366737917 0.0907878056 0.0386983566 0.0066692396 0.0912224203 -0.0328150764 0.0311448332 -0.0368847810 -0.0052534873 0.0898764953 0.0560704432 0.0238504224 -0.0501770601 -0.0378456563 0.0030020133 0.0755944699 0.0664841235 -0.0688793138 0.0276671145 0.0055743880 0.0380798168 0.0004086211 -0.1049364433 0.0365064777 -0.1146194935 0.1055986732 0.0398937352 -0.0204465128 0.1029802263 0.0254296418 0.0228018928 -0.0451116003 -0.0141504984 -0.0803831369 0.0292747580 0.0252927300 -0.0387825817 -0.1100841016 0.0002354164 -0.0981523693 -0.1095309108 -0.0251750331 -0.0090553034 0.0142476093 -0.0485953018 0.0180021767 -0.0311702807 -0.0118001467 0.0299872681 0.0483077131 0.0041763433 0.0498493910 -0.0616846830 -0.0905243754 0.0600083433 -0.0627670661 -0.0449418798 0.0035329531 0.0321469866 -0.0855767205 -0.0787572637 -0.0234701876 -0.0798134580 -0.0229219776 0.0269760154 -0.0736671686 0.0264427420 0.0918881148 0.0449465364 -0.0372067466 0.0200158134 0.0017445732 -0.0445528999 0.0679345578 0.0149814561 0.0994725600 -0.0771754980 -0.0307731256 -0.0558240488 0.0353520289 -0.0270481817 0.0248362422 -0.0382854640 -0.0815710053 -0.0784397945 -0.0950116962 -0.0147337718 0.0059002698 -0.0355818719 0.0444496237 -0.0482563414 -0.1147998571 0.0263340175 0.0100417072 -0.1102775708 -0.0794359073 -0.0780577362 -0.0047327583 -0.0560364425 -0.0117970994 -0.0173990689 -0.0314087756 0.0402301624 0.0516872928 -0.0028536669 0.0671351925 -0.0221611205 -0.0247546416 0.0240258723 -0.0011173267 0.0387336165 0.0302228630 0.0360318795 -0.0298671834 0.0301216599 0.0428157747 -0.0095091388 -0.0595664456 -0.0854923725 0.0219621770 -0.0596670248 0.0518839583 0.0683353394 -0.0065057036 -0.0214518681 -0.0505385548 -0.0223026350 0.0807299688 -0.0156832766 0.0050460100 0.0507660918 0.1037825868 0.0883632600 -0.0056768651 0.0942689776 0.0356492214 -0.0578881614 -0.0488412082 -0.0112590790 -0.0203640424 -0.0764834583 -0.0194814019 -0.0069530457 0.0332206786 -0.0377715118 -0.0324983895 0.0167263933 -0.0982905626 0.0525131263 0.0326842070 -0.1092571244 -0.0472470522 -0.0730518848 0.0394796915 -0.0121729597 -0.0540498979 0.0815823078 -0.0113478918 -0.1119585335 -0.0514081530 0.0317524001 -0.0920669213 -0.0664107874 -0.0490823574 -0.0391450897 0.0517264940 0.0488101803 0.0426949151 0.0282495320 -0.0537518188 0.0415540859 0.0118368268 0.0338203758 -0.0125311827 -0.0489057377 -0.0293146931 -0.0075974222 0.0411197767 0.0531572327 0.0616595559 0.0496356674 -0.0275924541 -0.0302627664 0.0164496060 0.0482424423 -0.0789839849 0.0003673589 -0.0655723289 0.0848725662 -0.0856788680 0.0078669470 0.0235524178 -0.0411766842 -0.1086846441 -0.0842298642 -0.0160192978 -0.0264659151 0.0149373990 -0.0240378994 -0.0390007868 0.0362181999 -0.0579042248 0.0676580071 0.0666443482 -0.0503706075 0.0051294737 0.0053805541 0.0002290221 -0.0379676148 0.0529729873 -0.0193029791 0.0416422561 -0.0339114964 0.0412734374 -0.0759340078 0.0699990392 0.0371677503 0.0333596170 0.0533764958 0.0515464991 0.0131560015 -0.0613303743 0.0020524981 0.0023392048 0.0773028135 0.0676625073 -0.0829209536 0.0474282354 0.0559066385 -0.0077094585 -0.0097892657 -0.0140035711 -0.0249760486 0.0170816071 0.0194915589 -0.0897935629 0.0495031551 -0.0563705489 0.0064609181 -0.0486401245 0.0647033453 -0.0190382078 0.0361193866 0.0091007277 -0.0238536000 0.0302749351 0.0253508314 -0.0510568656 -0.0005704015 -0.0579976439 -0.0497384258 0.0432645977 0.0258449279 -0.1000897884 -0.0007326435 -0.0371413641 0.0625847355 -0.0319430158 0.0105482340 0.1096917614 -0.0148022296 -0.0224458892 0.0977660939 0.0856235400 0.0441489257 0.0378481783 0.0497344770 0.0464460626 -0.0475941673 -0.0546229407 0.0219603442 -0.1040377691 -0.0688236803 -0.0398894027 -0.0244144592 0.0103121139 0.0591010414 -0.0729016587 -0.0994592011 -0.0766462237 0.0639353767 -0.0622936115 0.0546089821 0.0207058191 0.0125784632 -0.0097963484 -0.0541564114 0.0286779981 0.0928494334 -0.0620039292 -0.0670351163 -0.0127397543 -0.0204751473 -0.1099957675 -0.1186179221 -0.0199503973 -0.0243047941 -0.0547631346 -0.0632587224 0.0106414109 -0.0305506885 -0.0473846756 0.0620476007 0.0390580744 -0.0460347831 -0.0117544737 0.0095016928 -0.0860776231 -0.1256039888 -0.0913766101 -0.0532574952 -0.1562363058 -0.1442604810 0.0394182615 -0.0189612713 -0.0406746492 0.1061678380 0.0228992254 -0.0531022772 0.0765228495 -0.0487965234 0.0770417005 0.0579492152 -0.0092861354 0.0464167893 0.0054110363 -0.0534038655 0.0206499472 -0.0724830627 -0.1003672034 -0.0128299547 -0.0004815770 0.0232729539 -0.1146869063 0.0453000255 -0.0551866144 0.0549054481 -0.0345786288 0.0089015346 0.1015579626 -0.0491269156 -0.0045105442 0.0034158893 -0.0436013266 0.0774984509 -0.0121144503 -0.0962253287 -0.0125673125 -0.0935472250 -0.0066608754 -0.0400041491 0.0219315588 0.0169071108 0.0183176175 -0.0784221441 -0.0303591006 0.0139443725 -0.0658596829 0.0732925087 0.0757307708 -0.0153108239 -0.0193641856 0.0432634056 -0.0377910621 -0.0748711303 -0.0051591024 -0.0468405150 0.0702446550 -0.0329942256 0.0152314408 0.0969620273 0.0396105647 0.0430329181 -0.0035167572 0.1015551239 -0.0170529541 -0.0097181424 0.0106206890 -0.0925741717 -0.0842270628 -0.0847940445 -0.0003815291 -0.0743857473 -0.0937948674 0.0478604175 -0.0145215411 0.0531275012 -0.0462040342 -0.0382316150 0.0844947025 0.0372690409 0.0204481035 0.0445265956 -0.0227316879 0.0200150423 -0.0260263477 -0.0424050391 -0.0398837440 0.0975009128 -0.0284370352 -0.0597134717 -0.0134712225 0.0585022010 0.0988754779 -0.0680174530 0.0801632479 0.0682081059 -0.0025605045 0.0072906059 -0.0209466051 -0.0022927534 0.0210038405 0.0177146364 0.0684232935 0.0030015646 -0.0468700826 0.0100559061 -0.0968562812 0.0305370074 -0.0055402820 -0.0496003404 -0.0732356459 0.0243013166 -0.0574202426 0.0454243198 -0.0890837759 -0.0128528997 0.0249016955 0.0127282664 -0.0748287290 -0.0494912118 -0.0598415509 -0.0145198191 0.0351939090 0.0099337976 0.0198023245 0.0001920099 0.0085309148 -0.0382735729 0.0276104007 -0.1290813535 -0.1091427207 0.0279583577 0.0089059249 0.0139908241 -0.0701246187 0.0272319373 -0.0798209533 0.0070301183 0.0600603260 0.1114475653 0.0490385368 -0.0099483300 0.0839200243 -0.0472142808 0.0048410767 0.0946230963 0.0774015933 -0.0458828993 0.0294724498 -0.0483654924 -0.0047844648 -0.0805517435 0.0179443210 0.0791217387 0.0007539212 -0.1252867281 -0.1211149767 -0.0883405283 0.0330758542 -0.0830309987 -0.1187120751 -0.0544945113 -0.0723337084 0.0210440308 -0.0525595099 -0.1123333275 -0.0816948935 -0.0552952439 -0.0042694220 -0.0593960583 0.0322587565 -0.0232776385 -0.1118843928 0.0001174741 -0.0031209250 -0.0910735652 0.0050275032 0.0334475487 0.0014824799 0.0386772193 0.0980953574 0.0899270400 0.0203835592 0.0153395543 -0.0078529036 0.0970894843 0.0411215648 0.0333820395 -0.0029446904 0.1068586782 0.0519701652 -0.0509435982 -0.0358424336 -0.0375436731 0.0992954448 -0.0330173410 0.0348370261 -0.0708299428 -0.0047618761 0.0941398963 -0.0084879836 0.0056087221 0.0051620486 -0.0328269191 0.0078691477 0.0107092774 0.0003761681 -0.0328712687 -0.0457284935 0.0910563171 -0.0618865862 -0.0705176666 0.0298203826 -0.0101604611 -0.0631021857 0.0328228846 0.0312403962 0.0733387768 -0.0830611959 -0.0211567245 0.0165070686 -0.0557867810 -0.0043663871 0.0463505983 0.0074384711 -0.0803207532 0.0380656272 -0.0011265260 0.0523517765 0.1039014459 -0.0366432406 0.0065547545 -0.0274522807 0.1000244543 -0.0946774557 -0.0279421117 -0.0647865608 -0.1249384061 -0.0545587540 0.0201232210 -0.0435814559 -0.0544513762 -0.0897417963 -0.0096480660 0.0244163144 -0.0302811936 0.0466259643 -0.1090899855 -0.0182752330 0.0065808515 0.0043805023 0.0056663151 -0.0250861365 -0.0314036831 0.0647756755 0.0647657216 0.0748504400 0.0296714138 -0.0187231097 -0.0702710599 -0.0960498080 -0.0899502039 -0.0024605629 0.0287739038 -0.0908223093 -0.0850478634 -0.0503863357 -0.0089424141 -0.0680815279 0.0220198501 -0.0214832053 -0.1173874959 0.0075729135 0.0015573874 0.0413951278 0.0215715151 0.0084526176 0.0167190023 0.0100534549 -0.0122615481 0.0151378922 -0.0823714808 -0.0037706420 -0.0257543027 0.0645422190 0.0369489416 0.0499007851 -0.0218064338 -0.0343108699 -0.0627821088 0.0539604351 0.0279075354 0.0173534062 0.0076062945 0.0403687470 0.1015939340 0.0358974822 -0.0351770036 0.0272571892 0.0328042395 0.0279281456 -0.0194441173 -0.1062635109 -0.0658438876 -0.0571502745 0.0216934569 0.0381536819 0.0833890438 0.0678864121 -0.0657346919 -0.0295933969 -0.0552235097 -0.0029362983 0.0874027833 -0.0496359095 -0.0297130756 0.0225887746 -0.0865558684 0.0152907036 0.0365693942 -0.0330163985 -0.0639727712 0.0171841402 -0.0196069274 0.0576516092 0.0368820615 0.0054158233 -0.0651250184 -0.0931304693 0.0217216872 -0.0124674933 0.0218440481 0.1103365272 -0.0462302417 -0.0114137381 0.0087767513 0.0108277453 0.0642438605 0.0677926913 0.0795120001 -0.0322825834 -0.0206000656 0.0471508577 0.0446148142 0.0310328044 0.0833254978 -0.0471081212 -0.0187629629 0.0112331975 -0.1018787250 0.0396633968 0.0040454795 -0.0405188166 -0.0876646638 0.0823210180 0.0953121260 0.0261502210 0.0574164204 -0.0368690640 0.0528786145 0.0590941794 -0.0452534668 0.0243019667 0.0645116568 0.0288579091 -0.0681722611 -0.0473805554 0.0759150758 0.0615969561 -0.0983387902 0.0477037877 -0.0282527022 -0.0210708603 0.0671068728 -0.0386861563 -0.0811585486 0.0234017074 -0.0002220646 -0.1307497621 -0.0202015247 0.0546384864 -0.0230928417 -0.0941440761 -0.1126917377 -0.0814982280 -0.0406340733 -0.0174815785 -0.0217393935 -0.0231053010 0.0752214789 0.0502500534 0.0076094400 0.0536636114 -0.0521841571 0.0032702386 -0.0407645144 0.0633154213 0.0405875593 -0.0330088772 -0.0016101971 0.0769422948 0.0308356136 0.0208204444 0.0787189230 0.1062074229 -0.0508236475 -0.0005519722 0.0129447049 0.0617555939 -0.0508207493 -0.0468969978 -0.0545551702 -0.0210913513 0.0713793337 -0.0688990802 0.0428515822 0.0396382771 0.0485042632 0.0500656925 0.0232060496 -0.0116235241 0.0809224024 -0.0142559540 -0.0176136103 0.0662217215 -0.0080105113 0.0127827525 -0.0236965232 0.0340668410 -0.0277948566 -0.0713016018 0.0015869811 0.0391096994 -0.0447971337 0.0810395926 0.0437426865 0.0295622051 0.0637115985 -0.0736066401 -0.0338877924 0.0092670694 -0.0674731582 -0.0539122708 -0.0448410809 -0.0349587351 -0.0885790512 -0.0379323922 -0.0227230415 -0.0940096825 -0.0583975986 0.0659774020 -0.0264212918 0.0510515645 -0.0017666987 -0.0595404021 -0.0348280631 -0.0544601306 -0.0341240689 -0.1071436480 -0.0550954975 -0.0392798297 0.0014627737 -0.0010422319 -0.0971947759 -0.0237691142 -0.0489069000 0.0136551689 0.0907519758 -0.1054584309 -0.0170669891 -0.0299569201 0.0930900276 0.0503100529 -0.0345453024 0.0140660265 -0.0478134006 0.0048185745 -0.0369138345 -0.0675877258 -0.0433003604 0.0284876358 -0.0115571190 -0.0634021088 -0.0455890670 -0.0588225350 -0.0172767825 0.0270994492 -0.0925119966 -0.1007057950 -0.0813962743 -0.1230058670 -0.0391884521 -0.0975611731 -0.0697543845 -0.0249496829 -0.0485823192 0.0113273570 0.0023745066 0.0909140930 -0.0102116857 -0.0629943684 0.0597323626 -0.1022047997 -0.0003527760 -0.0708940253 -0.0152337179 -0.0165017582 0.0804945976 -0.0093543809 -0.0888195783 -0.0058508497 0.1043351889 0.0236346833 0.0203758888 0.0727285594 0.0902323872 -0.0323957950 -0.0327766202 0.0023908059 0.0858870819 -0.0743149817 -0.0258215498 0.0472242422 -0.0954195112 0.0029965159 0.0392303616 -0.0141618494 -0.0223163106 -0.0683697164 -0.1109342948 -0.0683991536 -0.0752932727 0.0128563438 -0.0040638596 0.0627719760 -0.0569971353 -0.0435302183 0.0063172430 0.0669345185 0.0123598417 0.0479927361 0.0004942492 0.0158120263 0.0491465628 0.0068219244 -0.0394453108 0.0307100806 0.0180916172 0.0320743136 -0.0666062012 -0.0421427973 0.0678425208 -0.0098018376 0.0779863447 -0.0256633162 -0.0203342810 0.0174761731 0.1016298160 0.0066083195 -0.0454502143 -0.0037828784 0.0415608026 -0.0762742385 -0.0235878751 -0.0067036762 -0.0996929109 -0.0626381412 -0.0657713637 -0.0472839959 -0.1036387533 0.0391856246 0.0024798296 0.0102204373 -0.0300988555 0.0148708886 0.0284711607 -0.0013583077 -0.0780591890 -0.0063253893 -0.0338235386 -0.0763286725 0.0978350490 -0.0273495130 -0.0725239739 0.0254254416 -0.0424420163 -0.0723257512 -0.0972722173 -0.0567389876 0.0300046541 -0.1094905809 0.0418275557 -0.0591547079 -0.0731566399 0.0611625612 -0.0085630864 0.0741192847 0.0518665165 -0.0622112155 0.0730399191 -0.0590334535 0.0423203707 -0.0806675553 0.0039482941 -0.0527145118 -0.1546098888 -0.1066354960 -0.0778841823 -0.1175525486 -0.0421980582 -0.0024722188 0.0457897745 -0.0288170595 -0.0054811072 -0.0086040813 -0.0877922848 0.0218916126 -0.0546329953 -0.0017344910 0.0012487632 -0.0120272264 -0.0410850905 0.0917845145 0.1038620472 0.1226370856 0.1109143943 -0.1201150790 -0.0320391655 0.0274689887 -0.1094097272 -0.0234167464 -0.0110940300 0.0172996670 -0.0802650750 -0.0534279160 -0.0293368828 -0.1103901863 0.0445079356 0.0147026218 0.0319782607 -0.1053811759 0.0457536876 -0.0100507671 0.0507130548 0.0172036383 0.0272702631 -0.0629000068 -0.0470819287 0.0601419620 -0.0322816856 0.0775899217 -0.0362971500 0.0413273089 -0.0281545557 -0.0232868642 0.1013959348 0.0081893895 0.0538093783 -0.0640456229 0.0328827873 0.0032617764 0.0028508764 -0.0200037211 -0.0896871015 -0.0444474705 0.0268571861 0.0216918513 -0.0605646521 0.0233451426 -0.0258241110 -0.0648373887 -0.0302730203 0.0558033139 -0.0012412816 -0.0784518048 0.0512602367 -0.1015569493 -0.0440503396 0.0303523615 0.0069446489 -0.0319714658 0.0335662924 0.0064623551 -0.0697429553 -0.0275525153 0.1884203851 -0.0144885229 -0.0526138060 -0.0122743146 -0.0437437743 0.0691190809 -0.0647724122 -0.0309987012 0.0511515848 0.0624767616 -0.0905723795 0.0427472815 -0.0183887146 0.0463218763 0.0267429836 -0.0446192212 -0.0093668327 -0.0071189124 -0.0760674924 -0.0432732590 0.0485981703 0.0678881407 -0.0055349837 0.1072037965 0.3684293330 0.0326744206 -0.0736645535 0.0415810309 -0.0379240811 -0.0807778612 -0.0507815108 -0.0691188946 0.0248031467 0.0465932488 0.0525049828 -0.0257063564 -0.0350222923 0.0153096570 -0.0390608311 -0.0896882191 -0.0118763810 -0.0100482209 -0.0134939337 -0.1063219830 -0.0856185704 -0.0929183885 0.0711218044 -0.0334680043 -0.1089637801 -0.1054417118 -0.0190736409 -0.0265060514 -0.0866289958 -0.0205205157 0.0619621947 0.1026450545 -0.0700506717 -0.0260053016 -0.0743471831 0.0755002722 -0.0458116867 -0.0976605490 -0.0249131620 -0.0312310886 -0.0761097372 -0.0020725247 0.0548631810 -0.0447438695 0.0279125627 -0.0965703651 -0.0577658191 -0.0658166409 -0.0719977096 -0.0559805334 0.0377564728 0.0145511553 0.0229595676 0.0092868982 0.0762331113 -0.0596295111 0.0181318484 -0.0861443877 -0.1005895585 0.0497923046 0.0569351315 -0.0836276487 0.0202846024 -0.1069666222 -0.0788645893 -0.0082847876 -0.0181260910 -0.0339565612 -0.0593773164 0.0167326108 0.0790582746 0.0367225856 0.0306239128 -0.0344608054 0.0138596743 0.0653382093 0.0548482239 -0.0316402167 -0.0371045358 -0.0008693933 0.0355995968 -0.0682485700 0.0629510432 -0.0232454650 0.0056394041 -0.0779137909 0.0060738772 -0.0962854177 -0.0566389672 0.0573374927 0.0932497531 -0.0059836060 0.0035878271 -0.0116384430 -0.0489510372 0.0348175429 0.0223208312 0.0245581232 -0.0888602734 -0.0200584289 -0.0997580811 0.0151385888 0.0649122298 -0.0480977334 -0.0629612505 -0.0148048475 -0.0204548836 0.0126162097 -0.0395968482 -0.0099865124 0.0297696739 -0.0440158881 0.0372000560 0.0364582837 0.0578515828 0.0161510333 0.0153778046 0.0310730543 0.0475356616 0.0439859629 0.0433457904 -0.0891472846 -0.0957666561 0.0492456481 -0.0616916381 -0.0296895970 -0.1171670705 0.0146600734 -0.0664416030 -0.0639695004 -0.0231915787 -0.0295042638 -0.0338102430 0.0796684474 0.0915943459 0.0239791591 0.0849541500 0.0435612760 0.0370405428 -0.0253137723 -0.0663793385 0.0414671078 -0.0220228918 -0.1031225175 -0.0310981702 -0.0783650652 -0.0769857690 -0.0921757817 -0.0502156466 0.0235741958 0.0666023195 0.0498127900 0.0213260353 -0.0856235251 -0.0899577066 -0.0067549716 0.0113794878 0.0657250732 0.0884395540 -0.0100698480 -0.0174109936 -0.1016200408 0.0369903184 -0.0169192906 -0.0473194644 -0.0758548975 -0.0257011317 0.0135763008 0.0374150015 0.0351401269 -0.1226091683 -0.0805834010 -0.0653478652 -0.0119672269 -0.0521488935 0.0720146447 0.0130996928 -0.0655708537 -0.0113789365 -0.0486332513 0.0182373375 -0.0099131102 0.0193670373 -0.0672753006 -0.1027974263 -0.1161589921 -0.0784068778 0.0390135534 -0.0009488736 -0.0252498277 -0.1700696051 -0.0661671907 -0.0902657360 -0.1125854328 -0.0356169119 0.0029106278 0.0045779580 -0.0428233221 0.0256473105 0.0019331257 0.0280644875 0.0183540396 -0.1070007458 -0.0608468950 -0.0800426006 0.0730606318 0.0780059397 0.0779332593 -0.0451371185 -0.0291367061 0.0122461021 0.0170404278 -0.0627453476 -0.0202290714 0.0571634173 -0.0883624405 -0.0726830438 0.0505348779 0.0288699046 0.0496044792 -0.0768463239 -0.0072393790 -0.0208366215 -0.0054785386 0.0573550314 -0.0730945766 0.0002865642 0.0160900652 -0.0070221499 -0.0630932078 -0.0817241371 -0.0299194772 -0.0817666426 -0.1137262881 0.0256454349 0.0388941094 -0.0170732867 -0.0349602811 0.0963380262 0.0129937110 0.0720686913 -0.0660054162 0.0435495526 -0.0479431748 -0.1097112522 0.0976590067 -0.0518457107 0.0588340722 -0.0370730944 0.0331210271 0.0207608212 -0.0536063164 -0.0679942518 -0.0343804620 -0.0709991455 -0.0529455580 -0.0196565762 -0.0925686955 0.0015554307 -0.0219753738 -0.0724184811 0.0882719979 0.0042424505 -0.0398147404 0.0477113612 -0.1066394076 -0.0216957852 -0.0176906437 -0.0563325770 0.0651124418 0.0560142845 0.0574056059 0.0576039404 -0.0241298638 0.0705901086 -0.0102870241 0.0091707483 0.0131126530 -0.0651112348 -0.0710550323 -0.0520565361 0.0215445701 0.0232692175 -0.0874906704 -0.0572698750 0.0671508536 0.0644749925 -0.0076585640 0.1084062755 0.0096786348 -0.0990019515 -0.0767151937 0.0079062944 -0.0750178099 0.0139195696 -0.0879002661 -0.0118531790 -0.0469470955 -0.0354722291 -0.1040203199 -0.0635427460 0.0026835839 -0.1062277853 -0.1097643673 0.0263064783 -0.0159436781 -0.1028993130 0.0022376650 -0.0031460230 -0.0372928940 -0.0188126713 -0.0275609177 0.0109330947 -0.0169763006 -0.0628800243 -0.0452938937 -0.0480663255 0.0276790932 -0.0643274933 -0.0649357140 -0.0217418019 -0.0884107575 0.0209836066 -0.0264822617 -0.0613979362 -0.0476035215 -0.0910882279 0.0802789330 -0.0217613112 -0.0163956750 -0.0015810626 0.0165902451 -0.0782222673 0.0125068491 -0.0995322689 0.0115914252 0.0649134144 0.0091592241 -0.0680983067 -0.0548081249 -0.0208505448 0.0002614930 -0.0376891792 -0.0214067288 -0.0350747928 0.0767501742 -0.0172593296 -0.0464911461 -0.0361883380 0.0989156589 -0.0623975284 -0.0599008054 0.0249507502 0.0278911870 -0.0171209201 -0.0308008716 -0.0677073225 0.0624302737 -0.0466937460 -0.0568885542 0.0339245163 0.0502674915 0.0773949847 -0.0675748289 0.0849888697 -0.0316778198 0.0227035247 -0.0824536756 -0.0186102446 -0.0278339349 0.0213142205 -0.0938066021 -0.0308426935 -0.0130456127 0.0362054408 0.0764977783 0.0453545861 0.0682939738 -0.0409011431 0.0663630217 -0.0611533560 0.0126960278 -0.0671063066 -0.0589745082 -0.0535094365 -0.0513271615 -0.0657919794 -0.0446612574 0.0192941278 0.0672273859 -0.0206311811 0.0228818841 0.0199189279 -0.0569022447 0.0174732413 0.0034491790 -0.0493527614 0.1032849252 0.0805009753 0.0504452586 0.0755986944 -0.0282385666 -0.0318094939 -0.0561677739 -0.0036439116 -0.0257479139 -0.0133906864 -0.0686513633 -0.0071837632 -0.0338973552 -0.0295995474 -0.0567393005 0.0186489411 -0.0683175400 0.0228560269 -0.0486795679 0.0787536502 -0.0676993430 -0.0607370660 0.0591073520 -0.0084650666 -0.0072086332 0.0038852114 -0.0129609145 0.0506257750 0.0012028553 -0.0494363382 -0.1099669561 0.0059140469 0.0194996223 -0.0513684824 0.0348603725 0.0569232702 -0.0488643870 0.0709676743 0.0367302522 -0.0014400706 0.0078606280 0.0220946893 0.0094882166 -0.0215061624 -0.0651889071 -0.0282738805 0.0309441034 0.0213394575 0.0648592412 -0.0165686496 0.0650317222 -0.0115298852 0.0233042091 -0.0347225554 0.0544539988 -0.0421820283 0.0356179401 0.0770049095 -0.0152998194 -0.0724094734 -0.0654428303 -0.0508854315 0.0314982012 0.0566171557 0.0644355118 0.0379355587 0.0790649578 0.1008244306 0.0227658134 0.0699358210 -0.0396137051 0.0373049602 -0.0721832886 0.0090034083 0.0243837684 0.0804240257 0.0493673235 0.0800857991 0.0502450019 0.0140536278 0.0513913929 -0.0011408327 -0.0118781980 0.0465156399 -0.0865474865 -0.0775151700 -0.0541579612 0.0279510692 -0.0475738272 -0.0260946192 -0.0536766201 0.0068156719 0.0710553080 0.0052557737 0.0610492080 -0.0685882047 0.0730976760 0.0775997192 -0.0155054778 0.0025596991 -0.0091516674 0.0006824285 -0.0544914231 0.0066921711 0.0534848720 0.0633288920 -0.0395365991 -0.0806642994 -0.0475796796 0.0284673125 -0.0173989236 0.0632335842 0.0163144991 0.0713997558 0.0318621919 -0.0342434533 -0.0454830639 0.0678359792 0.0342530198 -0.0787712485 -0.0248401128 -0.0291912593 0.0194657147 0.0369016081 0.0506560802 0.0481544435 0.0230546743 0.0134547576 -0.0620927326 0.0017498881 0.0573363155 -0.0008558929 0.0222254917 -0.0334494561 0.0651755184 -0.0302620567 -0.0245068353 -0.0698690638 -0.0573032349 -0.0769261643 0.0172209293 -0.0566636845 0.0604392886 -0.0406932458 -0.0109341964 -0.0112558603 -0.0558127500 0.0056279525 -0.0754556954 -0.0090563595 0.0391109437 0.0141751543 -0.0697823092 -0.0808304623 -0.0965380594 -0.0375718400 -0.0392294340 -0.0187224206 0.0145129682 0.0274138488 -0.0109032439 -0.0298843831 -0.0593481176 -0.0664458349 -0.0443806723 -0.0937248468 -0.0567666739 -0.1028934270 -0.0081438655 -0.0856524557 -0.0720044822 0.0362482220 0.0116379224 -0.0879330486 0.0139629506 -0.0682911277 0.0016809474 0.0078239776 0.0113538383 0.0525333099 -0.0446677059 -0.0042191795 -0.0208625998 -0.0145520233 0.0078325272 -0.0814881921 -0.0529143512 -0.0789930522 -0.0812714174 0.0050690621 0.0481545925 0.0579970926 -0.0443765149 0.0144255683 0.0294150412 0.0176227242 0.0251358524 -0.0503638834 0.0368814394 -0.0085570589 -0.0298744570 0.0245292466 -0.0905720815 0.0449162908 0.0076507889 -0.0557532497 -0.0847517028 -0.0326240323 0.0425459407 0.0407054313 0.0454324558 -0.0781744644 -0.1148653626 -0.0917143673 0.0518240109 -0.0464722253 0.0135347536 -0.0009293589 0.0089315251 -0.0639855564 0.0109450296 -0.0190224908 0.0306128711 -0.0212059580 0.0545443147 -0.0078844801 -0.0120323300 0.0674701929 0.0675172061 -0.0192338154 -0.0094465241 -0.0517084673 -0.0516805872 0.0678830296 0.1013024375 0.0368272588 0.0357828215 -0.0096998531 -0.0349817909 -0.0133146290 0.0752610862 0.0267222226 -0.0730464980 0.0811552256 0.0699781775 -0.0654845834 0.0734002143 -0.0585215464 0.0362635404 0.0429942980 -0.0565425493 -0.0772043392 0.0768667161 -0.0336612388 0.0542489886 0.0589347780 0.0111188069 0.0406622961 0.0212628022 -0.0767454207 0.0716920197 -0.0556176677 -0.0732651278 -0.0243502893 -0.0817159861 0.0199892242 -0.0158073958 -0.0498179682 -0.0058226129 -0.0642436221 0.0060239364 -0.0496906042 0.0056940094 -0.0447880626 0.0014035315 0.0701479018 0.0404219329 -0.0087586343 -0.0015215937 0.0729092807 0.0717323050 0.0576786883 0.0062082140 0.0324139744 0.0032243317 -0.0092358356 -0.0752909333 -0.0327085480 -0.0700383708 0.0416008271 -0.0893238559 0.0519567318 0.0406864807 -0.0828653798 -0.0700898319 -0.0569188707 0.0094772130 0.0735211670 0.0483830124 -0.0141868815 -0.0431032404 0.0535876751 0.0188560784 -0.0533837117 -0.0002681839 0.0563438646 0.0215975326 0.0340351090 -0.0154601308 0.0086921137 -0.0288534351 0.0450688861 -0.0370195322 0.0417467281 0.0571153015 -0.0561853163 -0.0822907537 -0.0610909984 -0.0049568261 0.0316763148 0.0799623430 0.0139825689 -0.0285508409 0.1057961807 -0.0117860474 0.0788358152 0.0444897227 -0.0144022657 -0.0239589140 -0.0306370631 0.0046713334 0.0007635280 0.0501593649 -0.0513106957 0.0734858960 0.0171664953 0.0186879635 -0.0425322950 -0.0364123359 -0.0135128424 0.0137168244 0.0272175297 -0.0564880744 0.0300385654 -0.0359739587 -0.1520522237 0.0495423712 -0.0418939702 -0.0561857149 -0.0144755617 -0.0225030463 -0.1088289097 -0.0810580403 -0.0582971796 0.0538300723 0.0098592071 -0.0772128627 -0.0890863091 0.0318197757 -0.0780665427 -0.1012102365 -0.0230099279 0.0309830140 -0.0009831239 -0.0235943887 -0.0865243822 -0.0052794293 0.0169724207 -0.0149530685 0.0115172109 0.0480507500 0.0162352528 -0.0043881438 -0.0959537476 0.0384313837 0.0011878443 -0.0018129438 -0.0680612475 -0.0721994489 -0.0623810515 -0.0394766442 0.0037381351 -0.0815746263 -0.0301698707 0.0683798790 0.0325917676 -0.0333564170 -0.0023470372 -0.0394620113 0.0009133890 -0.0043411329 -0.0138280690 0.0007044118 0.0575533211 -0.0175616331 0.0283204112 -0.0307698678 0.0472127832 0.0147607028 0.0078870533 -0.0763032213 0.1010376886 0.0130529944 -0.0033026517 0.0687943250 0.0202538241 0.0373123437 -0.0908885151 -0.0844567865 -0.0914568827 0.0660292283 -0.0241197888 -0.0488979071 0.0180533770 0.0048424960 -0.0217374191 0.0202881321 0.0446379483 0.0339498520 -0.0242430605 -0.0540939420 0.0537109375 -0.0130693763 0.0455156565 -0.1147812158 0.0446982197 0.0777475685 -0.0571924150 -0.0250916723 -0.0505093150 -0.0223758314 -0.0506100245 0.0736920312 0.0347042121 0.0201585777 0.0325938128 -0.0071369265 0.0077300351 0.0623822734 -0.0717138052 -0.0746092275 0.0613805354 0.0299876034 0.0324330926 0.0467334092 0.0135404915 0.0321453363 -0.0663614497 0.0865472779 -0.0191045105 -0.0430099405 -0.0332769640 -0.0046166629 -0.0462585464 0.0811879337 0.0046518967 -0.0504378080 0.0408252738 0.0027736372 -0.0278419927 0.0286815315 -0.0034258515 -0.0296630152 -0.0224276371 -0.0072951680 -0.0762543753 0.0516277105 -0.0094829565 -0.0831206143 0.0230177660 -0.0754777864 -0.0176321585 0.0479389280 -0.0789282992 0.0254740566 0.0207024291 -0.0521251075 0.0440157503 0.0609790832 0.0604447275 -0.0721401945 0.0689438134 0.0134087354 0.0482286811 0.0465300828 -0.0059912875 -0.0217807591 -0.0695662722 -0.0040334794 -0.0987725332 -0.0473088548 0.0355034657 -0.1041946262 -0.0596341901 0.0037479261 -0.0752173588 0.0019191555 0.0037157871 -0.0091239698 0.0325728841 -0.0397412889 0.0062175868 0.1005483642 0.0041047861 -0.0022650850 -0.1010467708 -0.0873057991 -0.0206014607 -0.0855376273 -0.0980587527 0.0263234228 -0.0541257225 -0.1062958464 0.0295968372 0.0116152614 0.0196301490 -0.0606372617 -0.0729855597 -0.0388380252 -0.0158589259 0.0361518450 -0.0778459311 0.0199626014 -0.0168628916 -0.0503927581 -0.0197544582 -0.1088229790 -0.0758150294 -0.0845996886 -0.0620205700 -0.0351524614 0.0444707386 -0.0841248631 -0.0903719515 -0.0191764683 -0.0455126911 0.0165704861 -0.0240683965 -0.0005431533 0.0015050853 -0.1017172113 -0.0861645862 -0.0669597909 -0.0745148510 0.0007815356 -0.0567258038 -0.0196448546 0.0511593372 0.0147253051 0.0219804421 0.0396049470 -0.0651982129 -0.0458191298 -0.0034412993 -0.0757316500 -0.0195877776 -0.1001959369 -0.0638730749 0.0000010268 0.0233444124 -0.0737569705 0.0436689705 -0.0343242958 0.0006360950 0.0661163554 0.0633213297 -0.0132916933 0.0223516058 0.0264270063 0.0343429111 -0.0822621137 -0.0513672680 0.0108829718 -0.0916274562 -0.0064499755 -0.0614985079 0.0563519895 0.0287427381 0.0021724557 -0.0175376013 0.0461353064 0.0157179013 -0.0071819909 -0.0621436760 -0.0355636068 0.0352171995 -0.0810186490 -0.0420851260 0.0427176803 0.0069070756 -0.0696977228 0.0684956610 -0.1114141494 0.0205058791 -0.0627169907 0.0078201741 -0.0675865486 -0.0260096900 -0.0285174139 0.0213442594 -0.0936476067 -0.0800289437 -0.0339299403 -0.0215533022 0.0369121432 0.0864195451 0.0654346049 -0.1037198901 0.0288944840 -0.1034881622 -0.0974265113 -0.0683006421 0.0060410034 0.0465745144 -0.0705496073 -0.0131408051 0.0313846581 -0.0958433002 -0.0071707484 -0.0821856409 -0.0591860376 -0.0264734030 -0.0636905581 -0.0266550481 0.0454512909 -0.0142250266 0.0047617787 -0.1007601097 -0.1027516946 -0.0741554722 -0.0059904614 -0.0153684830 -0.0503441095 -0.0735852346 0.0196862314 -0.0854713768 -0.0852926970 -0.0789217278 -0.0864623114 0.0505873710 -0.0367875919 0.0547515303 -0.0065052882 -0.0802892298 -0.0651741177 0.0308131054 -0.0447926857 -0.0604416057 0.0405114889 -0.0079324776 0.0500869416 0.0380437411 -0.0931450129 0.0199862085 -0.0157755781 0.0039012958 0.0258766878 0.0230484139 -0.0738127157 -0.0216058418 -0.0910791010 0.0204510242 0.0236413293 0.0015411073 0.0284066629 -0.0705107599 0.0745658129 0.0654364675 0.0727697760 0.0289765354 0.0419414453 -0.0786779076 0.0212953351 0.0625772178 -0.0180882663 -0.0812459290 -0.0810207650 0.0093998834 0.0282251071 -0.0873101130 -0.0917427167 -0.0591963828 -0.0696342364 -0.0889607146 -0.0064181522 -0.0982917398 0.0107890293 -0.0102549493 -0.0757859051 0.0310406741 -0.0547937714 -0.0992095992 -0.0520478897 -0.1058000326 0.0131308716 -0.0324147344 0.0541937239 -0.0557883680 -0.0901183039 -0.0089415284 -0.0551151261 -0.0525951944 -0.0359762534 0.0010424559 0.0168099664 0.0320370197 -0.0186148975 0.0313740447 -0.0722949579 0.0453696474 0.0051400405 -0.0449792221 0.0368053094 0.0320973620 -0.0180431530 0.0520259738 0.0634955615 0.0117688850 -0.0283034071 -0.0739524737 0.0369285494 -0.0288010966 -0.0965360776 -0.1062121093 0.0054852539 0.0027880305 -0.0178457424 0.0485201627 -0.0896407217 0.0221962761 -0.1001706496 0.0283390507 -0.0013482210 -0.0818802267 0.0078451997 -0.0254667625 -0.0570641346 0.0678085089 -0.0062726121 -0.0881862864 -0.0188081842 -0.0099531813 0.0050597638 -0.0687375516 -0.0323023573 0.0387188718 -0.0128807500 0.0535340905 0.0126377624 -0.0118602375 -0.0790541545 -0.0213997252 0.0309914052 -0.0038954616 0.0573662333 -0.0816833302 0.0386008993 -0.0482727364 -0.0178068597 0.0041609183 0.0360280946 0.0201237947 0.0432827473 -0.0957750529 0.0264143851 -0.0480946898 -0.1079063043 -0.0477983691 0.0508303195 -0.0996682048 0.0105225388 -0.0609670505 -0.0302457325 -0.0868137032 -0.0830700770 -0.0399283059 0.0451567620 -0.0653103888 0.0397415720 0.0251561422 0.0273015276 -0.0291745495 -0.0689584017 0.0261895154 0.0699020773 0.0190601200 -0.0275440291 0.0096593425 -0.0090673491 0.0590533763 0.0583004579 0.0693927258 0.0350014418 0.0239795912 0.0132534960 -0.0281269569 -0.0231435038 -0.0191287939 -0.0102744000 0.0027518088 0.0268533528 -0.0421211943 0.0267561898 -0.0450819060 -0.0419521779 -0.0271933377 -0.0611412004 0.0289341360 -0.1154268235 -0.0168181192 -0.0025583277 0.0596823096 -0.0841816738 -0.1242802218 -0.0836536810 -0.0404293276 -0.0817661285 0.0331638046 -0.0565095581 0.0559002757 -0.0072470829 -0.0502998494 -0.0164670348 0.0357136950 -0.0676502511 -0.0673734024 -0.0355821177 0.0119984448 0.0802835226 -0.0015399754 0.0441324860 0.0459922254 -0.0502263159 -0.0128685012 0.0104047135 -0.0196404904 0.0059038252 -0.0646097213 0.0188772306 0.0232350454 -0.0717405826 0.0141910538 -0.0750211254 0.0422543734 -0.0489012636 0.0043754354 0.0386595577 0.0173645467 -0.0094484342 0.0045255460 0.0062250155 -0.0305468477 0.0197536871 -0.0114436522 -0.0635421053 0.0644696057 -0.0019135997 -0.0316070504 -0.0074384362 -0.0586572401 0.0127843693 0.0306148231 -0.0484860055 0.0084410459 0.0128800869 0.0802375525 -0.0550253168 0.0087105259 -0.0478913151 -0.0110387951 -0.0266998261 -0.0460897051 0.0170757920 0.0463550985 0.0070207044 -0.0552480072 -0.0801109076 0.0413031727 0.0082806200 -0.0001957640 -0.1016839221 -0.0254385974 0.0024392377 0.0497510880 -0.0415598340 -0.0626348853 -0.0618552826 0.0452401787 0.0553356409 0.0508136898 0.0342276767 0.0711196065 -0.0457212739 -0.0071554035 -0.0482543632 -0.0657383502 -0.0014545470 -0.0197428986 -0.0848285407 0.0617897362 0.0032339320 0.0617787987 0.0634502172 -0.0335650370 -0.0814462602 -0.1009808183 0.0359292850 0.0036111996 0.0009721656 -0.0797230676 -0.0235993043 0.0591977835 0.0616784394 0.0666348636 -0.0750448257 -0.0228748098 -0.0711973011 -0.0147132054 -0.0217592195 -0.0594755933 0.0145515390 -0.1055238992 0.0159752984 0.0072714686 -0.0906142220 -0.0872567594 -0.1018187478 0.0484581590 -0.0327017866 -0.0292316452 0.0136123076 -0.0609428808 0.0585048497 0.0083196983 -0.0697830096 0.0428800657 0.0057824203 0.0536888056 0.0145973777 -0.0266197547 -0.0269316435 -0.0372673348 0.0129552651 -0.0463545360 0.0444136560 -0.0089920582 -0.0628470853 0.0648263097 -0.0922277868 -0.0151865035 0.0393390581 0.0662486553 -0.0318064429 0.0596820861 0.0446623713 -0.0212688297 -0.0030667707 -0.0190740898 0.0045465976 -0.0555240586 0.0366077274 0.0664910525 -0.0112549886 -0.0349800512 0.0432852358 0.0023381636 0.0068214461 0.0713448226 -0.0473377742 0.0534884185 -0.0245423466 -0.0116053075 -0.0395749770 -0.0805093050 -0.0410869010 0.0812772214 0.0143159181 -0.0799388513 0.0208342597 0.0494042933 0.0079403967 0.0793624222 0.0291660279 0.0294653177 0.0096526491 -0.0921432674 -0.1126306430 -0.0434363373 -0.0856200233 -0.0462592132 -0.0753079280 0.0066422448 -0.0322700441 -0.0401841812 -0.0578847155 0.0651962608 0.0769155025 0.0170268044 -0.0055749640 -0.0683005676 -0.0475671217 -0.0477030091 -0.0349944830 0.0771583319 0.0607318729 0.0060250834 0.0716501921 -0.0456120186 0.0080117881 -0.0650066212 -0.0495983027 -0.0505540892 -0.0710419044 -0.0156494007 0.0268748105 0.0065702125 -0.0495548137 0.0039814264 -0.0300685912 0.0200278237 -0.0533261970 0.0096614733 -0.0270152092 -0.0160761327 -0.0253087878 0.0313202143 0.0252587646 -0.0080325827 0.0165372565 -0.0066983178 0.0709912032 -0.0308945365 -0.0477338023 -0.0573210940 0.0369699411 -0.0639997348 -0.1114052385 -0.0564601384 -0.0354302675 0.0242920741 -0.0867867693 0.0295222159 -0.0145555036 -0.0399043486 -0.0153507590 -0.0201378055 -0.0723874643 0.0710593462 -0.0353448018 0.0317430906 0.0369592234 -0.0348834172 -0.0351734161 -0.0028648004 0.0809284002 -0.0425135642 -0.0836886466 -0.1046886593 -0.0540663898 0.0622399598 -0.0089381263 -0.0344534218 -0.0634317398 -0.0515145548 -0.0192733854 0.0053833723 0.0793027431 0.0212399364 0.0021725744 -0.0790151805 -0.0123592243 -0.0769687295 0.0305958986 0.0112759173 -0.0774670541 -0.0690303072 0.0173638240 -0.0272166319 0.0608608648 0.0341968536 0.0283994377 -0.0434259959 0.0253381133 0.0441050828 -0.0104622096 0.0593226701 0.0729159415 0.0175042227 -0.0501220748 -0.0593807958 -0.0266851746 -0.0338806137 0.0689971596 -0.0057722852 -0.0305382609 -0.0180011243 0.0546855628 -0.0588707998 -0.0118413046 0.0403706208 0.0030902997 -0.0319634825 -0.0544808879 0.0383946076 -0.0745308921 -0.0332577489 0.0306332409 0.0648931265 -0.0302288681 -0.0402955487 0.0042780563 0.0438968986 -0.0059566423 -0.0171895027 -0.0917214751 0.0120493993 -0.0593001135 -0.0994177461 0.0183532629 0.0673686862 -0.0614824742 -0.0184792429 -0.0789408833 -0.0703004748 0.0586825311 0.0035549700 0.0143920705 -0.0147453249 0.0389445759 -0.0293510258 0.0633155107 -0.0219866112 0.0169949941 -0.0162850581 -0.0241068806 -0.0700323731 -0.0023710132 -0.0793234557 -0.0179213285 0.0510362238 0.0600895286 0.0565098673 -0.0817856416 -0.0790378451 0.0817313641 -0.0170209482 -0.0669046864 -0.0092455894 -0.0956345797 0.0549141504 0.0123096108 -0.0114972070 -0.0082933381 -0.0322920531 -0.0309397653 -0.0045274571 -0.0516548157 -0.0411735438 -0.0668712482 -0.0516175888 0.0007947267 -0.0658638179 0.0464724079 0.0058042631 0.0739938319 -0.0161015764 -0.0639067143 -0.0638592839 -0.0008766130 -0.0749528781 0.0242107138 -0.0367635749 0.0149637014 0.0417926237 -0.0265737511 0.0515797436 -0.0217036549 -0.0743457228 0.0110800713 -0.0584846735 -0.0027426481 -0.0194785930 -0.0651644617 0.0702591985 -0.0603045113 0.0600212961 0.0527502000 -0.0501574650 -0.0596332513 -0.0344261564 0.0505037457 -0.0658419505 0.0538945645 -0.0359175354 0.0224558786 -0.0357538648 0.0352804139 0.0481905043 -0.0276211947 -0.0002874807 -0.0110789612 0.0241521802 0.0557924956 -0.0286289938 -0.0587363318 -0.0791630447 0.0553205311 -0.0358310267 -0.0710724369 -0.0221779868 -0.0334735699 -0.0433024578 -0.0674953982 -0.0076333284 0.0093803108 -0.0287154838 0.0576069057 -0.0162208378 0.0435265750 0.0182143748 -0.0363178663 0.0288586318 0.0229126811 0.0036586523 -0.0644160286 -0.0394373424 0.0158837661 -0.0530490354 -0.0651333779 0.0571508408 0.0470084921 -0.0109551549 0.0393264629 -0.0200638324 -0.0200549830 0.0035675371 -0.0975908116 -0.0080901152 -0.0899170861 -0.0410684310 -0.0281818397 0.0679869950 0.0475841463 0.0693821758 -0.0119059607 -0.0105055571 -0.0433221050 0.0209451392 0.0610739291 0.0690119416 0.0731299222 0.0525295287 0.0816451311 0.0290898234 0.0538963377 0.0632650852 -0.0709787384 -0.0670638233 -0.0953368992 -0.0452376902 -0.1067782864 -0.0352626629 0.0381113067 -0.0454856567 -0.0443890244 0.0076513095 -0.0553492606 -0.0215041693 -0.0235181227 -0.0046626274 -0.1099075451 -0.0985005274 -0.0690076202 0.0283196848 -0.0274747703 -0.0620564297 -0.0323955193 -0.0444093682 -0.0227635112 -0.0039393404 0.0167411342 0.0126195047 0.0378623493 -0.0053565917 0.0073578469 0.0348731615 0.0479840115 -0.0204444323 -0.0824462324 -0.0669409186 -0.0164248571 0.0082852002 -0.0015675577 0.0471348912 -0.0293897931 -0.0363173522 0.0384233072 0.0495263562 0.0137617625 0.0387855731 -0.0298871938 -0.0588676333 -0.0277075656 0.0215429757 -0.0439716876 -0.0698645562 -0.0213319417 0.0404153652 -0.0603029020 -0.0863271505 0.0256354623 -0.0392154194 0.0511330068 -0.0352657400 -0.0809774175 -0.0688295066 -0.0599530265 -0.0107830167 -0.0684029534 -0.0352166519 0.0192290079 -0.0663139075 -0.0473820120 -0.0106595661 -0.1026424766 -0.0502100922 -0.0612315983 0.0401011519 -0.0538393743 0.0195576847 -0.0375692435 -0.0266013183 0.0252574012 -0.1003759280 -0.0286834370 0.0508063398 0.0395800471 -0.0657269955 -0.0413279980 -0.0364807881 -0.0058602332 0.0019228290 0.0289786924 -0.0843730792 0.0603999645 -0.0681280345 0.0257500298 0.0364766195 -0.0033325925 0.0101982132 0.0432082377 -0.0423337966 -0.0281377472 -0.0745454133 -0.0759272575 -0.0578574166 -0.0058581680 -0.0801159069 0.0022123978 0.0592094511 -0.0500575341 -0.0639777333 0.0682888627 0.0250681117 0.0034039617 -0.0020155981 0.0462144762 0.0742717832 -0.0740070492 0.0251518805 -0.0523242950 -0.0437625945 0.0215005856 -0.0636833087 -0.1028221697 -0.0808561221 -0.0650607347 -0.0464377105 -0.0585189052 0.0460956953 -0.0699515864 -0.0091594616 -0.0442149974 -0.0958879814 -0.0160373375 -0.0127337053 0.0352557674 -0.0373297520 -0.0994456708 -0.0977834389 -0.0655768216 -0.0909633189 0.0336752459 -0.0309065022 -0.0263585821 -0.0601385981 -0.0728347301 -0.0066576740 0.0399475619 0.0251918510 0.0075713061 -0.0911098272 0.0432835482 -0.0528912805 -0.1027165204 0.0327152275 -0.0708429664 -0.0026329793 -0.0206214599 -0.0761779472 0.0651147217 0.0069986433 0.0659148842 -0.0817459002 0.0263268277 -0.0639936328 0.0083393743 -0.0843572691 -0.0496537425 -0.0612993129 -0.0758225620 -0.0838136300 -0.0267524272 -0.0156147210 -0.0374071710 -0.0089906901 0.0172354467 -0.0288775545 -0.0730743408 0.0041621663 -0.0370321795 -0.1072157174 0.0512455404 0.0196238365 -0.0132516101 -0.0351883918 -0.0623020902 0.0057334737 0.0209943429 0.0487273112 -0.0727394149 0.0375497602 -0.0238962788 -0.0238377359 -0.0105500389 -0.0725674033 0.0104165534 -0.0412569977 -0.0276997928 -0.0620295443 -0.0505890474 -0.0103659211 -0.0358440951 -0.0530489460 0.0187139902 -0.0853345618 0.0343019366 -0.0072331131 -0.0952968597 0.0308698341 0.0631021112 -0.0016559288 0.0511223264 -0.0718027651 0.0074921437 0.0396820679 0.0712724924 0.0624982268 -0.0604550354 0.0008299649 -0.0738309845 0.0205282792 -0.0614026673 0.0038976450 -0.1058251709 0.0298264138 -0.0099447984 0.0313604064 -0.0193732064 -0.1016732752 -0.0615391508 0.0079235211 -0.0219464973 0.0411699340 0.0306170806 0.0222444534 0.0672766268 -0.0791404918 -0.0914547965 0.0442988463 0.0395762734 0.0511894934 0.0428087749 -0.0691207945 0.0345588736 -0.0044266824 0.0545466915 0.0371221304 0.0507105999 -0.0140019823 0.0151179349 -0.0600556135 -0.0246856380 0.0595739596 -0.0730183050 -0.0878042653 -0.0703102872 0.0192422047 0.0471412987 -0.0304314233 -0.0809392929 0.0454068929 -0.0589520968 -0.0653588772 0.0308011025 0.0365517959 0.0256005004 0.0811470747 0.0670810938 0.0487235487 0.0707432181 0.0039800256 -0.0617895871 0.0750861913 -0.0662165806 -0.0468876734 -0.0765645429 -0.0768256038 -0.1084182784 -0.0883577168 0.0386623591 -0.0014676437 -0.0653848872 -0.0395088941 -0.0276133064 -0.0099623408 -0.1024048328 0.0128609380 -0.1000104919 0.0459111072 -0.0268284287 -0.0823201612 -0.0703033507 0.0398104973 -0.0870569795 -0.0145916967 0.0046104519 0.0429754108 -0.0870605484 -0.0382256843 -0.0889820158 -0.1109777763 0.0470857173 0.0256672874 -0.0817665979 0.0664938986 -0.0639542565 -0.0524265617 0.0794563293 -0.0029143170 0.0285665523 -0.0803775117 -0.0103830211 -0.0029866532 -0.0497599952 -0.0934748948 0.0200910624 0.0198052805 0.0480300784 -0.0242975354 0.0804898143 0.0580312312 -0.0614095256 0.0384328887 -0.0521648116 0.0127161220 -0.0336107016 -0.0635746270 -0.0222889073 -0.0816403776 -0.0880802050 -0.0347620025 0.1077746302 0.0258388203 -0.0551322289 0.0198622029 -0.0840815753 -0.0226173606 -0.0189625099 0.0777582824 -0.0376558118 0.0438822880 0.0618180931 0.0512526482 0.0472561419 0.0762720853 -0.0283193476 0.0127105042 -0.0608721748 -0.0535332933 -0.0397314727 0.0449304208 0.0376040824 -0.0899417549 0.0080091208 -0.0544286855 -0.0104956515 0.0349691808 0.0172204450 0.0641719550 0.0346863978 -0.0002898648 0.0641097724 -0.0090731010 -0.0118016098 -0.0001252741 -0.1104904339 -0.0079450859 -0.0983492509 0.0213142503 -0.0047404836 0.0183865540 -0.0357207842 0.0325224996 0.0531893522 0.0548539013 -0.0037866011 -0.0666426495 0.0749913156 -0.0356379561 0.0044780374 0.0200811476 0.0193887129 0.0155883729 0.0748632699 0.0762701929 0.0680464804 -0.0389119238 0.0185290873 -0.0295569971 0.0461796075 -0.0024657606 0.0947612301 -0.0081253182 0.0287282281 -0.0531075820 -0.0025679222 -0.0131788095 0.0626420975 -0.0106322598 -0.0867225900 0.0390267819 -0.0167757981 0.0061815847 0.0239206050 -0.0908682644 0.0711548775 0.0827455372 0.0681063682 0.0145709962 -0.0598647818 -0.0616047047 -0.0575057678 0.0389486998 -0.0579600707 0.0622652322 0.0791878328 -0.0185810104 -0.0725170970 -0.0717796981 0.0216216613 0.0424873456 -0.0282443762 0.0551067665 0.0434288010 -0.0921807215 -0.0349195860 -0.0519732907 0.0009981317 -0.0968114361 0.0976516455 0.0049126013 -0.0193372462 -0.0804285333 0.0167272594 -0.0411832593 -0.0568051860 -0.0169376936 -0.0412545875 0.0047448613 -0.0333651155 -0.0739003122 0.0358797573 -0.0437772386 0.0431540012 -0.0278133899 -0.1223594174 -0.1040305793 -0.0539515279 -0.0959484354 -0.0600074865 0.0718098804 0.0179132018 -0.0463755094 -0.0196353216 0.0029839585 -0.1183903515 -0.0234397873 -0.0134618124 -0.0449143611 -0.0931716636 0.0195159558 -0.0210797191 -0.1142426282 -0.1177486405 -0.0187675226 -0.0325948186 0.0182864927 -0.1020605415 -0.0054649664 -0.0178122781 -0.0178052317 0.0486429036 -0.0725550801 0.0098305047 -0.0465783179 0.0673494637 0.0330984890 0.0730755478 0.0648341030 0.0022681637 0.0704638213 0.0523000360 0.0391122177 -0.0136987343 -0.0771071166 -0.0976663530 -0.0062497612 -0.1011464819 0.0148682818 -0.1068991572 0.0274865218 0.0134370672 -0.0136647187 0.0298300590 -0.0922214389 -0.0897529125 -0.0584782995 0.0374856405 -0.0436027534 0.0331588313 -0.0355754904 0.0183211491 0.0072579859 -0.0432315134 0.0305116847 0.0163219105 -0.0635601133 -0.0052535213 -0.0739151016 0.0399058834 0.0737895891 0.0813003033 -0.0424252041 0.0676483959 -0.0646053702 0.0212570056 -0.0475094616 -0.0451539569 -0.0396882631 0.1091810092 -0.0787807778 0.0469926335 -0.0643405467 -0.0241773557 -0.1132500693 -0.0360529684 -0.0878432319 -0.0834212452 -0.0462022983 -0.1117164120 0.0396949239 -0.0523436815 -0.0007475188 0.0005404527 -0.0603886843 0.0354591757 -0.0297716279 -0.0433389880 0.0232512765 -0.0233990289 -0.0085472949 -0.0812501088 -0.0396647044 0.0750331283 -0.0652048215 -0.0083887428 -0.0731293783 0.0067648292 0.0515290499 -0.0375389494 -0.0425378382 0.0501475669 -0.0845802277 -0.0910197422 -0.0432404019 0.0470625088 -0.0916368291 0.0121238055 0.0464117862 0.0496322550 -0.0918848813 0.0331126004 -0.1018193960 0.0335499570 0.0358822271 -0.0435077175 -0.0360443033 -0.0019367434 -0.0304363016 -0.0152639654 0.0475270040 -0.0407810584 0.0393970385 -0.0349524729 -0.1020868495 -0.0739187598 -0.1205466315 0.0070440155 -0.0464272238 -0.0109858494 -0.0394866429 0.0397458412 0.0316690728 0.1004582196 -0.0218078755 -0.0127886236 0.0685351193 -0.0950382128 0.0520400256 -0.0981459767 -0.0927085206 0.0367749408 0.0216602553 -0.0723620206 -0.0558058210 0.0721770823 -0.0053838179 -0.0945306942 -0.0859729573 0.0120887700 -0.0022699391 0.0077302051 -0.0738322660 -0.1129595339 0.0059370976 -0.0275400151 0.0531820431 0.0493016206 0.0308661200 -0.0112924688 -0.0334374942 -0.0503016487 -0.0031330017 0.0124734566 0.0301917419 -0.0564012378 0.0232195780 0.0064127892 -0.0102438852 -0.0576070063 0.0354867727 -0.0375337452 0.1120358780 0.0519055277 0.0135652274 -0.0289502926 -0.0047817226 -0.0772493929 -0.0011813194 -0.0020684889 0.0253577847 -0.0239275470 -0.0713250786 -0.0850539356 -0.0312551707 0.0713917464 -0.0712632835 -0.0795525387 0.0085263932 -0.0003286748 0.0530048274 -0.0408698693 -0.0691968426 -0.0366873592 -0.0954720899 -0.0218319651 -0.0566863753 -0.1090985835 -0.0597799160 0.0217873249 -0.0907767192 -0.0811959803 -0.0295186006 0.0758851245 -0.0360775180 -0.0782699659 0.0159629360 -0.0142994151 0.0585831515 0.0730051696 -0.0172364190 -0.0347354896 0.0431952029 -0.0423361212 -0.0910247192 0.0793217197 0.0434497595 0.0030571176 0.0521281958 0.0953545198 0.0483255982 -0.0469304509 0.0805198997 0.0137997419 -0.0983310938 -0.0645535067 0.0309455395 -0.0055417828 -0.0875490457 -0.0078373030 -0.0227785539 0.0147006046 0.0122141894 0.0015111655 -0.0366725400 -0.0477730408 0.0031574038 -0.0637039617 -0.0778631419 0.0284240693 0.0386217572 0.0374631025 -0.0658427328 -0.0530155189 0.0319917053 0.0002290198 -0.0000367707 -0.1007545143 0.0532385185 0.0178206135 -0.0779388770 -0.0247004945 0.0021995232 0.0497695506 -0.0809745863 0.0489287376 -0.0034673139 -0.0677172914 0.0175082386 -0.0436068587 0.0408828408 0.0235900581 0.0420105681 -0.0539001822 0.0703959763 -0.0214882605 -0.0465929918 -0.0029639900 0.0079840645 0.0146910995 -0.0672725365 0.0525609404 0.0409842730 -0.0364256017 0.0159160718 -0.0773944259 0.0026795492 -0.0604590252 -0.0278952345 -0.0426215157 -0.0333293900 0.0628291070 -0.0583960377 0.0441731811 -0.0106068775 -0.0334954038 0.0331180766 0.0072538555 -0.0273279957 -0.0549959540 0.0652088821 -0.0276389308 -0.0645819455 0.0383439995 -0.0230802745 -0.0307760537 0.0022030547 0.0186296254 -0.0583740100 -0.0941552892 -0.0438451953 -0.0731158927 -0.0680258200 -0.0446023531 0.0476603843 -0.0008770835 -0.0985114425 0.0007874519 -0.0657155663 0.0437718332 -0.0575688258 0.0278973207 0.0040671974 0.0814989358 -0.0108653456 -0.0767789185 -0.0036751553 -0.0575372353 -0.0744027719 0.0517829508 -0.0801862180 -0.0007219166 -0.0196028538 0.0429035909 0.0468884781 -0.0401981547 -0.0231505800 -0.0190310888 -0.0433934852 -0.0188588407 -0.0241789427 -0.0536231585 -0.0621468388 -0.0274648890 -0.1104807109 -0.0148818484 -0.0656150281 -0.1098545939 -0.0708881542 0.0308353081 -0.0936433151 -0.0454773642 -0.0289051235 -0.0506397858 -0.1090661064 0.0188514739 -0.0674429163 -0.0389689729 -0.0748607591 -0.0509154163 0.0488977395 0.0234037135 -0.0145731298 -0.0109937517 -0.0263843536 0.0303629227 -0.0526208915 -0.0543464236 0.0100143543 0.0170089975 -0.0142770400 0.0079723019 0.0400324091 0.0413155779 -0.0330285951 0.0297089703 -0.0488783047 0.0428026505 0.0502079241 -0.1092719287 -0.0672762841 -0.0335981064 -0.0566670075 0.0327781588 -0.0637886524 0.0308096334 -0.0874878243 -0.0911802948 -0.0850851908 0.0368765369 -0.0768286660 -0.0497160256 -0.0755833313 0.0168356597 -0.0559586063 0.0300261602 -0.0231148861 -0.0322954990 -0.0494999401 -0.1094850078 -0.1115685254 -0.0656642765 -0.0299596526 0.0442739949 0.0171181969 -0.0885628611 -0.0339531489 -0.0257671364 0.0014207375 -0.0091082361 -0.0463696755 -0.0521525443 0.0056820619 -0.0456458777 -0.0719397664 -0.0182977878 -0.0031127695 -0.0797363073 -0.0564910360 -0.0511169769 -0.0917977765 -0.0365910679 0.0199127346 -0.0671092570 -0.0544447154 0.0691954792 -0.0503008664 -0.0133974291 0.0179395080 -0.0038616508 -0.0583425984 0.0379925445 -0.0786338672 0.0179693848 0.0568839759 -0.0149604380 -0.0461943783 -0.0813307837 0.0594742149 0.0068714321 -0.0703945756 0.0283275619 -0.0561190024 -0.0365154855 0.0063285828 0.0302452259 -0.0543672107 -0.0374710858 -0.0142108575 -0.0083135664 -0.0139988661 -0.0610692427 0.0311699007 -0.0174383111 -0.1034521386 -0.0101058567 0.0217663888 0.0122284619 -0.0146772824 0.0386222750 -0.0187584609 -0.0131582031 -0.1049137264 -0.0601508915 0.0517876931 -0.0055679129 -0.0576828383 0.0435141511 0.0305772051 -0.0479898974 -0.0764336139 -0.0542110279 -0.0406017266 -0.0590206794 -0.1098480150 -0.0903000385 0.0340681747 -0.0080955671 -0.0966009051 0.0009293488 -0.1057204306 -0.0989458114 0.0076085785 -0.0890356451 -0.0481584556 -0.0364468284 -0.0267579444 0.0090517402 -0.0289164186 -0.0583877042 0.0046040192 0.0301941037 -0.0172090083 0.0102506950 0.0328148305 -0.0552987345 0.0040437761 -0.0204185098 -0.0533578321 -0.0280913599 -0.0148076080 -0.0296033211 -0.0438962728 0.0477366559 -0.0110548977 -0.0150406901 -0.0489640050 0.0109493947 0.0435976312 -0.0886024535 -0.0845481232 0.0192311723 -0.0628587380 -0.0729133338 -0.0100112483 0.0350807160 -0.0394417010 -0.0237739924 -0.0516084358 -0.1018465236 0.0228945222 0.0261153299 -0.0742380694 -0.0374054089 -0.1081025079 -0.0692775026 -0.0334592871 -0.0456441306 -0.0213562008 -0.1020239443 0.0334823318 -0.0031225279 0.0367823802 -0.0101247206 -0.0066298768 0.0196683239 0.0706984997 -0.0375734456 0.0182120129 -0.0361295566 0.0354224294 0.0335781313 -0.0225052871 -0.0349071808 0.0590264499 -0.1064945161 0.0400245860 0.0372086838 0.0510359854 -0.0919787660 -0.0710720792 -0.0686753318 0.0417121872 -0.0603627712 0.0216420069 0.0399913639 -0.0002027196 -0.0629642308 -0.0693143755 -0.0320104435 -0.0372987427 0.0245092213 0.0524980128 -0.0727508068 0.0533945262 0.0250345636 -0.0809019655 0.0243766084 0.0237431061 0.0379812792 0.0270544700 -0.0349926203 0.0086526154 0.0084307864 -0.0672122464 0.0469744913 0.0073121055 -0.0104245171 -0.0638238117 0.0387139730 -0.0927266926 -0.0642788261 0.0343541652 -0.0196156912 0.0531076379 0.0488745272 -0.0198657177 0.0466957316 -0.0082025668 0.0016799048 -0.0588014014 0.0287022963 0.0781354457 -0.0505250767 -0.0137193203 0.0713110417 0.0549467951 0.0047622621 0.0391393751 -0.0376564227 0.0162714124 0.0267137364 0.0102413744 -0.0809040368 -0.0284755863 -0.0917780995 -0.0686457381 -0.0315235071 -0.0676451400 0.0454266220 -0.0952140018 -0.0798110962 0.0509790145 -0.0827827752 0.0512590483 -0.0750947967 -0.0597473085 0.0267328415 -0.0073522078 -0.0732851699 0.0368825644 -0.0829971731 -0.0666600540 -0.0974265113 -0.0862796903 -0.0831215456 -0.0553940535 -0.0609152764 -0.0686366335 0.0759001821 0.0568404347 -0.0718152300 -0.0346683189 0.0627477914 0.0590426177 0.0518799275 0.0804971308 -0.0397344008 0.0094605070 -0.0878516957 -0.0675474033 -0.0501663387 -0.0003728417 0.0191375855 -0.0553649887 0.0645348430 0.0016684532 0.0037192106 0.0012293383 0.0492719561 -0.0564736798 -0.0485351719 0.0004347041 -0.0334972367 0.0449393094 -0.0937021151 0.0098963901 -0.0617521033 0.0759679824 0.0496703982 -0.0395744108 0.0088940188 0.0665317327 -0.0618966147 -0.0585263669 0.0767561048 -0.0600313023 0.0433118492 0.0523954928 -0.0513670594 0.0212349221 -0.0243620351 -0.0018734485 -0.0114881545 -0.0690920725 -0.0590480678 0.0177275166 -0.0164981559 -0.0062251985 -0.0125083178 0.0674240738 -0.0005955324 0.0701992214 0.0445178598 0.0303721353 0.0220837742 -0.0763755068 -0.0555738062 0.0357516035 -0.0090478361 -0.0815680102 -0.0726047084 -0.0763599351 -0.0973821431 -0.0563560054 0.0309990924 0.0646680146 0.0598119348 -0.0043925047 -0.0046306849 0.0296902135 0.0001974851 0.0531237125 -0.0338518545 0.0581081659 0.0172895119 0.0505525470 0.0481678396 -0.0361793227 0.0001571327 -0.0663031936 -0.0132949948 -0.0803322718 0.0063134208 -0.0522563308 0.0567701161 0.0133287609 -0.0384222567 0.0805490166 0.0354126319 -0.0533098653 0.0137703195 -0.0741890371 -0.0729102418 0.0391877368 0.0062092990 -0.0244727544 0.0365271121 -0.0068303421 0.0666309446 -0.0013466924 -0.0575132966 0.0740321130 0.0312244371 -0.0761156678 0.0458233505 -0.0755409747 0.0404095054 -0.0497097448 -0.0796048567 -0.0672874376 0.0657988489 -0.0487948544 0.0249030516 -0.0216021240 0.0469717979 0.0009667128 -0.0639387518 -0.0408316292 -0.1000061110 -0.0007989877 -0.0058012190 0.0031923205 0.0424660146 -0.0112924874 0.0718061328 0.0201249644 -0.0489511490 -0.0359746031 -0.0502578057 -0.0188095123 0.0196361393 0.0748376548 0.0231036469 0.0228263289 -0.0570714213 -0.0486298427 0.0500626862 -0.0765779987 -0.0624500215 0.0612865835 -0.0479999483 -0.0740184411 -0.0606937930 0.0225402340 0.0172506645 0.0456991494 0.0241562203 0.0301939249 -0.0715942383 0.0455925316 0.0447390862 0.0503958613 -0.0459607281 -0.0060561448 -0.0805862173 -0.0171076953 -0.0504329503 -0.0338389985 -0.0876764879 0.0346073285 -0.0623409897 0.0711688250 -0.0382529460 0.0211722180 0.0291562602 0.0057316646 0.0202881470 -0.0294833668 0.0476099849 0.0672784001 0.0648860782 -0.0125662088 0.0669301152 -0.0071368888 -0.0172615126 -0.0544045642 -0.0621474758 -0.0565635636 -0.0322780833 -0.0386237763 -0.0397280343 0.0709252506 -0.0506842807 -0.0347372666 -0.0657648817 0.0199687853 0.0278703421 -0.0291225836 0.0422867984 -0.0646222085 -0.0449747369 0.0019669384 0.0541673005 -0.0759420693 0.0584198385 -0.0371330604 -0.0324024409 -0.0233903117 -0.0534343310 0.0502615459 0.0086155990 0.0332329720 0.0428324416 -0.0683744475 0.0590946525 -0.0429075733 0.0674131215 -0.0466833040 -0.0354749858 0.0615743101 -0.0040903538 -0.0314676315 0.0322628692 -0.0315072164 -0.0809181631 -0.0390124582 -0.0468950272 -0.0468977988 0.0088429227 0.0147070214 -0.0575966239 -0.0493685715 -0.0572137758 0.0705844462 0.0446247309 0.0018143132 0.0005815178 0.0347557813 -0.0696170181 0.0282596052 -0.0552074648 0.0370019153 -0.0583276153 -0.0231418274 -0.0175331160 0.0079283565 0.0165205151 -0.0566179529 -0.0564214103 -0.0078963041 -0.0569228418 0.0035791099 -0.0816240013 -0.0764448270 -0.0172098875 -0.0687266886 -0.0530590229 0.0301329494 -0.0196169373 -0.0733368695 0.0196855962 0.0131706521 -0.0095842108 -0.0755696967 0.0089372545 0.0173888355 -0.0484872572 -0.0310146026 -0.0111168921 -0.0184669718 -0.0202859454 -0.0505260341 -0.1024028659 -0.0726791173 -0.0456519946 -0.0220003836 -0.0169246495 0.0530799031 -0.0116592348 0.0102892667 -0.0985619128 -0.1016107947 0.0155962091 -0.0532622039 -0.0577907711 0.0816955864 -0.0623845086 -0.0663241223 0.0389013514 0.0088185892 -0.0624314286 0.0291525722 -0.0485304110 -0.0257411525 -0.0539861247 -0.0562930331 0.0788313895 -0.0134181231 -0.0309223551 -0.0501985140 0.0048528537 -0.0309136957 -0.0475781374 0.0509523153 -0.1041338518 -0.0747211576 -0.0458722971 0.0702225566 -0.0076437816 -0.0511678606 -0.0598220564 -0.0315817073 -0.0752723217 0.0448874235 -0.0125157163 -0.0214795806 0.0094098449 0.0394964516 -0.0240200199 -0.0115354806 -0.0802099854 0.0173684657 -0.0765379071 -0.0165704191 0.0808815062 0.0616913289 0.0540059954 0.0285826996 -0.0134937242 0.0322404653 -0.0758839473 -0.0749096647 -0.0567381196 -0.0808404312 -0.0248715058 0.0436181724 0.0270172358 -0.0764141381 -0.0570482314 -0.0634613931 -0.0558497831 0.0375723317 -0.0052522421 -0.0785030946 -0.0742632300 0.0097428635 0.0417678431 -0.0626870319 0.0567248315 -0.0491632856 -0.0734058395 0.0455754995 -0.0636292547 -0.0370194539 0.0534921288 -0.0292679518 0.0174274668 -0.0159145668 0.0032130778 -0.0155839846 -0.0425370336 0.0741873235 -0.0554862656 0.0190925673 0.0629964769 0.0024300516 0.0173892081 0.0143458694 -0.0772295669 -0.0757180154 0.0101566613 -0.0565083846 0.0516228527 -0.0686469302 0.0777694285 -0.0603156090 0.0663627088 -0.0002639145 -0.0131837428 0.0008572191 -0.0754754245 0.0058354810 -0.0257861055 -0.0422133394 0.0408444479 -0.0752489865 -0.0083796959 0.0683766901 0.0490636081 -0.0406824909 0.0275039002 0.0070247427 -0.0455377437 0.0468889624 0.0478059947 -0.0690904558 -0.0657724738 0.0419382080 0.0353731066 0.0678234100 -0.1035014838 -0.0912500173 0.0472733565 0.0790713727 -0.0571791865 -0.0782501996 0.0171357691 0.0665041059 -0.0186986830 0.0225181058 -0.0678387433 0.0615116060 -0.0164960604 0.0538139641 0.0213571116 0.0462123901 -0.0806809589 0.0274150074 -0.0854186788 -0.0771514028 -0.0453746952 -0.0736786872 -0.0806291476 -0.0212358981 0.0565938056 -0.0658855736 -0.0287488252 -0.0379426740 -0.0188898742 -0.0225297734 -0.0111648515 -0.0058591068 -0.0041934997 -0.0534103811 -0.0408004336 0.0633877218 -0.0076435730 -0.0233309977 -0.0758586228 -0.0480573475 -0.0015451461 -0.0642126948 -0.0690386146 0.0523113310 0.0197981894 -0.0243943818 -0.0029651001 -0.0802144706 0.0141042545 -0.0024579167 -0.0494532399 -0.0441082902 -0.0121646896 -0.0414761640 0.0319332741 -0.0524810702 0.0006309825 0.1032031178 -0.0931897387 -0.0001309210 -0.0109366616 -0.0296059009 0.0765075907 0.0114940125 -0.0752744675 -0.0063227862 -0.0513090566 0.0341228321 -0.0073211417 -0.0535327867 -0.0031886101 -0.0306224860 0.0571419746 -0.0112039894 0.0534121990 0.0100354776 -0.0482298583 0.0459256768 0.0065820217 -0.0189267471 -0.0791524500 -0.0611573085 0.0311413966 0.0472448356 