-0.0739203468 -0.0464149602 -0.0268889070 0.0354724713 -0.1103420928 0.0286275595 0.0102673806 0.0440727063 -0.0998232439 0.0146124447 -0.0215556752 -0.1273700595 0.0883606821 0.0310723484 -0.0530162863 -0.0590659790 0.1161070913 0.0414500684 0.0581456721 -0.0181378555 0.0516057089 -0.1156025827 -0.0761170238 -0.0146839898 -0.0709789917 -0.0870092288 0.0463790298 -0.0164990518 -0.1117570028 0.0298995469 -0.1069575027 -0.0537066273 -0.0342736430 -0.0335925370 0.0558776893 0.0699315593 -0.0819373503 -0.1146020293 -0.0858392268 -0.0110648265 -0.0126469545 -0.0767409354 -0.0802609250 0.0071865320 0.0719526112 -0.0298549179 -0.0561334416 -0.0859377235 -0.0957598537 -0.0858296230 -0.0302649681 0.0277201906 -0.0482678153 -0.0798594952 0.0631172508 -0.1214803755 0.0873470306 -0.0571923926 -0.0480341204 0.0552473702 -0.1110090986 0.0589060746 -0.0593517199 -0.0736703649 -0.0847147778 -0.0897971243 -0.1121533066 -0.0429345556 -0.0668112710 -0.0642075092 -0.0182697177 0.0275034197 -0.1046780646 -0.0326725468 -0.0271623340 0.0450972654 -0.0041783527 0.0539120547 0.0705119520 -0.1057203636 0.0054893359 0.0037741938 0.1004801989 0.0542219952 -0.0467389636 -0.1123575121 -0.0223610085 -0.0733568445 0.0039508604 0.0288180579 -0.0559544154 -0.0235793758 0.0839313567 -0.0417467766 -0.0144989723 0.0670085549 -0.0207634028 -0.0155084208 -0.0364252999 0.0593682528 -0.0824816152 0.0514646173 -0.1223184392 -0.0645905510 0.0053613004 -0.0304268599 -0.0406119339 0.0131446347 0.0157227591 0.0508352295 0.0496841855 0.0481590293 -0.0064821006 0.0313169993 0.0496488586 -0.0686522722 0.0058068857 0.0570611358 -0.0965324789 -0.1293278039 0.0501883924 0.0457738973 0.0328563638 0.0160644595 -0.0054328148 -0.0420318283 -0.0404046625 0.0480125099 -0.0141355479 -0.0270664077 -0.0456151478 -0.0815567151 0.0704777911 -0.0754489228 -0.0355614647 -0.0571778826 -0.0880318359 0.0397082455 0.0530444942 -0.1158443764 -0.0964818001 0.0527313873 -0.0233881623 -0.0876893401 0.0456013009 0.0298407134 0.0669234842 -0.0825448185 -0.0968914852 -0.0021155830 0.0105958851 -0.0417193957 0.0684657544 0.0541738905 -0.0248557702 -0.0513788648 0.0843863487 -0.0603620037 0.0021133684 -0.0347111970 -0.1307552904 -0.0746595189 -0.0699930787 -0.0683608204 -0.0452334136 -0.0616508424 0.0764180869 0.0824962929 -0.1061394736 0.0818076581 0.0534220636 -0.0184898823 -0.1090278625 -0.0082311928 -0.0289181843 -0.1119690090 -0.0664587691 -0.1044971794 0.1050418913 0.0005517672 -0.0182497501 -0.0936222449 -0.0957103744 -0.0667634308 0.0534104854 0.0514748283 -0.0916071609 0.0271126851 0.0278963558 0.0045813723 0.0345115438 0.0993667543 0.0460572727 0.0501064397 -0.1204726845 0.0084048482 -0.0063940338 -0.0866283625 0.0032448980 -0.0220533758 -0.0126460465 0.0548079610 -0.1036971658 -0.1120189354 0.0523982942 0.0581939258 -0.0963263065 -0.0914808214 0.0085800784 -0.0097791748 0.0282772928 0.0357640088 -0.0668573081 0.0635600984 0.0104529923 0.0493422076 -0.0463158414 0.0477305539 -0.0976934955 0.0031458754 -0.0805515051 0.0703456700 0.0380249582 -0.0141946003 0.0302830115 0.0378056169 0.0485350117 0.0329570696 -0.0094806440 0.0214929897 -0.0197037850 -0.0676979572 -0.0867969394 0.1078200340 0.0005866144 0.0333234519 -0.1005632803 0.0467364751 -0.0365345962 -0.0267663375 -0.1240862533 0.0545201488 0.0783433616 -0.1040704027 -0.1079663411 -0.0241174307 -0.0447926633 -0.1086129323 0.0809773654 -0.0165961608 0.0276291799 -0.0604168512 0.0752954632 0.0057229823 0.0609151535 0.0126883835 0.0712542236 -0.0381813496 -0.0298544783 -0.1262964010 0.0883054361 0.0514870733 -0.1146832556 -0.1232601628 0.0494259521 -0.0633025989 0.0043128203 0.0517008007 0.0374690294 -0.0318025537 0.0995447040 -0.0341743529 0.0814790428 0.0031535970 -0.0571749285 0.0698697418 -0.1057842225 0.0278015994 -0.0431263000 0.0637794584 -0.0626965463 -0.0727304369 -0.0119690970 0.0316968746 0.0910484493 0.0509092547 -0.0163256116 -0.0266446378 -0.1313358247 -0.0584710278 -0.0222677812 -0.0426610261 0.0618560836 -0.0440422408 0.0013850202 -0.0590394810 0.0485464111 0.0260363985 0.0045709051 -0.0354549512 0.0680026487 0.0375959314 0.0559674054 0.0273122340 0.0049533565 -0.0466705151 -0.0296263639 0.0408390649 0.0683672428 -0.0566522405 -0.0235109720 -0.0083009694 0.0784005523 0.0494901277 -0.0018674975 -0.0838237107 0.0411662422 0.0430852808 0.0127377035 0.0039356723 0.0378788859 0.0206174031 0.0351865739 -0.0567552261 -0.0178320985 0.0701802075 -0.1243594214 -0.0859668627 -0.1019518524 -0.0011923526 -0.0613706335 -0.1270472705 0.0308441371 -0.0589060150 -0.0080467463 -0.0193931703 0.0569613539 0.0138534652 -0.0690189153 0.0558994040 -0.0962790027 -0.0022817173 -0.0428397059 -0.0604236312 -0.0132545987 -0.0104955332 -0.0417682230 -0.1075781658 -0.0576119348 -0.0052937665 -0.0453854688 -0.0855972767 -0.0456131138 0.0813044310 0.0124200266 0.0599841736 -0.0630608350 -0.0131938457 -0.0240047295 -0.0654392689 -0.1262825727 -0.0171918124 -0.0783119351 -0.0956964791 -0.0267894566 -0.0283350088 -0.0403326526 -0.0512505025 -0.0621772967 -0.0749751404 0.0362597257 0.0085470099 0.0692052916 -0.0235225745 -0.0010753429 -0.0397048779 -0.0114163980 -0.0547752343 0.0259207319 -0.0709963590 0.0043736850 0.0490931161 0.0587585308 0.0918226689 -0.0010006991 0.0905933827 0.0678778365 -0.0460960828 0.0840399340 -0.0709294155 0.0103999600 0.0429754592 0.0606716312 -0.0185577963 0.0132868569 -0.0969316214 -0.0108726695 0.0294957757 -0.0900609940 -0.0253901836 0.0164470002 -0.0270668380 -0.0720733553 -0.1134344712 0.0132239312 -0.0222016759 0.0191395860 -0.0437290296 0.1271826029 0.0386633463 -0.0565619431 0.0593600199 0.0682376176 0.0002062132 -0.0310950596 -0.0239556655 0.0335070081 0.0397302508 -0.1005482227 -0.0006019908 0.0553922765 0.0718382597 -0.0968696177 0.0005911780 -0.1099049896 0.0604516417 0.0537345186 0.0381679386 -0.0483948998 0.0540122949 -0.0664101988 0.0781467110 0.0592591800 0.0108254571 0.0359222032 0.0385210626 -0.0045283232 -0.0000553279 0.0535493493 -0.0435776748 -0.0451520905 -0.0939973369 -0.1016637459 -0.1057302058 0.0761057660 0.0408969708 0.0037016999 -0.0066810548 -0.0160666257 -0.0171084162 0.1079874560 0.0289364122 0.1196021065 0.0031101853 0.0586244725 -0.1187862605 0.0023308883 -0.0570582487 -0.0083433213 -0.1158399209 -0.0094212517 -0.0125004780 -0.0506208949 -0.0245733950 -0.1144827008 -0.1035669148 0.0776008070 -0.0591231771 -0.0611240864 -0.0693223551 0.0892274082 0.1281581372 -0.0719305798 -0.0576492697 0.0749397427 0.0354909077 0.0128155407 -0.0394815244 -0.0394877903 0.0069473833 0.0117596611 -0.0562653393 -0.0348405764 -0.0195949953 -0.0122601008 0.0334519632 0.0123986071 -0.0366643034 -0.0032636127 -0.0880372822 -0.0865750909 0.0278920084 -0.0034641339 -0.0324759185 -0.0020298054 -0.0064687654 -0.0568247214 -0.0079343002 0.1197763011 0.0667574629 0.0462739617 0.0155617595 0.0289272778 -0.1290651411 0.0165544171 -0.1150585636 -0.1240591332 -0.0911354274 -0.0330306813 0.0162968636 -0.0330349691 0.0676113740 -0.0787252113 0.0580903590 -0.0107261511 -0.0916803330 0.0423148870 0.0929054618 -0.0062237531 -0.0321351811 0.0912366435 0.0396319181 0.0115944538 -0.0514306910 0.0563918427 -0.0173961893 0.0427965820 -0.0763223991 -0.0401095822 0.0463500768 0.0290360153 -0.0459611043 0.0091715381 0.1110036224 -0.0488389283 0.0264486559 0.0818933100 -0.0885900036 -0.0115680220 -0.0031516030 0.0599805266 0.0459046811 -0.0973935723 -0.0159427002 0.0737864822 -0.0317325071 -0.0191005990 -0.1055226848 -0.0600154251 -0.0187251493 0.0739205331 0.0744196177 0.0538554601 -0.0585765615 -0.0458817855 0.0440380573 -0.0391345397 -0.0837394372 0.0534729362 -0.0646932274 0.1165361330 0.0418602861 0.0277892947 0.0511444360 -0.0305991769 0.1010176390 -0.0520978197 0.0873017013 -0.0717585534 0.0627912730 0.0143462494 0.1093533486 -0.1046226546 -0.0896681175 0.0944989696 0.0852122754 -0.0401223376 0.0172893852 -0.1123799086 -0.0075467154 -0.0857267976 -0.0520774014 0.0002119690 -0.0046582818 0.0464876108 -0.1137177572 0.0481058620 -0.0187897384 -0.0548748448 0.0500125289 -0.0274997726 0.0926666409 0.0714628696 -0.0660989732 -0.0106561035 0.0256770253 0.0214975700 -0.0300492346 -0.0899931192 0.0508117191 -0.0011808798 0.0333889648 0.1064202264 0.0279504061 0.0257726312 -0.0115102082 -0.1115616187 0.0297265053 0.0272720009 0.0396715254 0.0647352785 0.0480315983 -0.0881223679 -0.0737672001 -0.0489618741 -0.0852582604 -0.1036436930 -0.0059220176 -0.0701044351 0.0550304651 -0.0103811324 -0.0141719924 0.0371104777 0.0122587010 -0.0015624514 -0.0395425484 0.0399513096 0.0839021355 -0.0261952728 -0.0297181085 0.0486446321 -0.0980981961 0.0323586315 0.0522591919 -0.0975712836 0.0091696205 0.0241914578 0.0554048270 0.0065044393 0.0822006613 -0.0182694625 -0.0612647347 -0.0920818821 -0.0834015459 0.0407521576 0.0427397937 -0.0787629485 -0.0705394149 0.0842177868 -0.0566933751 -0.0361030102 0.0618863553 0.0437086783 -0.0125669092 0.0761924833 0.0221066400 -0.0870747119 -0.0551822111 0.0938028693 0.0807349533 -0.0311392322 0.1164264306 -0.0264380239 -0.0051221536 0.1006118208 -0.0024257910 -0.0154369194 0.0037605986 -0.0404564068 0.0193680301 0.0139173036 0.0513416380 0.0790242404 0.0917810351 -0.0523569211 0.0677596033 -0.0368372127 -0.0045327884 0.0458543822 -0.0574351512 -0.0399608798 0.0347996019 -0.0870837718 0.0430292636 -0.0202818215 -0.0366627984 -0.0725381747 -0.0259601399 0.0455175824 0.0528156608 0.0406405181 0.0783954412 0.0181321502 -0.0323532075 0.0009663552 0.0833754838 -0.0130687654 0.0504290760 -0.0860170573 -0.1015724614 -0.0341289714 -0.0576313920 0.0784830675 0.0035330057 -0.1278805733 -0.0068664774 0.0128226923 0.0552974045 0.0525918379 0.0363926589 -0.0553892404 0.0969710946 -0.0739991665 -0.1201993302 0.0170454904 -0.0967722386 -0.0268925149 0.0939330757 0.0991102755 -0.0917563513 -0.0768979490 -0.0603625216 0.0073639452 -0.0910547003 -0.0655790567 0.0724392086 -0.0791265070 -0.0748828724 0.0659659654 0.0356867574 -0.0760848373 -0.0163018852 0.0732229650 -0.0863091573 0.0629255697 -0.0974184647 -0.0165441483 -0.0354240239 0.0016372278 0.0140663655 -0.0313821286 -0.0070885136 0.0206351001 0.0269401968 -0.1061907262 -0.1015804932 -0.0599843971 -0.0391580909 0.0755522102 0.0457537770 -0.0792759955 -0.0425089374 0.1127100140 -0.0462933742 -0.0910871848 0.0498353392 -0.0396572463 0.0276497304 -0.0621966571 0.0213867575 -0.0400593095 0.0265189409 0.0028481632 -0.0275671110 -0.0004629480 -0.1123344675 -0.0599963143 -0.0616288595 -0.0633705258 -0.0125085115 0.0705525130 -0.0707097352 0.0303921439 0.0475669503 -0.0683951080 0.0903859884 0.0765421987 -0.0750222430 -0.0375894494 0.0217509344 -0.0297808573 0.0117079392 -0.0424546003 -0.0916799977 0.0372580886 0.0511077195 0.0941442549 0.0734432638 -0.0591481812 -0.0829808339 -0.0845529586 -0.1018036678 0.0499101430 -0.1089803576 0.0392113328 -0.0006051511 -0.0552973822 -0.0461438745 -0.0378374271 -0.0892772079 -0.0751141161 -0.0685071796 0.0403079689 -0.0210490637 -0.0805740207 -0.0488398634 -0.0613057353 0.0170348585 0.0205466021 0.0044952123 0.0147748720 0.0113028809 0.0584313422 -0.0026550305 0.0556850135 0.0999773741 -0.0410220213 -0.0757715255 0.0915548950 0.0799411237 -0.0042998269 0.0782291740 -0.0396610163 -0.0255475417 0.0900844783 -0.0002626777 0.0237768441 0.0755199268 -0.0757312924 0.0181226619 0.1042320430 -0.0827782154 -0.1157877073 0.0090024918 -0.0639497340 -0.0799968243 -0.1097991318 0.0795077235 -0.0162538737 -0.0672223568 -0.0536341593 0.0035079031 0.0077412874 -0.0706124157 0.0329127088 0.0033721849 -0.0545886941 -0.0042207390 0.0055755600 0.0064291283 0.0752595514 0.0897450745 0.0898657143 -0.0702103302 0.0024676847 0.0082012769 0.0176187381 -0.0533029176 -0.0907954797 0.0716119260 0.0166756213 0.0643546730 -0.0627441108 -0.0272104964 -0.0130244792 0.0792583078 -0.0938585475 -0.0638502687 -0.0510055609 0.0926073343 -0.1234761775 0.0476501733 -0.0927064791 -0.0286598038 0.0013637071 -0.0821499303 -0.0184844062 0.0424583517 -0.0428475849 -0.0026203990 0.0676928833 0.0268657375 0.0033455417 -0.0647873431 -0.0238191858 -0.0126550496 0.0600840896 -0.0634803027 -0.0456477627 0.0858721286 -0.0738090426 0.0091447225 0.0337142982 -0.0304840822 0.1210815609 -0.0233613476 0.0279562678 0.0131206959 0.0619899631 0.0488900095 -0.0343703702 0.0728483498 -0.0593250357 0.0739068091 -0.0100660659 -0.0531247184 0.0594361126 0.0444205254 0.0714889243 0.0381376892 0.0768020898 0.0668264925 -0.0842695236 -0.0466774106 -0.0455810167 -0.0373630822 0.0372069627 0.0662450939 0.0105012106 -0.1060156673 -0.0641180277 0.0069114510 0.0576481074 0.0847304761 0.0226123631 -0.0966001526 -0.0149621712 -0.0688443258 -0.0960350111 -0.0889931917 -0.0666981637 0.0571259446 -0.0423757583 -0.0015631461 0.0054805097 -0.0085640773 0.0716724694 0.0361405872 -0.1087322757 0.0345508307 -0.0463706627 0.0096259341 -0.0089896917 0.0238098204 -0.0504376441 -0.1133987978 -0.0462891459 -0.0305393115 0.0012445599 0.0855418295 -0.0677880049 -0.0199992582 -0.0442114063 0.0541828871 -0.0562636405 -0.0383442901 0.0074682860 -0.0477820113 -0.0092375008 -0.0927632973 0.0345147140 -0.0096393749 -0.0789606497 -0.0800736472 -0.0106732883 0.0090631321 -0.0404783562 0.0345299095 0.0195968132 -0.0487454049 0.0988177359 -0.0626158714 0.0751296282 -0.0842759609 -0.0353798792 0.0916934460 -0.1222327501 -0.0809712633 -0.0463383496 -0.0211074576 0.0646091104 0.0426910073 0.0614622794 -0.0943483710 0.0678521544 -0.0507162176 -0.1156875938 0.0383194089 -0.0188552421 0.0077826083 -0.0348549038 0.0519619435 0.0728816092 0.0243073404 0.0218908712 0.0429842025 0.0757993758 -0.0760587528 -0.0522646010 0.0625350177 -0.0063304668 -0.0831984133 0.0871130154 0.0652134567 -0.0606599227 -0.0712677240 -0.0655714422 -0.0545396358 0.0364380181 0.0409168452 -0.0472005308 0.0738587081 -0.0648311004 0.0196309760 -0.0664624125 0.0901393741 -0.0319512635 -0.0683011264 0.0424517915 0.0192178339 0.0437745228 -0.1119479835 0.0622324497 0.0662959963 -0.0007399246 -0.0542870536 0.0291911699 -0.0197491720 -0.1265576035 -0.0435531586 -0.0026058629 0.0261221156 -0.0013364891 0.0341318771 0.0215860549 0.0274828840 -0.0324923471 0.0416827276 0.0697812885 -0.1012814417 -0.0446329601 -0.0191234909 -0.0831548050 -0.1309970468 0.0533700958 -0.0622021183 -0.0550288260 0.0286052711 0.0445288792 -0.0179357212 -0.0438074283 -0.0271504167 -0.0927098840 0.0578904599 -0.1085046306 0.0867718607 0.0511999168 -0.0851677433 -0.1189787909 -0.1165816262 0.0018318093 0.0290379897 -0.0596978255 -0.0207423680 -0.0610749051 -0.0148557685 0.0572818406 0.0342720300 -0.1221592426 -0.0676864833 0.0060063465 0.0243259501 -0.0467180423 -0.0149113350 -0.1149500087 0.0388485864 0.0666292161 0.0331470482 0.0404768921 0.0297532324 -0.0435984433 0.0405718647 -0.0465100482 0.0435157269 -0.1122087017 -0.0645825043 -0.1029177904 0.0253639519 -0.1308834255 0.0463291183 -0.1157720909 -0.0686419532 0.0059414711 0.0732909739 -0.0761053637 0.0655604005 -0.0508640260 -0.0193583909 -0.0333070569 0.0016311454 -0.0270662680 -0.0462236032 0.0927757770 -0.1014857069 0.0972925723 0.0453935340 -0.0552378856 0.0519399010 0.0496572480 -0.0721589997 -0.1182989329 -0.0194177125 -0.0521678030 -0.1020106748 0.0539199002 -0.1144348010 0.1009603590 -0.0684703663 0.0701575726 -0.0084303170 -0.0609335378 0.0676974654 0.0593498312 0.0230941828 -0.1004510000 -0.0230026096 0.0220454503 -0.0480834134 -0.0110876970 -0.0019129720 0.0400338955 -0.0955126211 -0.1050953344 -0.1124862880 -0.0839192793 -0.0573541373 -0.1055550799 -0.0523516349 -0.0722617283 -0.0149500165 -0.0018111494 -0.0240200870 0.0678162128 -0.0095607666 0.0105102211 -0.0370637625 0.0568496361 0.0037869057 -0.0007128324 -0.0122080147 -0.1072804928 -0.0649059489 -0.0412824787 -0.1179715395 -0.0161228199 0.0190482903 0.0222627297 0.0884361714 -0.0325450860 0.0663601086 0.0051838448 -0.0087306630 0.0415573083 -0.0989580899 0.0013402179 -0.0671873018 -0.0135503486 0.0154596139 -0.0831925720 0.0049222359 0.0002772808 -0.0109125385 0.0633341223 -0.0552843101 -0.0550106242 -0.0886171684 -0.0168369319 0.0469001532 -0.0155286118 -0.1221168190 -0.0718692467 0.0435176045 -0.0572671182 -0.0502040647 0.0374465287 -0.0626279712 -0.1298145056 -0.0231538992 -0.0757562146 -0.0756299868 -0.0205324162 0.0669698194 -0.0583320633 -0.1149246842 -0.0528358407 -0.0363122448 -0.0616812706 -0.0397800542 0.0107450644 0.0175623279 -0.0593765043 -0.0909038782 0.0710095689 0.0209630802 -0.0216235109 -0.0693525597 -0.1210709438 0.0274006594 -0.0021137521 0.0353845283 -0.0020440978 -0.0938986018 -0.0151645578 -0.1214964315 -0.0145148514 0.0932039768 -0.1156278700 0.0384636782 -0.0575284250 0.0094955126 0.0483106561 0.0375046879 -0.0382647179 0.0284034349 0.0062893308 -0.0774976090 0.0684638023 0.0647521019 0.0635501146 0.0145686967 -0.0455657579 -0.1036495343 0.0458557904 -0.1127285734 0.0786888748 0.0170429572 0.0274910126 0.0440093055 0.0084841559 -0.0711031854 -0.1042565480 -0.0660723746 0.0091182441 -0.0697516426 -0.0430446602 0.0577090681 0.0197803359 0.0558248311 -0.0301447064 0.0088282675 -0.1242914125 -0.0331725515 -0.0297175869 -0.0473688357 -0.0404671021 -0.0666557476 0.0128197800 -0.0073828585 -0.0531145670 -0.0526848882 0.0108484700 0.0488282591 0.0274371617 0.0391882360 -0.0772190541 0.0170087125 -0.0408910066 -0.0350946411 0.0622611567 -0.0556846075 0.0630019680 -0.0754450485 -0.0955316499 0.0057485318 0.0164727233 -0.1097891033 -0.0433623604 -0.0164791495 -0.0054209423 -0.0370111987 -0.1161962301 -0.0913237929 -0.0730266124 0.0177941322 0.0551773384 -0.0768780261 -0.1246952191 0.0600104369 -0.0661989599 -0.1039868817 -0.0779462010 0.0087066051 0.0928924382 -0.0947468951 0.0713601112 -0.0129095037 -0.0040113255 -0.1169857010 -0.0863366053 -0.0838715583 -0.0133196358 -0.0352391005 -0.0250529628 -0.1221279725 0.0673349649 -0.0766806006 -0.0136920232 0.0491739996 -0.0905936658 0.0244424343 0.0473282859 -0.1095490381 -0.0289024636 -0.0393078625 -0.0205474701 -0.0479436293 0.0641577318 0.0230146646 -0.0982570127 -0.0875227079 0.0112656662 -0.0906524137 0.0686888471 -0.0331538767 -0.0249419659 0.0598388761 -0.0972421542 0.0837270766 0.0566605255 -0.1202194467 -0.0800257474 0.0035871742 -0.0500471778 -0.1053007767 -0.1320502162 -0.1144950837 -0.0345842019 -0.0686862543 -0.0286714565 0.0386800990 -0.0404943153 0.0089276861 -0.0632173568 -0.0573112927 -0.0016128456 0.0624967068 -0.1078024954 -0.0471562296 -0.0278297067 -0.0364300385 0.0210109688 -0.0168606862 -0.0826245770 -0.1188149825 -0.0096315620 -0.1199455485 -0.0101765096 0.0432465076 0.0058877841 -0.0200940669 0.0647057146 0.0577967092 -0.0536533855 -0.0746308416 0.0463384613 -0.0088262865 -0.0243662950 -0.0678384304 0.0208144113 -0.1112664044 -0.0761852264 0.0201797988 0.0671665817 0.0458953381 -0.0120707136 -0.0487063862 -0.0697353035 -0.0204205215 -0.1212098747 0.0031755450 -0.0070974552 -0.0620646030 0.0033883490 -0.0277096704 -0.1115488112 -0.0076354812 -0.0393087976 -0.0241049081 -0.0121789277 0.0313210338 -0.0157278012 -0.0822010264 -0.0527107418 -0.0198993161 -0.0723817796 -0.0560918786 -0.0301212464 0.0642400384 -0.0195998624 -0.1011528969 -0.0184727982 -0.0468251109 -0.0896816030 -0.0347892642 -0.0792053789 0.0090180738 -0.1162658557 0.0310551077 -0.1218419075 0.0831406713 0.0710007772 -0.1255775243 0.0664972663 -0.0712322667 -0.0928723514 -0.0868127197 -0.0607585683 -0.1038751155 0.0139864543 0.0528429598 -0.0154306516 -0.0621993579 -0.0548843928 -0.0173587799 0.0432156622 -0.1113561839 0.0157885477 0.0053513250 -0.0946546197 0.0259111468 0.0237406604 -0.0380863138 -0.0276834145 0.0620052926 -0.0473671928 -0.0160076804 -0.0224237293 0.0858439207 0.0534320325 -0.0766987130 0.0289744735 -0.0001309365 0.0496598892 -0.0501641966 0.0656592026 -0.1136573181 -0.0555162355 0.0044137537 0.0068322960 -0.0714613423 -0.0621266328 0.0766250044 0.0214146134 -0.0616340414 -0.1042816266 -0.0742320791 0.0175983943 -0.0805034265 0.0823525488 -0.0752745494 -0.0103364270 -0.0996981636 -0.0397269204 0.0067503545 0.0728539526 -0.0828971863 0.0700950548 -0.0335153304 0.0096187145 -0.0708568469 -0.0598318651 -0.0769807622 -0.0020788561 -0.0196774565 -0.0328515097 -0.1149615571 -0.0399020426 -0.0662540719 -0.0984713137 0.0598069616 0.0012909477 -0.0462826863 0.0601406321 -0.1241660416 -0.0571019277 0.0529612228 -0.1015594229 -0.0023815015 -0.1203842387 0.0462768450 0.0051126108 0.0636332855 -0.0137519315 -0.0763612241 -0.0706070662 0.0294386595 -0.0487131439 -0.0885804221 -0.0841452032 0.0644600242 0.0411933213 0.0848800540 -0.0609076694 -0.0852436870 -0.0161422677 0.0572481640 0.0717995018 0.0694914013 -0.0311575141 0.0403995551 0.0523964986 -0.0253473632 -0.0254316237 -0.0260208715 -0.0917219073 -0.0160881653 -0.1004776731 0.0786392838 -0.0493158698 -0.0849277452 0.0367888436 -0.1149139777 0.0010495782 -0.0315181538 0.0233711600 -0.0625006780 -0.0351354480 -0.1004643962 -0.0630832762 -0.0479302518 0.0055243443 -0.0398796871 -0.0052578175 0.0081842225 -0.1312851012 -0.0270933993 -0.0674986318 0.0038584173 0.0591685995 -0.0116461292 0.0452326834 -0.0266608000 0.0107793901 0.0805519074 -0.0891176388 -0.0987258106 -0.0432511568 -0.0939202234 0.0188072398 0.0153355347 -0.0336889923 0.0500504225 -0.0087742740 -0.0592973456 -0.0637550205 0.0473930836 -0.0588044114 -0.0150871025 -0.0401841551 0.0498112179 0.0312598273 -0.0415590033 0.0091783777 -0.0907821730 0.0303209424 0.0983363539 0.0101585686 -0.0586521663 -0.0919992477 0.0013117939 -0.1182522923 -0.0340091437 0.0916198939 -0.0732421651 -0.1278767288 0.0215690844 0.0513220578 -0.0129809808 -0.1271203607 -0.0927077979 0.0070202872 -0.1267317683 0.0921897590 -0.0788868293 -0.0270072892 -0.0588272177 0.0392806605 -0.0576490909 0.0145240277 0.0242963135 -0.0735311508 0.0713442713 0.0790185779 -0.0299153551 -0.1224997565 -0.0972503275 0.0587487221 -0.0708313584 -0.0370709635 0.0742128342 -0.0645372495 0.0078680143 0.0555643104 -0.0560907274 -0.0486996248 -0.0868458077 -0.0281325653 -0.0251340028 -0.0736941546 -0.0705047175 -0.0644488633 0.0489063337 0.0041534826 -0.0878959000 0.0374471098 0.0208823755 0.0514571555 -0.0561767444 0.0592349023 0.0522337705 -0.0487786494 0.0501437783 0.0064021731 -0.0031934159 -0.1101518348 -0.1245311722 -0.0898763016 0.0499884821 0.0299648046 -0.0560438894 -0.1179763824 0.0095542818 0.0130391046 -0.0240662172 -0.0429961905 -0.0908643901 0.0797625482 -0.0272998754 -0.0052133594 -0.1036285460 -0.0806461349 -0.0297837257 -0.1289309710 0.0633780658 -0.0884962007 0.0099092973 -0.0654332042 0.0359102339 -0.0991130620 0.0593897216 -0.1008480117 0.0172328129 0.0839736462 -0.0257544518 -0.0075758696 0.0662372410 0.0584984571 0.0667990893 0.0464667827 0.0375810862 0.0680348352 -0.0545338094 -0.0958265439 0.0783066899 -0.0066523850 -0.0726762861 -0.1202664003 0.0405685306 -0.1043341905 -0.0332925543 0.0454318672 -0.0384226069 0.0372239575 0.0302592516 -0.0879718587 -0.0892376080 -0.0327016637 -0.0043693963 -0.0722307712 -0.0546518378 0.0656056479 0.0760306418 0.0375399143 0.0100494921 -0.0348985940 -0.0905431062 0.0363698564 -0.1019402370 0.0417617820 -0.0839499235 0.0648416579 0.0573730320 -0.0255519971 0.1102200076 0.0092987940 -0.0478278734 -0.0989660993 0.0015977398 -0.0348279774 -0.1045284718 -0.0289317966 0.0625590906 0.0455412790 -0.0482023545 0.0673307329 -0.0407080650 -0.0183577836 0.0933949500 0.0518681109 -0.0457553677 -0.0552434102 0.0963798910 0.0641977564 0.0488057099 -0.0659181848 0.0553024113 -0.0473528355 0.0102238432 0.0525463074 -0.0182097554 -0.0897741690 -0.0272772610 0.0149924392 0.1131414175 -0.1050490886 -0.1161192954 -0.0106442235 0.0766547024 0.0061422279 0.0772444904 0.0327673368 -0.0092420354 0.0506054237 0.0427120179 0.0104115224 -0.0107489610 0.0402453989 -0.0269961916 -0.0343746915 0.0741800740 -0.0400976352 -0.0405211821 -0.0253120884 0.0555679649 -0.0726836771 -0.1003031805 0.0372962207 0.0178553611 0.0060647544 -0.0501755103 0.0011016754 -0.0090078814 0.0420627221 0.0571216457 -0.0391796306 -0.0455946364 0.0391005725 -0.0367266461 -0.0040329546 -0.0326624140 -0.0064719319 0.0188430771 0.1108452529 -0.0351622589 0.0454731435 0.0430170894 0.0740301907 -0.0391902365 0.0464290604 -0.0251006372 0.0147267655 0.0730547011 0.0325571001 -0.1004070416 -0.0253722221 0.0313627124 -0.0378151760 0.0413399898 0.0299227554 -0.0468920097 0.0298704803 0.0934137106 0.0763929337 -0.0766842589 0.0013410226 -0.0174088851 -0.0853641108 0.0302933920 0.0187260881 0.0595087633 -0.0372929946 -0.0954080820 -0.0602900274 0.0521822274 -0.0066390019 -0.0857517496 -0.0903596207 0.0460897833 -0.1081589982 -0.0796700120 0.0466240831 0.0078276386 -0.0593668707 -0.0531690270 -0.0575365722 0.0671347901 -0.0532969497 0.0435630679 -0.0405425765 0.0868200064 -0.0824038237 0.0307149291 0.0946544558 -0.0714614540 -0.0611737184 -0.0539866127 -0.0657359958 0.0742968544 0.0447039157 -0.1046349779 0.0804500878 0.0696929768 -0.0083633205 0.0220694840 0.0033036843 -0.0477339961 0.1172343567 0.0155144334 -0.0786210150 -0.0976231992 -0.1277890801 -0.0779263228 -0.0146967117 -0.1177700534 0.0507518873 -0.0526606999 -0.0177054927 -0.0155533683 -0.0164797604 -0.0963903740 0.0121606449 0.0335753262 -0.1167491153 0.0934181064 0.0451441556 -0.0825601891 -0.0475922525 0.0568112433 -0.0966812819 0.0807773918 0.0644039735 0.0083041396 -0.0609760284 -0.0131353131 -0.0135447998 0.0242481828 -0.0977932215 -0.0527000986 -0.0927815214 0.0774024427 0.0677593276 -0.0896374658 -0.0662169382 0.0033912554 0.0320334397 0.0702619627 -0.0632343739 -0.0519815758 0.0498993844 0.0773211867 -0.0411622487 -0.0796093419 -0.0924219042 -0.0007589385 0.0410651565 -0.0418972410 -0.0711734295 0.0251145996 -0.1231544316 -0.0126368999 0.0387006514 0.0599569529 0.0311420113 0.0217921808 -0.0391748101 -0.1165985689 -0.0227684323 0.0578962266 -0.0526213050 0.0891806781 -0.0208235327 -0.0124468775 0.0599862486 -0.0291975047 -0.0516753606 0.0077385721 0.0460278168 0.0044995905 0.0549327135 -0.0768622160 0.0572769642 -0.1081785858 0.0683470666 0.0250940919 0.0322544277 0.0115892040 0.0017303554 -0.0902895555 -0.0720707774 -0.0870345384 -0.0177676380 -0.0527578890 -0.0967161283 -0.0373954475 -0.0079281945 0.0199016333 0.0397991985 -0.0714881048 -0.0328741930 0.0337243080 -0.0930103511 -0.0874250159 -0.0459735580 -0.0238605961 -0.1187040210 -0.0876955539 -0.0869400054 -0.0866830721 -0.1193712875 -0.1075822562 -0.0193126332 -0.0781164616 -0.0181660280 -0.0450520776 -0.0084747002 0.0521327406 0.0174151789 -0.0494784154 0.0802925229 0.0257549137 0.0079070926 -0.1085543260 -0.0797308832 0.0481560454 -0.0660020113 -0.0477656983 0.0643105060 -0.0440102182 -0.0525533892 0.0635364801 -0.0840282515 -0.0929693803 -0.0289645717 -0.0861085728 -0.1184997633 -0.1039653048 -0.0446490198 -0.0342393070 0.0492319502 -0.0390270725 -0.0439067483 -0.0225997530 0.0114053525 -0.0504731201 -0.0030237809 -0.0084027229 0.0206740052 0.0571318567 0.0759510919 -0.0938817188 0.0235549957 0.0052419230 0.0039273500 0.0640834570 0.0437635034 0.0082330406 0.0210275948 0.0537774861 -0.0481491499 -0.0417175889 -0.1197490394 -0.0665375665 0.0283760186 0.0649943501 -0.1213455275 0.0770632029 -0.0150776971 -0.0456005558 -0.0562505573 -0.0431060307 -0.0591606423 -0.0116852764 0.0115540326 -0.0691896975 0.0397746861 0.0252581425 -0.0346567854 0.0136947362 -0.1205596551 -0.0201500356 -0.0718420967 -0.0003443435 0.0031872243 -0.0399007499 -0.0148116276 -0.0593488589 -0.0592629090 0.0332057737 0.0133373365 -0.0565044731 -0.0267260708 -0.0374060310 0.0049480945 0.0477787890 0.0553318560 0.0152410641 0.0341044813 -0.0437016450 0.0693177134 -0.1133004725 0.0073009953 -0.0189271383 0.0129633490 -0.1119598970 -0.0067427559 -0.0658852980 -0.0108420197 0.0445217490 -0.1010483950 0.0242653638 -0.0345878005 0.0326563716 0.0132901296 0.0171013400 0.0070302314 0.0531587899 0.0991729349 0.0149032474 0.0435126424 -0.0664336532 0.0185923446 0.0476568639 -0.0162198488 0.0540342592 -0.0936111882 -0.0015492779 -0.0025798380 0.0821798593 -0.1018194780 -0.0268768817 -0.0485240072 0.0442389101 -0.0134048387 -0.0728184953 -0.0080285445 -0.0205388293 -0.0705262125 -0.0837100223 -0.0828369111 0.0399296582 -0.0382540077 0.0348435193 0.0433752835 0.0037600100 0.0857328624 -0.0025306344 -0.0654130131 0.0156177729 0.1006473750 -0.0213137567 -0.0058604013 -0.0282134563 0.0865707695 0.0638171881 -0.1016995534 0.0504559129 0.0905967206 -0.0486686453 -0.0380268022 -0.0364570990 -0.0105440170 0.0198865458 0.0829792321 0.0050220452 -0.0299718827 0.0093488097 0.0625294521 -0.0371902436 -0.0425036326 0.0124722533 -0.0280481689 -0.0666213632 0.0778168887 -0.0615242012 -0.0214964300 0.0929562896 0.0346614271 0.0058354363 -0.0795933306 -0.0226653591 -0.0940435305 0.0995505452 0.1018450707 -0.0227348357 -0.0724087954 0.0187935382 0.0846236050 0.0345376432 -0.0044341236 -0.0457183458 -0.0738096461 -0.0026297420 -0.0215761550 -0.0767662376 0.0378280953 -0.0882211328 0.0298317969 -0.0057857260 0.0295610428 0.0526469499 -0.0800760314 -0.0429238230 -0.0587712303 0.0506775230 0.0860825926 -0.0458154194 -0.0346570015 0.0759265572 0.0178143084 -0.0244365707 0.0125064924 -0.0438560396 -0.0669917166 -0.0147506520 -0.0270017982 0.0360530838 -0.0276099741 -0.0754338801 -0.0881625414 0.0280672312 -0.0741433799 0.0019768551 -0.0524134226 -0.0182203650 -0.0143969357 -0.0343335643 -0.0663416013 -0.0886253938 0.0275960267 -0.0343367308 0.0040538856 0.0490886420 0.0643780529 -0.1404179335 -0.0682368949 0.0609287620 -0.0551125668 0.0884925723 -0.0046489388 0.0025744811 -0.0565382913 0.0667709112 0.0062475279 -0.0747098401 -0.0787098035 -0.0127695650 -0.1006635353 0.0955912918 -0.0716212615 -0.0773370042 0.0651044846 0.0994214714 -0.0723104328 0.0675339401 0.0675113350 -0.0856826454 -0.0257398020 0.0706538409 -0.0871930569 0.0785835832 0.0686855912 -0.0942695439 0.0237157196 -0.0710877776 0.0814456940 -0.0791098699 -0.0855694413 0.0133184791 -0.0825316459 0.0956702977 0.0592115968 0.0073173493 0.0221719742 0.0590674877 0.0437558591 -0.0953393877 0.0602675527 0.0570880771 -0.1065254137 -0.0058177048 0.0967878699 -0.0430810228 -0.0603874139 -0.0913739055 0.0170020089 0.0683792830 0.0791696608 -0.0845623761 -0.0687755793 -0.0088147596 0.0252971500 -0.0629537106 0.0787660629 0.0554856509 0.0540076792 0.0588417202 -0.1005307958 -0.0612408258 -0.0300527774 0.0124148726 0.0574158132 -0.0297116861 0.0778810233 -0.0194681361 0.0770577788 -0.0518254042 0.0651042163 0.0935854018 0.0027071014 -0.0603047758 -0.0128997192 0.0412195325 -0.0409562662 -0.0099442974 0.1017114818 -0.0755319968 -0.0413862392 0.0085961437 -0.0000733137 0.0725872964 0.0430782922 0.0987147391 -0.1209306791 -0.0815732032 -0.0279153138 0.0062838793 0.0243357271 0.0207937285 0.0461327732 0.0712613910 0.0082384720 0.0059105083 -0.0294727311 -0.0985293388 -0.0044689924 0.0845805109 -0.0267007053 0.0823894143 -0.0454508066 -0.0062821284 0.0831237137 -0.0553054363 0.0635346398 -0.0996837020 -0.0215177238 -0.0044939755 0.0105145052 -0.0043377876 -0.0354519561 -0.0581173152 -0.0394141302 0.0441232026 0.0160761699 -0.0779174566 -0.0381403714 -0.0377960391 -0.1005252972 -0.0385035723 -0.0939741805 0.0502597690 0.0763400346 -0.0717364475 -0.0466921777 0.0806780756 -0.0223556235 0.0512995869 0.0319776684 0.0038294569 0.0100566670 -0.0685010031 0.0554347187 0.0518085361 0.0480748117 -0.0580854900 -0.0378744751 -0.0649308413 0.0607086569 -0.0923861265 -0.0571897477 -0.0902775601 0.0010137856 0.0405442156 0.0971206278 -0.0199256316 0.0435479172 0.0275752097 -0.0079125175 0.0413930565 0.0090255141 -0.0603409596 0.0280956179 0.0543673784 0.0800681710 -0.0983498096 0.0048491061 0.0595699847 0.0481409281 -0.0112323388 -0.0278877392 -0.0822875351 0.0265559256 -0.0815436095 -0.0001556352 -0.0188717917 -0.0865238458 -0.0123679861 -0.0952717885 -0.0009857205 -0.0330007970 -0.0925228447 -0.0359167233 0.0111757666 0.0821066946 -0.0133196190 0.0928505361 0.0907758623 0.0641337782 0.0964695364 -0.0898211598 0.0152744753 -0.0205522180 -0.0491553620 0.0549295656 0.0045755208 0.0012413263 -0.0448065996 -0.0676832795 -0.0736522079 0.0084619001 -0.0604406781 0.0727384388 -0.0778690577 0.0717483610 0.0935778618 -0.0317098051 0.0839592665 -0.0173149109 0.0393746644 -0.0335796401 -0.0686818063 -0.0045642108 -0.0315493047 -0.0973063111 -0.0624937452 -0.0067766607 -0.1075326726 0.0749090612 -0.0442252532 0.0007419782 0.0241688341 -0.0861513093 -0.0738277286 0.0360485464 0.0293825716 -0.0405369252 0.0563676357 -0.0792813748 0.0348850638 0.0421786755 -0.0804754198 0.0150183663 -0.0531930216 0.0628176033 -0.0767513961 -0.0505914763 0.0178094208 -0.0009025782 -0.0744795725 -0.0586767942 0.0111244470 0.0181097426 0.0665235519 -0.0491782390 -0.0994785130 0.0273385048 -0.0654653311 0.0510609895 0.0791679770 -0.0847072080 -0.0671989173 -0.0268886313 -0.0565976650 0.0123754069 0.0344764814 -0.0672019124 0.0493229181 0.0096307369 -0.0891262442 -0.0533911921 -0.0405982621 -0.1045416370 -0.0522174910 0.0720006973 0.0393286049 0.0440886170 0.0247873664 0.1009471118 0.0153296664 -0.0838242173 -0.0163355097 0.0748199224 0.0186911672 -0.0972929299 -0.0942942873 0.0092740282 0.0426325947 -0.0594720840 -0.0807319656 0.0134562552 -0.1122915968 -0.0559472553 0.0858328789 0.0124979150 0.0070040077 0.0047409637 0.0377867967 0.0752713829 -0.0848635733 -0.0288838819 0.0502465218 0.0218375102 -0.0893683359 -0.0122335181 0.0798623562 -0.0831924975 0.0616267174 0.0868469477 -0.0708861202 0.0990097821 -0.0467848666 -0.0933134779 0.0385201424 -0.0725168288 -0.0109774470 -0.0297954082 -0.0328033380 -0.0719843954 -0.0796838179 0.0389109105 -0.0171428025 -0.0407398678 0.0057580844 -0.0294793472 0.0827935487 0.0836754888 0.0836026669 0.1014178693 0.0123249264 -0.0125796869 -0.0689147413 -0.0658791363 -0.0671472102 -0.0494049266 -0.0548009127 -0.0893129930 0.0870076269 0.0888928324 -0.0841477811 -0.0999529734 0.0734682232 -0.0531003587 -0.0710415915 -0.0135508403 -0.0578055568 0.0324117988 -0.0480622053 -0.0875541791 -0.0474609733 0.0704963207 -0.0226670876 -0.0233829543 0.0044592097 -0.0508215278 0.0691646338 -0.0017469749 -0.0747129023 -0.0347682014 -0.0716056898 0.0188461244 -0.0510626473 0.0939944237 0.0412253886 -0.0685376525 -0.0922422484 -0.0300197974 0.0408826619 0.0384822339 -0.0159876421 0.0972646028 0.0523556620 0.0282168984 -0.0967113078 -0.0822386965 0.0029266104 0.0588026941 0.0306633413 0.0063270703 -0.0863214657 0.0020717243 -0.0540801622 -0.0478885062 -0.0274196137 0.0032718331 -0.0584213622 -0.0847650841 -0.0641370118 -0.1162554696 0.1016918123 -0.0527376682 0.0999400914 -0.0845885128 -0.0130604515 0.0611050278 -0.0153857023 -0.1046228185 0.0626421273 0.0567337796 -0.0815386027 -0.0559168719 -0.0243962035 0.0707909018 0.0802100897 -0.0861519352 0.0722577274 0.0834546387 0.0371185318 -0.1015683264 -0.0734707564 -0.0607507378 -0.0637236312 -0.0471955910 0.0994652808 0.0853649378 -0.0678096116 -0.0589266494 -0.0105797686 0.0156500116 -0.0969837978 0.0304816216 -0.0842252597 -0.1020684317 -0.0067129731 -0.0994660854 0.0673572943 -0.0892708227 0.0852334946 -0.0284498353 -0.0244684070 0.0765426531 -0.0783836767 -0.1158475727 -0.0369058885 -0.0065654218 -0.0167619232 -0.0787480548 0.1222831160 -0.1043270007 0.0702274516 -0.0925002024 -0.0088307858 0.0263150092 -0.0136899399 -0.0760652795 0.0449938402 -0.1099927500 -0.1035009176 0.0898818374 0.1011810750 0.0212579146 0.0429263003 0.0089005837 0.0642004907 0.0921941698 0.0306605250 0.0793385804 -0.0408008732 0.0652324781 0.0126145147 -0.0886113867 0.0691407993 0.0027576026 -0.0671244860 0.0460056029 0.0328623652 0.1175920665 -0.0026567562 0.0589089207 -0.0620347895 -0.1136325821 -0.0530284345 0.0644422024 0.1212129593 0.0806454793 -0.0656937063 0.1046774387 -0.0696715415 -0.0224385485 0.0665827841 -0.0306312852 0.0741108283 -0.1110733375 0.0779877901 -0.1100211665 -0.0848534033 0.0357980020 0.0875900909 0.0680650175 0.0828656778 -0.0377297997 0.0699282587 -0.0833976865 0.0010124875 -0.1087152585 -0.1062345132 0.0379808359 -0.0962935761 0.0087489113 0.0005644477 -0.0655027777 0.0916459784 0.0518788733 0.0619916730 -0.0434611328 0.0354738832 -0.1217972487 0.0754387081 -0.0628021806 -0.0679022744 0.0594607517 -0.0589115806 -0.0723363459 -0.0714398474 0.0378555954 0.0047429050 -0.0667903945 0.0576032549 0.0642597824 -0.0888967067 -0.0264980365 -0.0756770000 0.0834577084 0.0249663536 0.0179699082 -0.0973610580 0.0361838639 -0.0493056960 -0.0888558552 0.0051611811 0.0053953957 -0.0102157695 -0.0241060574 0.0523055792 0.0082752649 0.0625153780 -0.1180697531 0.0079180701 0.1274983436 -0.0431142971 0.1128640547 0.0783668235 0.0707959682 0.0405500270 -0.0449648611 -0.0132072829 0.0321090184 0.0124131339 0.0122120203 -0.0454450399 -0.0557826683 0.0708061904 -0.0035936933 -0.0292253550 -0.0958662406 -0.0875431597 0.0553779937 -0.0799474269 -0.0769320056 -0.0175555665 0.0369886644 -0.0532180630 0.0465745479 0.1238245964 0.0588207245 -0.0321696587 -0.0542052090 0.1143563092 -0.0810883567 0.0692333505 -0.0523998626 -0.0419254899 -0.0091638686 -0.0667483881 -0.0514743365 0.0553821400 -0.0808579028 -0.0634634271 -0.1008605883 0.0887835249 -0.0831057802 -0.0976349413 0.0535063632 0.0078723207 0.0487768017 -0.0249410514 0.0732357204 -0.0987251103 -0.0251222346 0.0120303417 -0.1084701195 0.0185290296 0.0129928030 -0.0680730045 0.0687610283 0.0715282112 0.0038807776 0.0573631972 -0.0714108199 -0.0243462548 -0.0325011611 -0.0294359978 -0.0220528506 0.0694534108 0.0291366391 -0.0163000971 -0.0578831546 0.0636700764 -0.0679889247 -0.0535081998 0.0239161681 -0.1163005382 0.0042611402 0.0099006891 0.0446282178 0.0678279847 -0.0167702995 0.0861431733 -0.0227848180 0.0747370273 -0.0097283199 0.0364559665 0.0741764233 0.0544854924 0.0003069422 -0.0509262457 -0.0556910969 0.0332179479 0.0030310526 0.0828840658 -0.1158529371 -0.0227246080 -0.0977706462 0.0543007739 -0.0283072852 -0.0136463828 0.0472873524 -0.0693653971 0.0723390505 -0.0676993802 0.0051187426 0.0344542190 0.0031898320 -0.0607347563 -0.1109278575 0.0829936415 0.0918444097 -0.0987772271 0.1249543056 -0.1091438085 -0.0002148884 0.0374280438 0.0079640616 -0.0982280821 -0.1139778718 -0.0963108614 -0.0959383622 0.0113644972 0.0548894033 0.0561910644 -0.0075861290 0.0657841414 -0.0223625433 0.0687582418 0.0217583552 0.0450356305 0.0475056134 0.0971461460 -0.0651663095 -0.0231962465 -0.0270920619 0.0600479990 -0.1186525375 0.0799695626 -0.0396895222 -0.0277721100 -0.0516902730 -0.0288314447 -0.0722159669 0.0441824943 -0.1148897707 0.0708516166 -0.0036836483 0.0414686054 -0.0804850236 0.0702684894 0.0507395603 0.0019760320 0.0285647754 -0.0198369082 -0.0824161842 0.0182724968 -0.0086075813 -0.0743700862 0.0582310259 0.0423431657 0.0947340876 0.0159676000 0.1225514784 0.1104645133 0.0775978342 0.0039084349 0.0191904102 0.0768306479 0.1007190198 -0.0449898168 -0.0080875531 -0.0675245374 -0.1108753085 -0.1004912555 0.0547763444 0.0293603539 0.0380250812 -0.0867053121 0.0822713748 -0.0085338699 -0.0175188314 0.0454010777 0.0222209077 -0.0122661171 0.0787250623 0.0282636881 0.0063670105 -0.1216769814 -0.0258643851 -0.0302858353 -0.0392827801 -0.0892493427 -0.0540923402 0.0959276482 0.1164362356 0.0683724582 -0.0206112135 -0.0447740108 -0.0326156691 -0.0596509762 -0.0607723333 -0.0067769815 -0.0270486120 -0.0024812745 0.0421376526 0.0358764976 -0.0667953044 0.0707937032 0.0214326363 -0.0334631428 0.0306461602 0.0161620155 0.0769750178 -0.0670515746 -0.0426249057 0.0786736384 0.0870940685 0.0896871537 0.0120961592 -0.0709558427 -0.0772918463 0.0835093185 -0.0396436490 0.1046039239 0.0475627631 0.1268690974 0.0974804834 -0.0639696792 0.0785640776 -0.0241647959 -0.1282434016 -0.1035966501 0.0174115673 -0.0150476564 0.0680154562 -0.0727506280 0.0344555676 0.0049053878 0.0950109959 0.1008484960 -0.0317819230 -0.0737348795 0.1248568296 -0.0363200121 -0.0252462085 0.0624346472 -0.0639897734 -0.0083871270 0.0127835758 -0.0467784442 -0.0739295557 -0.0741563141 -0.0066028135 0.0474754721 -0.1153729558 -0.0265962854 -0.0330217928 0.1118091419 0.0219721776 -0.0632714182 0.0288817026 0.0286662895 -0.0016561374 0.0488684289 0.0482708029 0.0539882444 -0.0862831548 -0.0084269103 0.0817539841 0.0004152283 0.0207127053 -0.0007704720 -0.0233871508 0.0924277157 0.0433983356 -0.0075891092 -0.0217500143 0.0349220745 -0.0684448406 -0.1089588478 -0.0589125305 0.0650954694 0.0924187601 -0.0273746699 0.0740652680 0.1093312502 0.0684261918 0.0849577188 -0.0823016763 0.0492960215 -0.0733544827 0.0426770784 0.0746420622 -0.0151799629 -0.0488457270 -0.1012457460 -0.0139611214 -0.0076103592 0.0522476882 -0.0988509730 -0.0488803573 0.0071768463 -0.0697882697 0.0297167748 -0.0455044508 0.0524519570 0.0014829624 0.0365775973 -0.1189759001 0.0328039750 -0.0224048626 -0.0680376887 -0.1164755449 0.0883121192 -0.0469377041 0.0574229732 0.1129808202 -0.0375680178 -0.0188801624 -0.0959547311 -0.1181359217 0.0977214053 -0.0474339724 -0.0377632864 0.1061304435 0.1230054274 0.0519443005 0.0517561063 -0.0375475809 -0.0715404153 0.0613693409 0.0537162423 -0.0121680479 0.0496834964 0.0737770721 -0.0129358666 -0.0283113997 -0.0109042041 -0.0126230409 -0.0412245169 -0.0490356423 -0.0832778886 0.0377965868 0.0586546846 0.1006425172 0.0747241601 0.0137468651 -0.1145225614 0.0505386442 0.1048063263 0.0783468336 -0.0130240722 -0.0757470056 0.1177196577 -0.0204473138 0.1164401546 0.0020980102 -0.0329088047 -0.0488113388 -0.0755466744 -0.1103559881 -0.0718326643 0.0351682156 -0.1209340915 -0.0379591584 -0.0580984838 0.1182375550 0.0556193963 0.0892809629 0.0274680816 -0.0427006781 0.0174152758 -0.0971876979 0.0056842407 -0.0570025072 -0.0630987361 -0.1010103673 0.0713077486 -0.0131618092 -0.0311809629 -0.0356654748 0.0961959958 -0.0189713351 -0.0316481702 0.0532881543 0.0200214460 -0.0637667775 -0.0043018907 0.0670041144 0.1231835708 -0.0923050418 -0.0460992754 0.0027297363 -0.0624448247 -0.0362616777 0.0721966103 -0.0593574010 -0.0180571172 -0.0625628978 0.0679423958 -0.0826678947 -0.0718630478 0.0595366694 -0.0919455215 0.0622086674 0.0339053087 -0.1238643155 0.0185409449 0.0325587727 -0.0242060106 0.0719722509 0.0097156549 -0.0407840572 -0.1052727178 -0.0289400443 -0.0538865142 0.0483133048 -0.0388624258 -0.0015802371 -0.0535927415 -0.0476146713 -0.0905909613 0.0302157719 -0.0212480184 -0.1002947018 0.0018436043 0.0070646703 0.0363469720 -0.0263147410 -0.0158685297 -0.1184450686 -0.0554234535 -0.0391060561 -0.0050688125 -0.0104691079 -0.0738920197 -0.0128790475 -0.0466067679 0.0644038320 -0.1247247308 -0.0298724305 -0.0306642950 -0.0396471955 -0.0065601827 -0.0333937295 -0.0411950164 -0.0563857295 0.0196728669 -0.0363753028 -0.0575810932 -0.1221378744 -0.0548487194 -0.0221913848 -0.0871845111 0.0647678822 -0.0621071830 -0.1179806963 -0.0838200226 -0.0491549224 -0.0188457388 0.0498004816 0.1020202935 -0.1291026771 -0.0997430682 0.0341383629 -0.0239827894 -0.0092387311 -0.0512501597 -0.0151562523 0.0191751570 -0.0266455784 -0.0358260721 -0.0747870281 0.0177531987 0.0407528579 0.0484320223 0.0540683419 -0.0782031119 0.0576862991 -0.1242214292 0.0821204334 -0.0530383661 -0.0968049690 0.0216961987 -0.0415700637 -0.0563047901 -0.0154870516 -0.0548870638 -0.1113644913 0.0171572119 -0.0648672357 0.0412940383 -0.0736345649 -0.0575232133 -0.0809036791 -0.0021328330 -0.0289682392 -0.0857411399 -0.1028024778 -0.0964426696 0.0254672859 0.0060039819 -0.0853032991 -0.0513929613 0.0320957080 0.0155438259 0.0182784479 -0.0533131994 0.0191178005 -0.0969317034 -0.0268281717 0.0406609327 -0.0979185104 0.0600371845 0.0681975558 0.0248040054 0.0513821244 -0.1293272674 -0.0460720658 0.0234622415 -0.0347683690 0.0528154299 -0.1080960780 -0.0235862080 -0.0728661045 -0.0947882608 -0.0773686245 0.0108766966 -0.0148648070 -0.0840329230 -0.0224261880 0.0413627774 0.0370977446 -0.0685510859 0.0704656169 -0.0704302788 0.0265784804 -0.0064346315 0.0070970803 -0.0071831462 -0.0166172683 -0.1231761649 0.0003770962 0.0337766409 -0.0909331739 0.0147266956 -0.0309960805 0.0607041121 -0.0653942302 0.0039544241 -0.0168353822 -0.0938110650 -0.0110430270 -0.0484514646 -0.0045065135 -0.0408660136 -0.0243493337 0.0815794319 0.0033574954 -0.1001444757 0.0486673377 -0.1209884137 0.0518570021 -0.0593402050 -0.0002955364 0.0792126805 -0.0256339405 -0.0657386333 -0.0892252102 -0.0086128414 -0.0769629702 -0.0319784842 -0.0665633157 0.0130990157 -0.0753640085 -0.0954251438 -0.0282876566 0.0307472125 -0.0352997929 -0.0035733448 0.0264457148 -0.1046755016 0.0117507875 -0.0265420657 -0.0554955974 0.0254435446 -0.0281953886 -0.0145499092 -0.0608045198 -0.0698702931 -0.1207789555 -0.0238808803 0.0676420480 -0.0456293970 -0.0727777258 0.0353038162 -0.1045866609 0.0146018313 -0.0411111899 -0.0050888704 0.0295525454 -0.0610004179 -0.0806768760 -0.0261246264 0.0324004143 0.0560248606 -0.0479495414 -0.1133230254 0.1012671441 0.0569778606 -0.1235173866 0.0463135503 -0.0021958232 -0.0129465470 0.0465411171 0.0436581969 0.0298753865 0.0523586310 -0.0897978768 0.0096073002 0.0706222430 -0.0418958068 0.0125356019 -0.0637084991 -0.0995450839 -0.0407801196 -0.0516723208 0.0190659203 -0.0862908214 -0.0348325334 -0.0025773202 -0.0299835652 -0.0343623906 -0.0754294544 0.0049315314 -0.0597332455 -0.0711158514 -0.0546616428 -0.0054786620 -0.1242217645 0.0019344591 0.0370633304 0.0171469282 -0.0182028040 0.0378877856 0.0073315753 0.0742049962 -0.0419565029 -0.0086508421 -0.1254402846 -0.1043088958 0.0088897170 -0.1265871525 -0.0789389759 0.0607925951 0.0289582554 0.0156052904 -0.0225753449 -0.0582343861 -0.0778500289 -0.0814767703 -0.1153816208 -0.0542223118 -0.0019537653 -0.0585328788 -0.0596987233 0.0714743882 0.0378197730 0.0820667744 -0.1217095330 -0.0733821839 -0.0720443279 -0.0882402882 0.0720459670 0.0551426113 -0.0218148306 0.0210083723 0.0389381759 -0.0388357490 -0.0667271614 -0.0042343652 -0.0643313527 0.0950498506 0.0038383901 -0.0283558685 0.0885706320 -0.0010964696 -0.0542586558 0.0094354153 0.0182642397 -0.0814583674 -0.0870927274 0.0693803206 -0.0373156816 -0.1090842038 0.0731111020 0.0341990255 -0.0669013411 0.0235962961 -0.1020028666 -0.1277298033 0.1008415520 -0.0635063872 -0.0197493434 0.0787016228 -0.0057562971 -0.0448244624 -0.0285582971 -0.1174919158 -0.0886461213 0.0125793442 0.0027982749 -0.0993033275 -0.0762096420 0.0474306755 0.0602902994 -0.0936290249 -0.0377039686 0.0084226634 0.0935073197 -0.0754165500 0.0410901085 0.0699440092 0.0909901708 -0.1274703443 -0.1145742610 -0.0093446756 -0.0957779735 0.0703689009 0.0204616077 -0.0532841980 -0.0814998597 -0.1010192633 -0.0653310120 0.0691096783 0.0128224753 0.0269302875 -0.0169333257 -0.0479005687 0.0069918670 0.0471096151 0.0032414906 0.0145888552 -0.0676249787 0.0838353336 0.0685575083 0.0212693959 -0.0159079283 -0.0499193892 -0.0630501509 0.0589355640 -0.0364026427 -0.0834357962 -0.0170923192 0.0654316545 0.0392110422 -0.1153629050 -0.0177411139 0.0020578143 -0.0764683709 -0.0815767273 -0.0535793863 -0.0359258689 -0.0389259011 -0.0441170149 -0.0300264880 0.0592947602 -0.0171180218 -0.0095219910 0.0455253087 -0.1105430499 -0.0267265905 -0.0564657077 -0.1179389805 0.0168790743 0.0478700511 0.0510126129 -0.0810837671 -0.0758625716 -0.0281791426 -0.0216480177 -0.0696465746 -0.0022849294 0.0308397859 0.0049226680 -0.0668474287 0.0773968697 -0.0840243399 -0.1001243144 0.0448976569 0.0378816202 -0.0271779224 0.0396705084 -0.1196774021 -0.0288727358 -0.0039801821 0.0606241226 -0.1060478464 0.0652368665 -0.0658936799 -0.0974452794 -0.0740681663 0.0178279001 -0.0510604754 -0.0765967295 -0.0942289978 -0.0818167329 -0.0738578141 0.0711764395 -0.1050273851 -0.0819953606 0.0630055070 -0.0206512399 -0.0433646739 -0.0950757861 0.0541428030 -0.1265512407 0.0524128117 0.0121684745 -0.1292638034 0.0226693824 0.0602764785 0.0238631293 -0.0508410186 -0.0335211307 -0.0628503039 0.0428284481 -0.0718344972 -0.0813951939 -0.0604517274 0.0153443562 -0.0726655349 -0.0893382356 -0.0203245487 -0.0411261916 -0.1104776487 -0.0932960808 0.0590325035 -0.0858156979 -0.0905418694 0.0442526974 0.0584372431 -0.0002506822 0.0142692979 -0.0925100818 0.0601814836 -0.0493884534 -0.0281900633 0.0819717646 -0.0867215097 0.0427886695 -0.0958663076 0.0605204441 -0.1251376718 0.0320914276 -0.0819909200 0.0339011811 -0.0314087868 0.0848921984 -0.0626888946 0.0083763897 -0.0512360223 -0.0429381020 -0.0794348046 0.0746177435 -0.0619961917 -0.0609092675 -0.0035145632 -0.0292777885 0.0163144916 0.0113459928 -0.0944729745 -0.0754526705 -0.1256009638 0.0319388956 -0.0288058966 -0.0059189312 0.0803069770 -0.1063180193 -0.0263274871 -0.0160891861 -0.0475284271 0.0150907077 -0.0654871166 -0.0395083800 -0.0978794321 -0.0578974672 -0.0149928555 0.0424892455 0.0171428993 -0.1276005358 -0.0204095244 0.0205953438 -0.0411346778 -0.0841395333 -0.0783929601 -0.0385172442 0.0712180361 0.0580223203 -0.0800093114 0.0576811321 -0.1007480100 0.0324774534 -0.0096748918 0.0714692697 -0.0160569232 -0.0635125265 -0.0335458219 0.0640748590 -0.0311745405 -0.0759632885 0.0250268038 0.1307074875 -0.0149788652 -0.0562008396 -0.0301899482 0.1029875949 0.0940621942 -0.0991448835 0.0764264390 -0.0134964222 -0.0605204590 -0.0045198975 0.1060766429 -0.1008510962 0.0487197638 -0.0901484489 0.0157282986 0.0285613388 0.1158627868 0.0522190370 0.1050033122 -0.1748922616 -0.0378852338 0.0391647257 -0.0477318689 -0.0422083177 -0.0012235745 0.0799445361 0.0582449213 0.0889349878 -0.0724164546 0.0739335194 -0.0569388233 -0.0512466915 0.0999437943 -0.0214956068 0.0220537968 0.0519599766 -0.1026899144 -0.1307276338 0.0317948684 -0.0774553344 0.0138256326 0.1017733887 0.1113603115 0.0958033279 0.1121474430 -0.0367271565 -0.0430096500 -0.0684070364 0.1299107820 0.0597660653 -0.0287038852 -0.0031038634 0.1791581511 0.0004685894 0.0301234815 0.0157576781 0.0182760842 0.0687396526 -0.0983571187 0.0036023117 0.0695214272 -0.0098820878 -0.0460133478 -0.0430765934 -0.0417640619 0.0869653150 0.0254187807 0.0785040110 -0.0669336990 -0.0584828407 0.0746337250 -0.0667793229 0.0855182111 0.0591665991 0.0058724135 0.0110982358 -0.0027680341 -0.1033962592 0.1228245050 -0.0649562925 -0.0111453412 -0.0006968415 0.0376192555 0.0001781554 -0.0544676222 0.0146147516 -0.1625407636 0.0409434512 -0.0013521957 -0.1323041022 0.1021072716 -0.1118522659 -0.0937847197 0.0792192072 -0.0119049400 0.0133564901 -0.0142711792 -0.0100222845 0.0266673081 -0.1425296664 0.0226765797 0.0154934246 -0.0226323660 0.1990773827 0.0724562407 -0.0388131998 -0.0367276892 -0.0420585051 0.0872033313 0.0352446958 0.0827705041 -0.0467986129 0.0880769789 0.1138947383 0.0833601207 -0.0718909428 -0.1695824414 0.0814241767 0.0185529385 0.0348262712 0.0215235837 -0.0722683668 0.0945565924 -0.1450206786 0.0034721941 0.0644221604 0.0179583803 0.0528719127 0.0026986727 -0.0657234564 -0.1178037748 0.0563119091 -0.0353393294 0.0516438559 -0.0695400685 0.0862664506 0.0629211664 -0.0184762813 0.0808200985 -0.0999800563 -0.0328579023 -0.0739959031 0.0631226525 -0.0778048933 0.0640889555 0.0721362606 0.0483782366 0.0358472243 -0.0322141834 0.0097007267 -0.0272007156 0.0465023927 0.1187039465 -0.1760010570 -0.0294599719 0.1169259995 0.0149883404 -0.0702465847 0.0064998642 -0.0036075562 -0.0484274663 0.0472136587 0.1240724921 -0.0513665229 -0.0795335621 0.0471368767 0.1158353016 0.0225567799 -0.0719401762 0.0998018235 0.0127301021 0.0174953192 0.0003622284 0.1161971688 0.0216432847 -0.0919215903 -0.0713299215 0.0231456440 0.0695219561 -0.0158937909 0.0368280187 0.0574163198 -0.0350396484 -0.0108826356 -0.0444769412 0.0137827639 0.1256439686 0.0214173719 0.0531915128 0.1575468779 0.1287196577 -0.1122219563 0.0025458969 0.0191066191 0.0306420475 -0.0687820986 -0.0586338416 -0.0578498319 0.0722869337 -0.0292391051 0.1064732894 -0.0191657953 0.0889833122 0.0165570676 -0.0463136137 -0.0369335264 0.1279336959 -0.0179833323 0.0938104913 0.1049073264 -0.0534012243 0.0609733760 0.0651315525 0.0267304070 0.1708272696 0.0787307024 0.0396773554 -0.1066406891 -0.0054641985 -0.0482856221 0.0683010519 -0.0396725647 -0.0864343047 -0.0421621911 -0.1949419975 0.1125763059 -0.0015210797 0.0940005258 -0.1226356998 0.1133749112 0.1450591683 -0.0549142994 0.0370974839 0.0365008824 -0.0796348229 0.1064488739 -0.0682271272 -0.0459649265 0.0864853188 -0.0317428820 -0.0713580400 -0.0188250802 0.0669086128 -0.0034282329 0.0224080440 0.0634837598 -0.0271201059 0.1114951894 -0.0841566026 -0.0185736381 0.1090774387 -0.0267759934 0.0271132290 0.1578982621 0.1117680147 0.0448797420 -0.0201742779 0.0770679712 0.0946351737 0.0924854130 0.0470788814 0.0778063685 0.0518347509 0.1190099269 0.0676323548 -0.0017370250 0.0854810923 0.0261520892 0.0208237041 0.0659962893 0.0021851624 -0.0195347816 -0.0116602303 -0.0562710352 0.0426481776 0.0316207744 0.0511184707 -0.2295919359 -0.0851378813 0.0060203969 0.0056258193 -0.1697991639 0.0453648455 0.1116842031 -0.0699893311 0.0390934125 -0.0564489141 -0.0028161155 0.1326853335 0.0787062496 0.1044512540 0.0129154539 0.0052700476 0.0116932876 -0.0830257013 0.1020471752 -0.0084491521 0.0285264459 -0.0749906376 0.0213652160 -0.0241368562 0.0985965282 -0.0158163533 0.0849222615 0.0127184913 0.0772894174 0.0137723116 0.0098922960 -0.1072605029 0.0973517746 0.1156042516 -0.0652218908 -0.2094927132 -0.0071738502 -0.0688411221 -0.0474258959 0.0570896715 -0.1418241709 0.0310400724 -0.0542160533 0.0520682633 -0.0597310737 -0.0121747032 -0.0499778949 -0.0645461604 -0.0670315102 -0.0158607736 -0.0180411451 -0.0523112640 0.0647771731 0.0776023865 -0.1020145044 0.1192522869 -0.0769986436 0.0967181399 -0.0600262061 -0.0030228025 -0.0269229170 -0.0788120925 -0.0243515372 -0.0018913156 -0.0275127180 -0.0104483385 -0.0993220285 0.0423189364 -0.0094021065 0.0656860843 0.0900134891 -0.0058234707 -0.0342152044 -0.0396471731 0.0259254966 0.0866815448 0.1122415662 -0.0329229236 -0.0642268583 -0.0941369757 0.0624379888 -0.0181184225 -0.1198963150 -0.0752203837 0.0407941155 -0.0569006950 -0.0424407199 -0.0237464756 -0.0647471845 0.0116943857 -0.0134426970 -0.0109939016 0.0612391569 -0.0075375824 0.0651459694 0.1013939008 -0.0337818488 -0.0470637418 0.0268151779 0.1387320161 -0.0763518140 -0.0474152789 -0.0461282246 0.0628212541 0.0304456428 -0.0627347678 0.0877058506 -0.0137181850 0.0120142838 0.0753455460 0.0666287467 0.1297999322 -0.0179595575 -0.0203832556 0.0765022114 -0.0430629551 0.1245104596 0.0150797367 0.0302088410 0.0702754632 -0.0135279289 -0.0053044981 0.0599425286 -0.0506145991 0.1023325920 -0.0260532033 0.0408470556 0.0285306703 -0.0507117994 0.0520401187 -0.0676271245 -0.0059289201 0.0471539795 0.0761983544 -0.0242992677 0.0644772649 0.0397884734 -0.0500400066 -0.0512508526 0.0806996226 0.0401999243 0.1243384778 -0.0025204865 0.0383454487 -0.0379064456 0.0221846383 0.0336764827 -0.0898009166 0.0236877259 -0.0397870764 0.0378087349 0.0215740278 -0.0505946316 0.0594456084 -0.1204179972 0.1022921801 0.0542778373 -0.0351207629 0.0954346582 0.0056469645 0.1001804471 -0.0235086568 0.0456574447 0.0322080366 -0.0703243837 -0.1156493425 0.1099032909 -0.0720905811 -0.0701794177 0.0743600428 0.0072838035 -0.0157798752 -0.0141804116 -0.0331262797 0.1279783547 0.0295490324 0.0677648857 0.1180695817 0.0228126887 0.0705930814 0.0754439980 0.0982662961 -0.0389467888 0.0468664728 -0.0405401997 0.0828543082 0.0290689915 -0.0381281413 0.0056376010 0.0095427614 0.0109093497 0.0563883074 -0.0132730044 0.0584046580 0.0662083998 -0.0208756868 0.1193185225 -0.1183559224 0.0535769798 0.0829292387 -0.0244432390 0.1314287037 -0.0094883144 0.0195961818 0.0926082507 0.1059321985 0.0588375218 0.0919399336 -0.0383521169 -0.1088600233 -0.0725456700 -0.0980831087 -0.0564097054 -0.0960615352 -0.0343589857 0.0021903813 0.0676059425 0.0639824569 -0.0542810783 -0.0128822904 0.0066233575 0.0772164613 -0.0325146094 0.0508829877 0.0727979690 0.0034543059 0.0771649107 0.0163127445 -0.0205775518 0.0186876450 0.0605387501 0.1206420660 -0.1465515792 -0.0259033162 0.0142985480 0.1254561245 0.0286107697 0.1248462647 -0.0490242764 0.0720172748 -0.0709531307 0.0388599075 -0.0386253782 0.0923686028 -0.0027750123 0.1304180920 0.0327293277 0.0283842236 -0.1329106838 0.0384913869 -0.0989149287 0.0928361490 0.0027168086 -0.0758602619 -0.2119619995 0.0544882119 -0.1988929361 -0.1195389926 -0.1174440309 -0.0607902594 0.0964247361 -0.0072290273 -0.1649243087 0.0872345567 -0.0403974093 -0.0386627093 0.0239717886 0.1217847392 0.0965335444 -0.0611007474 -0.1409414858 0.0348573029 -0.2080809921 0.0522874892 -0.1418272257 0.0025871620 -0.0658621341 0.0444262438 -0.0215717796 -0.0473984107 -0.0470356829 0.0180526562 -0.0604626760 0.0676013082 0.0947044492 0.0416360945 0.0531676225 0.2859373093 -0.0633620620 0.1169845238 0.0626673922 -0.0121708307 -0.0858610198 -0.0717988536 0.1065810248 0.1003724337 -0.0855704546 -0.0661514103 0.1673281640 -0.0211451482 -0.0681342483 -0.0416825712 0.0195615143 -0.0235552322 0.0720620602 -0.0198844746 0.1116800830 0.1148330718 0.1196984574 0.0774685293 -0.0721296668 0.0574718118 0.0180650596 0.0578260124 -0.0652258843 0.0426099561 0.0047484403 -0.0157218948 -0.0077835862 0.0573309362 0.0592420846 -0.0830277279 0.0708118156 -0.0155625343 0.0710034892 0.0790853649 -0.1421979070 -0.0866492912 -0.0119080329 0.0746260881 -0.0606398769 -0.1080203131 0.1010646075 0.0525263846 -0.0339989550 -0.0801959410 -0.0012849568 -0.1681742370 0.1813228577 -0.0790017545 -0.0157508291 -0.0500623249 0.1174682975 -0.0740502104 0.0797930807 -0.0203872342 -0.0440306701 -0.0407941788 -0.0428895988 0.0119579257 0.0671401918 -0.0852082968 -0.0204691887 0.0491567552 0.1162541062 0.2048883438 -0.0438568220 -0.0236926209 -0.1746948212 -0.0153469890 0.2597761452 -0.0492274202 -0.0840337574 -0.0525823869 -0.0959363654 -0.0839941725 0.0888592154 0.1150411591 -0.0987116247 -0.0034218431 0.0662128553 -0.0192158800 0.1165757999 0.1080103368 0.0842645764 -0.0133561930 0.0549834818 -0.0246104635 -0.0688884184 0.1111304238 -0.0355647951 -0.0781738907 0.1076022238 -0.0471870378 -0.0753821656 0.0916884243 -0.0312116165 -0.0790590420 0.0099875582 0.0614366233 -0.0175479129 -0.0992133766 -0.0499474406 -0.0551548116 0.0137619283 -0.1075453982 -0.0257907566 -0.0237504747 0.1553963423 -0.0127133606 0.1738129258 0.1993551254 0.0745861083 0.1002877057 -0.0714366958 -0.0948797837 0.0225235820 -0.0809537694 -0.0618471503 0.0366096273 -0.0911918730 -0.0587013811 0.1211404502 0.0336742550 -0.0156160882 -0.1890072674 -0.0956622958 0.0011435229 -0.0466827340 -0.0720993057 -0.0607896447 0.0976408869 0.0288790278 -0.0097074360 0.2452886254 -0.0044579855 -0.0739035532 -0.0683765933 0.0006516704 -0.0937161967 0.1117017642 0.0783945024 0.0273580849 -0.0827049091 0.0246017240 -0.0519808419 0.0801712275 0.0409974232 -0.0040410608 0.0175694115 0.0548920296 0.0939906016 -0.0103652179 0.0487580895 -0.0022814861 -0.1100120917 0.1213851869 0.0747877732 -0.0835900456 0.2107148767 -0.0359258205 0.0565639809 -0.0231278948 -0.0718079507 -0.1365749240 -0.0389963016 -0.0701193362 -0.0989773422 0.0472464412 -0.3728364706 0.0830769688 0.0481483564 0.1070219055 -0.1091051698 -0.0038006119 0.1218725741 -0.2365123779 0.0331601799 -0.0619506054 -0.0538325086 0.1148197055 0.0505480468 0.0336419977 0.0319738500 -0.0986882001 0.0764254034 0.0989691913 0.0733331293 0.0832584202 0.1763782054 0.0981544554 -0.0079121049 -0.1657458842 -0.1337163746 0.0864614695 0.1437892020 -0.0336015411 -0.0448613279 0.1631023288 -0.0212469343 0.0300404374 0.0673779994 0.0321235470 -0.0551426187 0.1027467400 0.1054439545 0.0528599322 -0.0862865448 0.0145964250 0.1229960397 -0.0657787621 -0.0258653816 -0.0514540263 0.0665445551 -0.1299212724 -0.0552463606 -0.0749962181 0.0585754290 -0.0217595305 -0.0762920380 -0.0425644964 -0.0174315553 -0.2752231359 -0.1055176705 0.0053330455 0.0315017812 -0.1587807685 0.0956723019 0.0728473365 -0.0427044332 0.1304163486 0.0139772296 -0.0481081009 -0.0636926517 -0.0241308026 -0.0091285156 -0.0302801300 -0.1002745777 -0.0353524648 0.0571185313 0.0585341640 0.0591749698 -0.0681088939 -0.0339915417 -0.0376519412 -0.0772960037 -0.1125181392 0.0680465698 -0.0056927013 0.1316325516 -0.0411284678 -0.0496582240 0.1175889075 0.0833178312 -0.0954238027 -0.0265519228 0.0380495228 -0.3347404599 0.0562849417 0.0357468948 -0.1140518785 0.0142691135 -0.1522367746 -0.0850033239 -0.0801738501 -0.0690486804 -0.0398038328 0.0977539569 0.0094022993 0.0860524699 0.0317734852 -0.0023964797 -0.0875632986 0.0500767902 0.1169319898 0.0536594987 0.0171902031 -0.0445538796 -0.1163967252 0.1030897126 -0.0476669557 0.0670650899 -0.0104921935 0.0205077846 -0.0847163498 0.0387998037 -0.0503039360 -0.0652686507 0.0626907498 0.0686289743 0.0077147274 0.0242201295 -0.0054715085 -0.0274245068 0.0342301019 -0.0946333781 0.0117371697 0.0557206534 0.0111962426 -0.0155767296 0.0483296774 -0.0241356753 0.0235751625 -0.0464724526 0.0333600268 -0.0663701668 -0.0096805263 -0.1015005857 0.0389337726 0.0076149032 0.0475990288 -0.0377175212 -0.1100053489 0.0448347218 -0.0721571669 -0.0402882174 0.0269463491 -0.0465171970 0.0624882728 -0.0324499495 0.0030979740 0.0090596005 0.0628859550 -0.1399819702 -0.0502967089 -0.0008872747 -0.0027939840 0.0869596601 -0.0528225563 0.0161304884 0.0517374203 -0.0913773328 0.0612143241 0.0182616021 -0.0260487162 -0.0370972529 -0.0700677782 -0.0473445244 0.0235858820 -0.0697711855 -0.0165478960 0.0186909102 -0.0155709516 0.0611064583 0.0909803361 -0.0065139723 0.0776449442 -0.0537931360 0.0386939570 0.0499160178 -0.0618798696 -0.0807344839 0.0140567077 0.0222162642 0.0416738279 -0.0300480202 0.0647624433 0.0539346635 0.0551416613 0.0879003406 -0.0367876068 0.0539828427 0.0664682612 -0.0941151306 0.0436397940 0.0525352992 -0.1088862643 -0.0555517860 -0.0687429681 -0.0846778154 0.1308387965 0.0775015354 0.1064335406 0.0682043582 0.0616165064 -0.0872973725 -0.0202729702 -0.0318497345 0.0518677682 0.0230221748 0.0061531486 -0.0496661440 -0.0867922232 0.1050940603 0.0279426724 0.1348061413 0.0191970337 -0.0198906772 -0.0206089132 -0.0744194239 -0.1669798791 0.0153806489 -0.0782088935 0.0816100240 -0.0405444726 0.0520488173 -0.0256376471 -0.0560570247 0.0553479306 -0.0686665028 -0.0463784523 -0.0937214196 0.0756480619 -0.0000828465 0.0444183759 -0.0036048377 0.0714344755 0.0992711559 0.1015462354 -0.0237149633 -0.0384518467 0.1210656613 -0.0396203659 -0.0859025046 0.0651881471 0.0332677849 -0.0787733197 -0.0014769589 0.1239048243 -0.1083946005 -0.0124543598 -0.1013803259 -0.0309321005 0.1123676449 0.0268067271 0.0705746785 0.0487227254 0.0469092727 0.0546707846 -0.0129513387 0.0296270158 0.0015495261 -0.1082390621 -0.0982384831 0.0718745813 0.0629970580 0.1128966361 0.0163356587 -0.0090211518 0.0105362926 0.0257985219 0.0025351653 -0.0401349366 -0.0140058994 -0.0267821066 0.1048776880 0.0108202277 0.0657037869 -0.1271480918 -0.0626778305 -0.0340288989 -0.1290211976 0.1598030180 -0.0182559658 -0.0989785045 -0.0215349942 0.0083398717 -0.0672626719 0.0202412009 0.0575049371 0.0857895911 -0.0596806854 0.0387024991 -0.0752274990 0.1102451161 -0.0422726832 -0.0739051253 0.0659395158 -0.0437198430 -0.0382874385 0.0367145315 0.0392618030 -0.0824977979 0.0295567811 -0.1212170199 -0.0162454545 -0.0980788618 0.0783341751 0.0179613512 0.0741436332 0.1086099893 0.0683267266 -0.0607078485 -0.0912947133 0.0587580390 -0.0295386016 0.0292341858 -0.0529767461 -0.0575667098 -0.1168982461 0.0366660953 -0.0398358852 0.0274052043 -0.0100774942 -0.0770376474 -0.0863496512 -0.0118210390 0.0450678915 0.0013363212 0.0265181866 -0.0550274998 -0.0413418524 -0.0531361029 0.0486628525 0.0758911669 -0.0747569948 -0.0858872607 -0.0167528540 0.0218351781 -0.0205615833 0.0275881290 -0.0526592657 -0.0553490706 -0.0139600998 0.0851748809 0.0283417255 -0.0754988268 -0.0424202420 0.0216118172 0.0960451066 0.0488941409 0.0803777874 -0.0946153477 0.0497242808 -0.0338643640 0.0378696695 0.0650915429 -0.0680191442 -0.0740619302 -0.0621098094 -0.0314087905 0.0940839946 0.0437413603 0.0075783730 0.0763165578 -0.1012726724 0.0219122916 0.0122837648 -0.0660174489 -0.0810004920 -0.0876142830 -0.1061323434 -0.0208096150 0.0551539883 0.0679162443 -0.0326483697 -0.0375080034 -0.0543167442 -0.0735554993 -0.0769194961 0.0833597481 0.0717784017 0.0009157121 -0.0528115295 -0.0492714345 -0.0449168868 -0.1183061078 0.1051487178 -0.1152705923 0.0284514949 -0.0540515035 0.0975429118 -0.0912773982 -0.0395722054 -0.0775388777 0.0529194325 0.0828484371 0.0601246655 0.0554122515 0.0100230873 -0.0232085064 0.0143500939 0.0238318294 -0.0455522798 -0.0710085481 -0.0567699708 -0.1056655496 0.0852149948 0.0354813263 0.0249745753 0.0422551110 0.0587863922 0.0777624696 0.0767310113 0.0296359994 0.0635876060 0.0536383204 0.0478395820 0.0776397884 0.0820144117 0.0196019709 0.0862670392 0.0855286345 0.0580672920 -0.0664928630 0.0810425282 0.0644765645 0.0788005739 0.0865473300 0.0014695227 -0.0110716894 0.0654337406 -0.0782746151 0.0106067499 -0.0856659636 -0.0472242646 0.0162977949 -0.0454145260 -0.0356907472 -0.0486534350 0.0113027673 0.0028531202 0.0062935441 -0.0465374924 -0.0205962136 0.0689151287 -0.0194678567 -0.0680721179 -0.0424470566 0.0116244256 -0.0747930780 0.1138184071 0.0472790524 0.0144580742 -0.0648447797 -0.0616825372 -0.0002164245 0.1013017818 -0.0800186768 0.0955450237 0.0220094416 0.0232221894 0.0294976532 0.0716433823 -0.0296753570 -0.0278456733 -0.0572517253 -0.0620682724 -0.0603787489 -0.0748665035 -0.0320603661 -0.0793785155 0.0437556431 -0.0974977762 0.0833335146 0.0465146005 0.0294979904 0.0710713714 0.0159337278 -0.0767843425 0.0609262809 -0.0507425144 -0.0003997982 0.0590507276 -0.0840379819 -0.0208081808 -0.0204134937 -0.0343491584 -0.0437973328 -0.0110385492 0.0867628008 0.0527136028 0.0706856027 0.0024443939 0.0771683455 -0.0043871105 -0.1291422248 -0.0493998900 0.0094509153 -0.1038613245 0.0014400835 0.0196042396 -0.0107181408 0.0065681362 -0.0835692659 -0.0225940514 0.0965063870 -0.0891385823 -0.0708104968 0.0099234879 0.0608062185 -0.0342211314 0.0540230423 0.0102225058 0.0244649481 0.1133576706 -0.0377662592 -0.0044472488 0.0084690051 0.0279921293 -0.0377775058 -0.0527188964 -0.0224977508 0.0536175221 -0.0161172021 -0.0747800693 0.0488690697 -0.0682747066 0.0544897318 -0.0046600327 0.0320374519 -0.0940747261 -0.0120333731 0.0312748402 0.0253532548 -0.0026123449 0.0354384929 0.0473763421 0.1052055210 -0.0190721303 -0.0722115114 0.0284516215 0.0299457740 0.0110194460 -0.0085346075 0.0634238720 -0.0945291817 0.0556950644 -0.0003020840 0.0955417752 -0.0127817756 -0.0540183894 0.0368750952 -0.0814923868 0.1014809012 0.0424019247 -0.1032187045 0.0563112795 -0.0164253041 -0.0173841864 0.0525163300 -0.0751496404 0.0481306240 -0.1132776365 0.0036036829 -0.0534261242 0.0161753017 0.0991530567 -0.0670602769 0.0860583559 -0.0289339237 -0.0217900872 -0.0420170128 0.0028831065 -0.0036671772 -0.0746191740 0.0683984905 -0.0991656408 -0.0850204006 -0.0512026846 0.0694497824 -0.0447631963 -0.0747692361 -0.0712873787 -0.0781710148 -0.0876838341 -0.0117283314 0.0567599982 -0.0783511251 0.0327780433 -0.0842979476 0.0808589607 0.0500475317 -0.0348491445 0.0070674196 -0.0051991940 -0.0446814559 -0.0874989182 -0.0433287993 -0.0372403227 0.0216581859 -0.0737157837 0.0066667940 -0.0527377427 -0.0754130259 -0.0369554237 -0.0503502674 -0.0131429136 0.0351103470 0.0648432970 -0.0219439194 0.0386914313 0.0361546911 0.0419786796 -0.0035943750 0.0673189312 -0.0068233628 -0.0641371310 -0.0810281336 0.0883806199 0.0755597875 0.0657480508 -0.0997917876 0.0563974679 -0.0919944495 0.0817074329 -0.0621231981 0.0363999829 0.0326482616 0.0660950392 0.0490679927 0.0735201538 0.0497773625 -0.0980741903 0.0392306447 -0.0923745185 -0.0281527564 0.0242110044 0.0737280175 -0.0364673585 0.0480789542 0.0202445425 -0.1099603474 0.0150379799 -0.0407328494 0.0698839203 -0.0437745526 0.0656790286 -0.0929002240 0.0848800391 0.0696907938 -0.0169270113 -0.0629190952 0.0485694148 0.0455953516 0.0250294805 -0.0762739033 -0.0736285597 -0.0590572208 0.0761283934 -0.0785156488 0.0876048207 0.0151385162 0.0285515990 0.0958964825 0.0656468868 0.0084163705 -0.0887037665 -0.1020373553 0.0850427151 0.0714335814 0.0522791296 -0.0640332177 0.0493319780 -0.0883108079 0.0847846493 -0.0986779183 -0.0831351504 -0.0595839210 -0.0786235407 0.0207103007 0.0152414069 0.0182119682 0.0127441362 0.0465015620 -0.0396941826 -0.0806278214 0.0892156214 0.0282392316 0.0287036076 0.0594266318 0.0621791594 -0.0312658250 -0.0312035494 0.0430482998 0.0297214389 -0.1227202639 -0.0065052579 -0.0727725923 -0.0077299476 0.0229546130 0.0846922994 -0.0009520165 0.0828416422 0.0658632517 0.0065910327 0.0736527815 -0.0216023177 0.0012262624 -0.0645172819 -0.0157782733 0.0822969824 0.0307619870 0.0584738441 -0.0051481426 0.0890532881 0.0949368849 0.0725073367 0.0236240719 -0.0637554824 0.0185630992 0.0312029123 0.0233712047 0.0713122040 0.0979699343 0.0813011974 0.1194324121 0.0396397673 -0.1026748344 -0.0400968194 -0.0137213031 -0.0443242639 0.0493671335 0.0189547688 -0.0133678531 0.0663086772 -0.0588018335 -0.0558502153 0.0859161541 0.0233928133 -0.1059333980 -0.0373844281 0.0128690600 0.0254872907 -0.0302271619 -0.1095705628 -0.0414409377 -0.0389980525 -0.0408237800 0.0370638072 -0.0401795320 -0.0696151406 -0.0588374771 0.0365710258 -0.0865462199 -0.0241186619 -0.0969989002 0.0223627724 -0.0820588842 0.0044452213 -0.0339404717 -0.0660372823 0.0092478776 -0.0839960575 -0.0579973534 0.0869932920 0.0354423970 0.0012199595 0.0594520569 -0.0258314665 0.0700902641 -0.0577678978 -0.0415283293 0.0621973425 0.0146819828 -0.0002333373 -0.0248954520 -0.0456630699 0.0014408603 -0.0381269380 -0.0352185741 0.0698238909 -0.0609235540 -0.0546529070 -0.0658203512 -0.0222018808 -0.0312658176 0.0390578806 0.0715627000 0.0608588010 -0.0883615091 -0.1072214320 -0.0088148098 -0.0431831665 0.0351632833 -0.0483110175 0.0245997030 0.0432562381 0.0005939344 0.0617773980 -0.0312327221 -0.0767680183 -0.0178835839 -0.0541127548 -0.0192144588 -0.0205621943 0.0870238245 -0.0908355713 0.0931105167 0.0179617703 -0.0090064853 0.0910614431 -0.0092739835 -0.0869694203 0.0123509541 0.0432529598 0.0583363622 -0.0811148807 -0.0803069994 -0.0302888229 -0.0208061859 0.0143682472 -0.0408444777 -0.0503206961 0.0635616630 0.0419020355 -0.0903939456 0.0551558882 0.0681265891 -0.0668933094 -0.0750095546 -0.0452837422 0.0555414408 0.0497919321 -0.0215241779 0.0139090493 0.0021016081 -0.0676060617 -0.0239157900 0.0757549703 0.0790354908 0.0391150415 -0.0427668951 0.0375661701 -0.0216499716 -0.0796832815 0.0777028799 -0.0763133466 0.0168882981 -0.0559542142 0.0909970105 0.0696634948 0.0864782780 -0.0232456401 0.0257040560 -0.0095642311 -0.0724674836 0.0190511737 0.0164643377 0.0378843099 0.0334359072 -0.0925092846 -0.0334400237 0.0427089334 -0.0558920689 -0.0308455005 0.0205953121 -0.0666807890 0.0093088746 -0.0975125656 -0.0574179739 -0.0344693959 -0.0110165551 -0.0364694819 0.0673617870 0.0857309401 -0.0384090319 -0.0801758468 -0.0623840503 -0.0220278203 0.0537817031 -0.0323446169 0.0034774248 -0.1410924494 0.0588868111 -0.1388060302 -0.0272614956 -0.0328731686 0.0030596927 -0.0977562368 0.0097963214 -0.0943569690 -0.0886048973 0.0997894257 0.0664614439 0.0117731988 0.0565538853 -0.0783236325 -0.1362602413 0.0150564238 0.0026296217 -0.0583232455 -0.0309753455 0.0909563005 0.0615047067 -0.0109782293 0.0975083262 -0.0556197502 0.0434334427 -0.1004504487 0.0011835545 0.0576693565 0.0241665691 0.0845678300 -0.0680134818 -0.0567929409 -0.0487064831 -0.0652363747 0.0343296528 -0.0626099482 0.0390357226 0.0125845158 -0.0162857547 -0.0698574483 -0.1473991722 -0.0536580347 -0.0002036918 -0.0750143975 -0.0056888312 0.0230470747 -0.0276725888 0.1006281972 -0.0121971145 0.0104198232 -0.0253986716 -0.0450169183 -0.0055545121 0.0014121458 0.0050122142 -0.0174986571 -0.0328473747 -0.0076203719 0.0575044006 0.0013310164 0.0598910153 0.0387028605 -0.0927532688 0.0128930900 -0.0365746319 -0.1192406639 -0.0288300589 -0.0800674707 -0.0988795683 0.0145526007 0.0361683369 0.0077926293 -0.0323066339 -0.0221077129 0.0172972232 -0.1391104013 -0.0839850381 0.0092292577 -0.0876698196 0.0150579065 0.0060216365 -0.1324996501 -0.1310153902 -0.0392637029 0.0215808898 -0.0328169763 -0.0178859457 -0.0649125874 -0.0470941700 -0.0980989039 -0.0310447440 0.0598138422 -0.0509579144 0.0524938703 0.0581599921 -0.0644561201 -0.0433641374 -0.0260413662 0.0090961531 -0.1328650564 0.0156674385 -0.0432254076 0.0550212413 0.1009197235 -0.0264701564 -0.0018749684 -0.0618413612 0.0436057448 -0.0713604540 0.0260359198 0.0104429126 0.0984697938 -0.0112676471 0.0583875477 -0.0155069306 -0.0647877902 0.0887871534 -0.0882518440 0.0926287770 -0.0365198553 -0.0723693743 -0.0955987871 -0.0589580871 -0.0100914389 -0.0757389069 0.0023387671 0.0419235192 -0.0730600581 0.0120898262 -0.1334347874 -0.0079328194 0.0380379558 0.0344700217 0.0873871297 0.0902096629 -0.0606505051 0.0077630877 0.0406592786 0.0919712931 -0.0561131462 0.0385131091 0.0571985394 -0.1456804425 -0.0881580636 -0.1235397831 0.0053951149 -0.0226208512 0.0685282499 0.0582630783 0.0753823221 0.0899580419 -0.0084291995 0.0280181766 -0.0769738853 0.0238463432 -0.0227583870 -0.0527630486 -0.0389217660 0.0134703889 -0.0575812496 0.0250712931 -0.0998626426 -0.0606346428 -0.0514412075 0.0296476930 -0.0024646670 -0.0169648752 0.0010916218 -0.0790194497 -0.0151684806 -0.0939821303 -0.0492639169 -0.0244809091 0.0462872982 -0.0336593539 -0.0963639766 -0.0421428643 -0.1013253555 -0.0821504146 0.0768665373 -0.0158804059 -0.0852703825 0.0428901017 -0.0739842653 -0.0262124091 0.0078216344 -0.0181224644 0.0008875132 -0.0822329298 -0.1007584333 0.0266575087 -0.0327020660 0.0572306812 0.0254047662 -0.0880289227 -0.0198996440 0.0578508377 0.0345490128 -0.0033734739 0.0738705844 0.0011085644 0.0245363116 0.0256877989 -0.1143736318 0.0697831661 -0.0687941760 -0.0251012407 -0.0602999106 -0.0381287336 0.0345067717 -0.0313992016 -0.0222591385 0.0932148546 -0.0221422911 -0.0134154931 0.0266555697 0.0556860864 -0.0379067697 0.1017558128 -0.0592752993 0.0913287699 0.0574156791 0.0069990903 -0.0200309679 -0.0103106648 0.0225997791 0.0710010231 -0.1003667861 -0.0321437940 -0.0714740902 -0.0226285905 -0.0845360234 -0.0244169105 -0.0217164531 -0.1256024539 -0.0962185115 -0.0158306435 -0.0004672259 -0.0367744118 0.0480985641 -0.0771809816 -0.0458697826 0.0376432091 -0.0417498052 -0.0433559604 0.0003971010 -0.0101820081 -0.0656147823 0.0167229548 0.0480841547 0.0129897073 0.0167495012 -0.0896348655 -0.0112400055 -0.0362166353 -0.1113151684 0.0900929719 -0.1027760133 0.0710751414 0.1008744836 -0.0566549487 0.0737531483 0.0051929653 -0.0025344789 0.0114962831 -0.0250786841 -0.0307670981 -0.0162075367 -0.0256887525 -0.0024005696 0.0040011243 0.0964533985 -0.0673050508 -0.0943018273 -0.0382840335 -0.0728558451 -0.0577445999 -0.0600605421 -0.0943947360 -0.0945679918 0.0423600674 -0.0739282221 0.0042391345 -0.0493267439 0.0263950229 0.0340409279 0.0427357554 -0.0016920269 0.0712756068 0.0292736590 0.0810148865 0.0273379087 0.0122516975 -0.0599398091 -0.0201422423 0.0376929194 -0.1103819311 0.0562527627 -0.1278966367 -0.0737506896 0.0089764297 0.0294391215 0.0064421222 -0.0982475802 -0.0977636874 0.0786532313 -0.0856452435 -0.0934686065 -0.0494457334 -0.1012609676 -0.0123566985 0.0047992989 -0.0948121324 -0.0796573758 0.0188907757 0.0435589254 -0.0645561069 0.0644891858 -0.0177377108 -0.0540693924 0.0686489195 0.0357091427 -0.0107808784 0.0532925725 -0.0354063585 0.0108890459 -0.0213092566 -0.0587064065 0.0095403641 0.0253741592 0.0168943554 -0.1380879283 -0.0991238281 -0.0100595653 -0.0894626603 -0.0448498912 -0.0956791118 -0.0232626982 -0.0749656335 0.0215298906 -0.0442045182 0.0135484263 0.0735394061 -0.0953394622 -0.0875850618 -0.1489437371 0.0667971969 0.0587049276 0.0505962223 -0.0638040602 0.0254856199 0.0010969564 -0.0973733291 -0.0202313289 0.0784518719 0.0745494515 -0.0461539961 -0.0651759356 -0.0102244243 0.0931460857 -0.1072391793 -0.0536509529 0.0179164186 -0.0906455070 0.0098446012 -0.0604415312 -0.0106770992 0.0240071118 -0.0275637880 0.0710587651 0.0933014899 -0.1384561658 0.0905786306 0.0035585761 -0.0168766156 -0.0014793575 0.0123137236 -0.0982385054 -0.0837417021 -0.0333129913 0.0978186727 -0.0153668225 -0.0616250746 -0.1179357618 -0.0044051101 -0.0749319941 -0.0408460349 0.0157333091 -0.1449283957 0.0778037906 0.0030303178 0.0865471363 -0.0229796767 -0.0153567716 -0.0358462781 0.0014586847 -0.0696852654 -0.0626449734 0.0259200558 -0.0235208049 0.0502153859 -0.0666641071 -0.0202279501 0.0942416042 -0.0199551731 0.0732457191 -0.0575789623 0.0297990441 0.0455156863 0.0252586324 -0.0420637801 -0.0167868286 -0.0201657787 -0.0031621158 0.0987895578 -0.0260577947 0.1008878648 -0.0442986898 0.0982631743 0.0198615156 0.0376497358 0.0152532319 0.0116751343 0.0282466412 -0.1058908403 -0.1009138972 -0.0855156854 -0.0892341882 0.0319453329 0.0856216550 0.0825919211 0.0315837860 -0.0091737732 0.0524334759 -0.0056392541 -0.0521792397 0.0599130020 0.0504761189 0.0422458649 0.0518202931 0.0614085495 -0.0503990985 -0.0076967552 0.0615873486 -0.0379735157 -0.0554148555 -0.0647400618 0.0334960073 0.0160728842 0.0582310483 0.0268569645 0.0352232009 -0.0907917693 0.0841636509 -0.0906120017 -0.0729320869 0.0398598760 -0.0763255581 -0.0862377137 -0.0008326895 0.0956862420 -0.0352551155 -0.0687346533 -0.0846075639 0.0348293297 0.0660065860 0.0429318100 0.0099945664 0.0855416059 -0.0697553605 0.0027830452 0.0524550825 -0.0262135994 0.0004787338 0.0817988962 0.0310913622 -0.0514848344 0.0734357685 0.0386955887 -0.0466996580 -0.0869690552 0.0802748650 -0.0597519204 -0.0021136596 -0.1149669364 -0.1093329266 0.0827834457 0.0561942905 -0.0093555497 0.0445750654 -0.0095063001 0.0543885231 -0.1257119775 -0.0108899176 0.0794772059 -0.0937270746 -0.0772638246 0.0481967591 -0.0049636411 -0.0293503776 0.0702115074 0.0567318946 0.0957394987 0.0091013089 0.0490432233 0.0708999634 -0.0655530244 0.0490841120 -0.0315064713 0.0795268491 -0.0673254803 -0.0098983282 -0.0274787471 -0.0615818240 -0.0603936464 -0.0458036438 -0.0992325544 -0.0049400404 0.0733967945 0.0593762845 -0.0699087456 0.0797110796 0.0540443510 0.0586072765 -0.0213696733 0.0048849941 -0.0798509046 -0.0476865210 -0.0216187499 -0.0234468523 0.0521748289 -0.0602852628 -0.0976275429 -0.0241175853 0.0077209920 0.0829134583 -0.1199760437 -0.1215928495 -0.0857224017 0.0355850309 -0.0919917598 0.0120615065 0.0489612073 -0.1352881789 0.0972885489 0.0903652608 -0.0197845846 -0.0383516587 -0.0930418894 0.0243929308 -0.0238650348 0.0920762867 0.0608599819 0.0031589493 -0.1213941276 0.0078868717 -0.0902510807 0.0454921164 0.0964368582 -0.0536533371 0.0541202314 -0.0732835084 0.0380644873 0.0651440471 0.0644118041 -0.0650793016 0.0055219010 -0.0277314708 0.0189049095 -0.0102689788 0.0983671993 0.0605338216 -0.0312357396 -0.0697845370 0.0484526046 -0.0801866725 0.0926660895 -0.0805296525 -0.0775047243 -0.0390614867 -0.0074059507 -0.0423038304 -0.1158655509 -0.0389173627 -0.0519810431 -0.0435652547 -0.0562904067 -0.0692031756 -0.0923917741 -0.0880151168 -0.0650463477 -0.0110528544 0.0279792156 0.0388941392 -0.0804819688 0.0206819400 -0.0015741363 -0.0241521429 0.0258522183 -0.0386232659 0.0110596195 0.0361345448 0.0331384242 0.0506488979 -0.0836438611 0.0771158636 0.0497121811 -0.0353202820 -0.0271418467 0.0930142701 0.0143722929 0.0849486813 -0.0827259794 0.0335836634 -0.0843546465 -0.0271568596 -0.0956318304 0.0271985382 0.0010131560 0.0698958039 -0.0206841417 0.0299877673 0.0163909942 -0.0963871926 0.0212873314 -0.0764742941 0.0456538200 -0.0025708303 0.0586124472 -0.0958852172 -0.0915348232 0.0205531865 0.0589572750 0.0667447299 0.0056907758 -0.0643169284 0.0902877301 0.0061427974 -0.1029836833 -0.0081976159 -0.0884940103 0.0052490369 0.0517270714 -0.0081670284 -0.1120437309 -0.0987371728 -0.0733458772 -0.0003217831 -0.0461812504 0.0978382379 0.0105992109 0.0401599221 0.0878858715 -0.0849827528 -0.0604688339 0.0513979197 -0.0586625300 -0.0118956659 -0.1377659291 0.0117411092 0.0111807510 0.0112734344 -0.0549036413 0.0821971148 0.0057269079 -0.0617842004 -0.0259742811 -0.0592959113 -0.0196847245 -0.0550610051 -0.0246809050 -0.2105019093 0.0713513792 0.0731229335 -0.0702745840 -0.0171830263 0.0734836236 -0.0861871094 0.0299285538 -0.0481627770 -0.0745086223 0.0144971684 -0.0527242981 0.0919882804 -0.0068572932 0.0524058491 -0.0158238038 0.0603126138 -0.0077266432 -0.0318762958 0.0305045787 -0.0705122650 -0.0558681823 0.0971186310 0.0017697737 0.0518024117 0.0416465849 0.1015596390 0.0098969415 -0.0118739158 0.0406430513 -0.0670097321 -0.0948880166 -0.0241072066 0.0857647210 0.0265286714 -0.0872614235 0.0293779075 0.0181940179 -0.0944058374 0.1122228280 -0.0321360081 -0.0986036807 -0.0119030699 0.0900802910 -0.0552938543 -0.0653294921 -0.0748262405 -0.0800257847 -0.0639336258 0.0362470485 -0.0185493883 0.0257571973 -0.0779128075 -0.0528344922 -0.0079377452 -0.0327161625 0.0363880098 -0.0690677762 -0.1207870096 -0.0847452134 -0.0777621344 0.0597087294 0.0306649059 0.0926896930 0.1280594468 -0.0757281482 0.0425818413 -0.1119067073 -0.0126731433 -0.0285208169 -0.0984948277 -0.0712031350 -0.0897196382 0.0160607416 0.0647252947 -0.1013066620 -0.0889285579 -0.0444630198 -0.0272311494 -0.0979456529 -0.0684034526 -0.0522762872 -0.0514601320 -0.1586998105 -0.0345429033 -0.0667916238 0.0663354695 0.0214344040 -0.0066787452 0.0200425759 -0.0570413880 0.0914351344 0.0633260161 0.0205968469 0.0274742730 -0.0231247339 -0.0354485735 0.0728208274 -0.1269126534 -0.1043526530 -0.0067831352 0.0616337210 0.0058038309 0.0090243863 0.0744217783 -0.0873298198 0.0106023923 0.0686335266 0.0596708059 -0.0319727063 0.0807905197 -0.0089874817 -0.0774691850 0.0104458798 0.0411855914 -0.0899642482 -0.0454276167 -0.0468966328 0.0126624350 0.1012286842 0.0931112170 -0.0504381806 0.0616825894 -0.0909065530 0.0835155547 -0.0187896192 0.0753010958 -0.0271536037 0.0230850875 -0.0076601356 -0.0980094299 0.0568724871 -0.0765129998 -0.0119736325 -0.0566345677 -0.0588581711 -0.0894825831 -0.1299738735 -0.0291256607 -0.0863541886 0.0338400006 -0.0473733619 0.0203404203 -0.0396550559 -0.0618970394 0.0144944703 -0.0900428072 -0.0838125050 0.0580894798 -0.0320416950 0.0692518204 0.0461091697 -0.0472443812 -0.0620477609 0.0839791447 0.0838565081 -0.0537583120 0.0245818198 -0.0038085431 0.0162242912 0.0053807935 -0.0320298150 -0.0451117158 0.0535735562 -0.0545690805 0.0654794872 -0.0606959127 -0.0352310725 0.1012829393 -0.0112387687 0.0344737917 -0.0956608802 0.0290863384 0.0898176134 0.1082062423 -0.0507216789 0.0953454673 -0.0671738833 0.0239667110 -0.0104671167 0.0351860374 0.0050243288 -0.1096936986 -0.0897885263 -0.0295471400 -0.0277681109 0.0671466663 0.0797546804 -0.0567195751 -0.0745453238 0.0961735100 -0.0011813939 -0.0452228263 -0.1003077552 0.0579781532 -0.0639942214 0.0087226173 -0.1237897947 -0.0927087218 0.0671074092 0.0596456975 -0.0659132227 0.0942815840 -0.0232335236 0.0449389070 -0.0049081482 0.0164542124 0.0933814496 -0.0099620372 -0.0566439666 0.0367917307 -0.0601905100 0.0776191056 -0.0573563129 0.0572775863 0.0467191935 -0.0625778437 -0.0139542595 0.0101843923 -0.0814958662 0.0367664248 0.0191734582 -0.0836849064 -0.1126188934 -0.0686040893 -0.0118764080 -0.0040623243 -0.0467926450 -0.0748191699 -0.0702892169 -0.0307094082 -0.0346211754 -0.0390702486 -0.1010379270 0.0021676049 -0.0975849330 -0.0232974663 -0.0155874044 -0.0775207356 -0.1270032823 -0.0815824270 0.0117968097 -0.0649778470 0.0203529019 0.0363069624 -0.0624247342 0.0656951517 -0.0074290186 0.0733432174 -0.0906338543 -0.0277441926 -0.0290683284 -0.0470719784 0.0254268050 0.0731188506 -0.0788598657 0.0344597846 -0.0783682838 -0.0153211504 -0.1242589355 -0.0203221478 0.0441577770 -0.0710218176 -0.0727300942 0.0729210079 -0.0213700775 -0.0806239322 -0.0698992535 0.0560804047 -0.0880520046 0.0173767656 -0.0079248771 0.0030478335 -0.1205374822 -0.1166701168 -0.0150491316 0.0362496264 0.0051742047 -0.0250963923 0.0464416146 0.0441400111 0.0932111740 -0.0915907472 0.0256553888 -0.1072154269 0.0075630331 -0.0118915550 -0.0364919007 0.0507522076 -0.1146117225 -0.0750629604 0.0413284451 -0.0072060814 -0.0155533850 0.0243073404 0.0693392009 0.0847049654 -0.0731240883 -0.0646653622 -0.1305483282 -0.0012141548 -0.1103633270 -0.0216994900 -0.0563367791 0.0629702136 -0.0232044552 0.0448829681 0.0296970140 -0.0260330215 0.0526376702 -0.0270573795 0.0496809483 0.0447734296 -0.0415528789 -0.0926134288 -0.0190728884 -0.0871052891 0.0075162109 0.0536272041 0.0393025912 -0.0417588688 0.0683660060 -0.0019011543 -0.0478669740 0.0560655333 0.0100397989 0.0174910557 -0.1302619278 -0.0362880081 -0.0917679667 -0.0074206935 -0.0274919998 -0.0992125124 0.0583326519 -0.0973137617 -0.0390577205 0.0359457955 0.0292391069 -0.0685601160 -0.0842062533 -0.0982404947 -0.0746689141 0.0274648461 -0.0069149435 -0.0661446825 0.0205415562 -0.0802103579 0.0473393053 0.0481678657 -0.1248130798 -0.1189653948 0.0561986156 -0.0086876526 0.0089773741 -0.0344031937 -0.1070430279 -0.0218550563 -0.0549737476 0.0632882565 -0.0161404703 -0.0930673480 -0.1243229434 0.0295886546 -0.0151360417 -0.0285102390 -0.1208219454 -0.0145835159 -0.1089516580 0.0524667166 -0.0008408496 -0.0828722045 -0.0123148924 -0.0542896837 -0.1044882089 0.0403754562 0.0281728487 0.0546845943 -0.0911274254 0.0638756379 0.0114960419 -0.0037283078 -0.0599088073 0.0570699349 -0.0932547599 0.0292112641 -0.0026064366 -0.0401139930 -0.0277434662 -0.0122643337 -0.0220496282 -0.0996470153 -0.0160870049 -0.0535264127 -0.0177821610 -0.1211854368 0.0523094162 0.0232041497 -0.0925936550 -0.0886740834 -0.0305884015 -0.0176992342 -0.0028285452 0.0319261029 -0.0722830743 0.0394783765 -0.1018073782 0.0632173344 0.0719681680 -0.0796077549 -0.0648637787 -0.0193054527 0.0581964701 -0.0218098387 0.0470553078 0.0440839231 -0.1133097634 0.0614616722 -0.0237314180 -0.0286276005 -0.0392695144 0.0473637134 0.0989142209 0.0010730326 -0.0306238439 -0.0409284756 0.0567579605 0.0403950065 -0.1088542193 -0.1269429028 0.0092867063 -0.0873861611 0.0561058223 -0.0341405869 0.0036345290 -0.0064963922 -0.0513950922 -0.0279132947 0.0585719906 -0.1235074848 -0.1310673952 0.0208750218 0.0705928802 -0.0011122577 -0.0358428508 0.0666261464 0.0321479030 0.0165182985 0.0491201170 0.0187358689 0.0510313511 0.0265139285 -0.0176517013 -0.1259189099 0.0692042783 -0.0689303800 -0.0127834445 -0.0037296936 -0.0703901127 -0.0890461132 0.0468311086 -0.0954266489 -0.1050494164 0.0630964190 -0.0474824384 -0.0701358914 0.0445034020 -0.1139162332 0.0331397131 -0.1155918539 0.0454251617 -0.0709329993 -0.0487246625 -0.1165420189 0.0365574509 -0.0512421504 -0.0487637408 0.0203440469 0.0579980649 -0.0733516291 0.0473437719 -0.0000726320 -0.0487585552 -0.0918696001 -0.0690623298 -0.1221569702 -0.0621729083 -0.0984137282 -0.0937316939 -0.0403792448 0.0192250982 -0.0813131258 -0.0698165148 -0.1174860671 -0.0826367661 -0.0290248059 0.0699177906 0.0246807076 0.0650669262 -0.0616205484 0.0621279441 0.0971696377 -0.1191449016 -0.1196922809 0.0586655214 0.0260327756 -0.0868660435 -0.0277867112 0.0125152422 -0.0212183036 -0.0814410374 -0.0349184014 0.0382355116 -0.1165931374 -0.0254533961 -0.0383235253 -0.0782694370 -0.0221636966 -0.0504366495 -0.1207624078 -0.0232448950 0.0702271909 -0.0936527774 0.0409611091 0.0352146700 -0.0443838611 0.0326663181 0.0248946995 -0.0797457844 -0.0250988975 -0.0214660298 -0.0532334037 0.0650596917 0.0643792078 -0.0353921428 0.0291431062 -0.0052871108 -0.0087509528 0.0581107736 -0.0739761516 -0.0726354122 0.0626312345 -0.0519094877 0.0686432123 0.0277280789 -0.0596568957 0.0602268577 -0.0227752160 -0.0274835899 -0.0015891180 0.0852455646 -0.0481049120 0.0580561459 0.0003885552 -0.0552604832 0.0302441269 0.0178649481 -0.0149411745 0.0250940993 -0.1081754565 -0.1148772016 -0.0838312730 -0.1092322320 -0.0035902658 -0.0669159442 0.0704161674 -0.1181399897 0.0528922863 -0.1102150753 0.0718296021 -0.1079236344 -0.1089244634 -0.0122291595 -0.0642051250 -0.0177440867 0.0684509054 -0.0046556205 -0.0928042457 -0.0349403918 -0.1139541045 -0.1260410845 0.0639494807 -0.0262376089 0.0553876907 -0.0226496980 0.0895283520 -0.1011129171 0.0559837371 0.0158243552 -0.1307816654 0.0173123851 -0.0793000907 -0.1079379991 -0.0313528366 0.0478450768 -0.0677559003 -0.1190230399 -0.0801740214 -0.0657517090 0.0476722866 -0.1009729803 -0.0973390043 -0.0845518112 0.0106044877 -0.0658922344 -0.1117176637 -0.0699114278 -0.0911250114 -0.0136771658 -0.0765975341 -0.0618642382 -0.0626180395 0.0218079239 -0.1069933847 0.0947295427 -0.0581436455 0.0163928755 -0.0354145095 0.0138409818 0.0036211163 -0.0860141963 0.0580291674 -0.0436199605 0.0488876067 0.0467581488 -0.0020425543 0.0656488910 0.0319978707 -0.1164015457 -0.0270349532 0.0364905298 0.0646932274 -0.1253331006 -0.0401839204 -0.0374739915 -0.0820931792 0.0059676170 0.0471487902 -0.0304234698 -0.1181406081 -0.0492578745 0.0546461307 0.0149817690 0.0407332927 -0.0207834784 0.0511943363 -0.0654017627 -0.0952001885 -0.0015507243 -0.0567801930 -0.0779065266 -0.0947013125 -0.0902293399 -0.0975481793 -0.0984710604 -0.0900826007 -0.0572053380 -0.0479158834 0.0444348603 0.0074188975 -0.0322478078 0.0023032222 -0.0903788134 -0.0996809229 0.0564739555 -0.0873923674 0.0487463623 -0.0085215587 -0.0029938966 -0.0185668897 -0.1023644432 -0.0492218547 0.0144842025 -0.0290359072 -0.0239854530 0.0571556464 -0.0867327303 -0.0111968108 -0.0526139550 -0.0364135429 -0.0611533299 0.0756379664 -0.0189425796 0.0026438609 0.0263997912 -0.0405230373 0.0182255059 -0.0497919284 -0.1018609777 0.0126118287 0.0202990454 0.0010111876 -0.0369200110 -0.0007050857 -0.0425977483 -0.0199484080 -0.0039564492 -0.0356124863 -0.0032724221 -0.0209840201 -0.0176199079 -0.0287070759 -0.1095407084 -0.0345534272 -0.0706662908 -0.0114907837 0.0237897635 0.0599670894 -0.0481069833 0.0369738154 -0.0965215117 -0.1261621416 -0.0050344677 -0.0198141560 0.0102417022 0.0475244224 -0.0734829232 0.0380330533 0.0671085715 -0.0506560840 -0.0267547704 0.0586322583 -0.0859719664 -0.0908267871 -0.0195187256 0.0247485824 0.0576673597 -0.0119345505 -0.0927276984 0.0279735737 -0.0273033772 0.0284044221 -0.0335329920 -0.1214711219 0.0444883257 -0.1163225994 0.0131952921 -0.0596285015 -0.0159829203 -0.0884803459 0.0651096255 0.0262527373 0.0554239005 -0.0065196231 -0.0532107390 -0.0164249912 0.0568446144 -0.0555142835 -0.0995406136 -0.0272543505 -0.1311259121 -0.1066782996 -0.0181948338 0.0105121024 0.0000880045 0.0599280186 0.0349697396 -0.0746505111 0.0326494686 -0.0585289672 0.0273362771 0.0145502836 -0.0314846486 0.0349683724 0.0480565131 -0.1134205982 0.0752493441 0.0269705355 -0.0177893434 -0.0565232933 -0.0278664008 -0.0838624239 0.0296827592 0.0013941115 -0.1265347004 -0.1207611635 -0.0469715185 0.0138822617 -0.1190977916 -0.0237975009 0.1030504405 0.0545767061 -0.0100085950 -0.0008755183 0.0069109839 -0.0687105432 -0.0330936201 0.0290474184 -0.0015830103 0.1043081209 0.0183872283 0.1320713162 0.0101417899 0.0657037422 -0.0940435752 -0.0269383900 0.0793840885 0.0308597889 -0.0264007058 -0.0094830748 0.0497890338 0.0222638361 0.0915506929 0.0060230638 0.0449089818 0.1146308556 0.0967712253 0.0692324340 0.0512700230 0.0844151080 -0.0664145127 0.0623160303 -0.0040505561 0.0710880309 0.0297935642 -0.0169605948 0.0915550515 -0.0522607379 -0.0524635985 -0.0908357874 0.1043692976 0.0155054703 0.0414499938 0.0019670520 0.0324717909 0.0040156613 -0.0110270102 0.0343115106 0.0145547763 0.1021337584 -0.0459606685 0.0161398090 0.0009878380 0.0459815152 -0.0951948240 0.0299548861 0.0186651535 0.0289180484 0.0223448426 -0.0728574544 0.1553649306 0.0872025341 0.0641635954 0.0338468105 -0.0682586282 0.1318667382 -0.0502548255 0.0292809717 -0.0340013057 -0.0236406140 0.0878703743 -0.0081927031 0.0099964365 0.0169298220 0.0751061589 0.1318831742 0.0895530283 0.1216230616 0.0469664484 -0.0022434820 -0.0160967559 0.0560750552 0.1029153317 0.0320893228 0.0809729919 0.0532976165 0.0845695883 0.0221569166 0.0460207686 0.1179313958 -0.0832970738 0.0255628470 -0.0639421046 0.0892149657 0.0969783217 -0.0638058558 0.0394041277 0.0538564138 0.0391807593 0.0312928334 0.0176328272 0.0373055413 0.0688693747 -0.1005753279 0.1961888075 -0.0535761267 -0.0480073690 0.0381168462 -0.0716912597 0.0853908882 0.0174285322 0.0531661846 0.0148720583 0.0095698945 0.0686078966 0.0197554491 0.0272698794 0.0055091977 -0.0007034317 -0.0150434272 -0.0837587565 0.0306625143 -0.0720148534 0.1206313521 0.0227946024 0.0316712856 0.0809197575 -0.0169732869 0.0885314047 0.0957278535 0.0427625924 0.0306512918 0.1288382262 0.0380412899 -0.0530111492 0.0929021314 0.0168193746 0.0386223979 0.0765140206 0.0593736432 -0.0417945050 0.0403882712 0.0516883172 -0.0249951277 0.0491884500 0.0640561804 -0.0033330573 0.0629483163 0.0951213390 0.0057736915 -0.0300689861 0.0581375845 0.0778450072 0.0359270498 0.0360810459 0.0040664081 -0.0484900437 0.0760906488 0.1054949239 0.0930184126 -0.0380682796 -0.0866749361 0.0145753855 0.0449212827 0.1034968272 -0.0432768017 -0.0391279459 0.1263974607 -0.0556791648 -0.0443167202 0.0371019170 -0.0303200353 0.0736490786 -0.0605209507 0.0002885293 0.0423135012 0.0653224140 0.0177823752 0.1259189695 -0.0257094558 0.0533540584 0.0016639143 0.0489213765 0.0958773494 0.0505131036 -0.0305063296 0.0755105242 0.0341572762 -0.0552185886 0.0648386478 0.0060464540 0.1025227308 -0.0689846799 -0.0400173031 -0.0172077660 0.0883698612 0.0350624584 -0.0100755077 -0.0595231876 0.0718488842 -0.0445704497 0.0602812134 0.0357679576 0.1128417030 0.0780222267 -0.0459476709 -0.1357897520 -0.0050216531 0.0872849077 0.0347397514 0.0466552377 0.0062014312 0.0979594514 0.0361698158 0.0416463688 0.1585685611 -0.0084818546 0.0199032761 -0.0187740009 0.0807439163 -0.0193512719 0.0055385455 0.0607435182 0.0780669153 0.0434097052 -0.0302746594 -0.0446009114 0.0082611395 0.0375437438 -0.0789511949 0.0160570573 0.0491659492 -0.1392159015 -0.0336166248 -0.0423156545 -0.0033014456 0.0351605676 0.0564813465 0.0274754651 -0.0383832306 0.0726998076 0.1021996513 -0.0709934756 0.0905435532 0.0097622890 0.0190651044 -0.0802874938 0.0748818815 0.0655828118 -0.0270574261 0.0778214261 -0.0715131834 -0.0729062185 -0.0590629391 0.1674238443 0.1203024313 -0.0015766678 0.1171423644 0.0221849363 -0.0351055712 0.0689899549 -0.0223400611 -0.0263483766 -0.0030776861 -0.0077328645 -0.0237501804 0.0056066988 0.0473918505 0.0635054111 -0.0428258404 -0.0016593374 0.1156126484 -0.0160392746 0.0866951793 0.0335516371 -0.0199315064 0.0435590483 0.0430753604 -0.1085017174 0.0362147018 -0.0840576217 -0.0556398258 0.0086286925 -0.0769442990 -0.0109907407 -0.0534022897 -0.0051700221 -0.0006988794 -0.0139938788 0.1730625182 0.0256125033 0.0960619450 -0.0504907332 -0.0916108564 0.0034699684 0.0596298352 0.1154569760 -0.0346448161 0.0448415130 0.0579061918 0.1013180166 -0.0238747820 0.0080598919 0.0430645980 -0.0573726371 0.0416515581 -0.0078245383 0.0921847299 0.0671187714 -0.0024617782 -0.0561182238 -0.0304479077 -0.0147317015 -0.1060367897 -0.0542313978 0.0677278787 -0.0815427750 0.0554305464 -0.0909659192 0.0312620401 0.1056681424 -0.0273866486 0.0867230594 -0.0642920136 0.0475826971 -0.0677442178 -0.0922190920 -0.0574045442 -0.0464124046 -0.0484344587 0.0349671952 0.0087622255 0.0517742634 -0.0323681384 0.0655204952 0.0819127783 0.0296427906 0.0134443361 0.0405880101 0.0435887240 -0.0867945552 0.0906563923 0.0090474980 0.0518197827 -0.0665256158 0.0797872618 0.0234570839 -0.0358817168 0.0371161960 -0.0993136540 0.1079571396 0.0473452955 0.0401463248 0.1438229531 0.0379836895 -0.0086853802 0.0001550365 0.0467405841 -0.0854968503 -0.0349325091 0.0399967507 0.0658796281 -0.0525964387 -0.0881713480 -0.0592119806 0.0250698924 -0.0604918972 -0.0893580690 -0.1045105308 0.0353972502 -0.0396989398 0.0825043321 0.0067638098 0.1132722944 -0.0423673391 -0.0292647202 0.1204998866 0.1221902594 0.0585290976 -0.1173394248 0.0413290970 -0.0644835234 0.0620865412 -0.0060604736 0.0190261696 0.0013427549 -0.0914165601 -0.0422511958 0.0832734630 0.1038718298 0.0901980624 0.0559143685 -0.0349045992 -0.0421368293 -0.0647535399 0.0657003373 0.0104948878 -0.0175924748 -0.0760111958 0.0956239030 0.0392087251 0.0199539736 -0.0274751913 0.0076449886 0.0052749608 0.0351318382 -0.0516723059 0.0839522183 0.0327278003 -0.0250574667 0.1298840195 -0.0355915539 0.0731098875 0.0373108089 -0.0575657859 -0.0085612759 0.0831258595 0.0018715988 0.0056453329 0.0969652757 -0.0094019314 -0.0023445459 0.0077400310 -0.0041333903 -0.0507479794 -0.0815392807 -0.0283294879 -0.1012971848 0.0970584005 0.0989360064 0.0850449204 0.0173757151 0.0732980892 0.0836898461 -0.0243238732 -0.0346076749 0.0010294521 0.0912420526 0.0052922890 0.0032329999 0.0422051512 -0.0346216410 0.0603678524 0.0685795173 0.0751129910 0.0870441794 0.0134079810 -0.0218992420 -0.0863574222 0.0793944821 -0.0284886993 0.0802152753 0.0584201962 0.0714650452 -0.0072283018 0.0492285229 -0.0510044545 0.0462727845 -0.0735320523 -0.0233340003 -0.0793889984 0.0692321658 0.0784740373 0.0123694381 0.0068891849 0.0753636211 0.0678364709 -0.0499965623 -0.0134631582 -0.1183800399 0.0107176593 -0.0297080874 0.0511321872 0.0182699561 -0.0307704862 0.0014351684 0.0653201416 -0.0387129635 -0.0098500764 0.0781194940 -0.0140883401 0.0898893178 -0.0412843488 0.1191869974 -0.0809915215 0.0374322720 -0.0701263100 -0.0714258105 0.0582587719 0.0853793472 -0.0545824803 -0.0567114502 0.0013094329 -0.0204407200 0.0922347456 -0.0170355234 -0.0256294813 0.0111187221 -0.0620786399 0.0454925150 0.1054120287 0.1145675629 -0.0333038494 -0.0378420427 0.0271888711 0.0563582778 0.0731671974 -0.0048933602 0.1490907520 -0.0294732936 -0.0478690453 -0.0611493438 -0.0079344586 0.0414009094 -0.0555517636 -0.0591003187 -0.0824907199 0.0847569406 -0.0722551271 0.0565110445 -0.0093392655 -0.0614865832 0.0917394161 -0.0197369978 -0.0991493091 0.0370150656 0.0327117890 0.0830055475 0.0453398675 0.0254290104 0.0106279254 -0.0314393863 -0.0223595574 -0.0866243467 0.0183996782 0.0448158644 0.0777018815 0.0717222691 -0.0352297947 0.0948819965 0.0295261890 -0.0071323663 0.0005019531 -0.0407602601 -0.0694046319 -0.0908676758 -0.0214965716 -0.0090464875 -0.1073954552 -0.0121956542 -0.0930910036 -0.0802281126 -0.0425583757 -0.1000799164 -0.0440539680 -0.0084497556 -0.0482700132 0.0500994027 0.0887085348 -0.0265185442 0.0629600435 -0.0286917910 0.0133355111 0.0631007701 -0.0532645844 0.0744121969 0.0211166292 -0.0526846945 -0.0330349356 0.0267644823 -0.0633756667 0.0007641457 0.0490759164 0.0388384312 -0.0884993598 -0.0504855067 -0.0602517277 0.0798367411 0.0725515634 -0.0688007474 -0.0874998868 0.0618487597 -0.0362123027 -0.0207294151 0.0579037666 0.0378866196 0.0023266003 -0.0461311229 0.0923772454 -0.0577920750 -0.0347955376 0.0635162145 -0.0596072823 0.0395131856 -0.0929963887 -0.0222807229 -0.0978597626 0.0676170588 0.0532730073 0.0407749340 -0.0491167232 -0.0620736033 0.0978219956 -0.0383465961 -0.0685090125 -0.0309509411 -0.0998689979 0.0165827647 -0.0392435268 -0.0598559640 0.0963844359 0.0331416428 -0.0043278285 -0.0511730500 0.0129858963 -0.0511696860 -0.0355248600 0.0397166461 0.0847716182 -0.0901010931 -0.0599215738 -0.0132902265 0.0362113267 -0.0658850521 -0.0171190053 0.0667536706 0.0540420413 0.0970811248 -0.0940145999 -0.0211494341 0.0205661133 -0.0453598499 0.0464839339 0.0080856308 -0.0510931127 -0.0465237387 0.0833065063 0.0476680696 -0.1157652363 -0.0572826788 0.0653932020 -0.0541766286 -0.0538137667 -0.0647439808 -0.0139678121 -0.0765254349 0.0140561461 -0.0641036257 -0.0490414090 -0.0632032901 -0.0734609738 0.0098839030 0.0270639807 0.0751666576 0.0393642932 -0.0768884942 -0.0456080027 0.0791945755 -0.0780852884 0.0153702497 0.0317994952 0.0409440175 -0.0813403055 0.0697205663 0.0982311517 0.0657990873 0.0154876634 -0.0932747424 0.0898665190 -0.1017457619 0.0652512610 -0.0190324411 0.0397065282 0.0469736680 0.0618808568 -0.0779805034 -0.0239818469 -0.0216460079 -0.1119326279 -0.0932247937 0.0125556476 0.0779374838 0.0201798379 -0.0394613147 0.0555747151 0.0983484387 -0.0755796134 -0.0803938359 0.0294381976 0.0769173801 -0.0673695952 -0.0420029238 0.0540754199 0.0523346514 0.0827004462 -0.0874480382 -0.0130205825 -0.0645702630 -0.0427101515 -0.0053981594 -0.0626782402 -0.0215913281 -0.0708538890 -0.0434457771 -0.0415527597 -0.0194384754 0.0771577656 -0.0851443559 -0.0186272636 -0.0577563532 0.0165225193 -0.0673921704 -0.0720777363 -0.0033861771 0.1009526700 0.0311251134 -0.0275477767 0.0237761438 -0.0468036048 0.0132657215 -0.0167051181 -0.0853913948 0.0970929563 0.0117822513 -0.0044991472 -0.0397347957 