-0.0343574882 -0.0675886348 -0.0132070631 0.0392670929 0.1022802442 -0.0455873981 -0.0209925622 -0.0483938716 -0.0439206809 -0.0923857316 -0.1141597852 -0.0065619876 0.0566993207 0.0191237461 0.0552155115 -0.0473858267 -0.0716019347 -0.1395042390 0.0226696283 0.0635290444 0.0561611988 -0.1042758673 -0.0117826192 -0.1385167837 0.0771921724 0.0670118630 0.0375277996 -0.0230091438 -0.0620305277 -0.0102883130 0.0685021579 -0.0356150866 -0.1227767989 -0.0403414778 0.0665506199 -0.1261647791 -0.0747811645 0.0584853925 -0.0362514742 0.0784076527 -0.0744598508 0.0446045324 -0.0228541419 0.0777292997 -0.0945044011 -0.0179845560 -0.1211506575 -0.0582327135 0.0665600449 -0.0151536064 -0.1354146451 -0.0049321307 0.0423030406 -0.0593221076 -0.0449483693 -0.0099589052 0.0253873914 0.0473549366 0.0395586342 0.0311528295 -0.0557239577 -0.0090767667 0.0929144919 -0.0663273484 0.1035137028 0.0868563652 0.0193937719 -0.0283296499 0.0058221919 -0.0072610453 -0.0652284175 -0.0546488650 0.0806073695 0.0198602378 -0.0267428756 -0.0302495062 0.0859774798 -0.0794474334 0.0419159085 0.0269272625 -0.0152385160 0.0862266719 -0.0619870238 0.0672130436 -0.0532736033 0.0755971894 0.0084154950 -0.0352988876 -0.0956580862 -0.0725542828 0.0786529183 -0.1124387980 -0.0332571864 -0.0551869199 -0.0156253483 -0.0620563924 0.0731003433 0.0632400662 -0.0188346803 0.1001453400 -0.0121941641 0.0210302826 -0.0245572701 0.0342285149 -0.1324403882 -0.1192548946 0.0696092844 -0.0680690333 -0.0814624354 0.0009336570 0.0253551099 0.0053818454 -0.0006238034 -0.0360046141 0.0409994423 0.0488702953 -0.0978683308 0.0692742914 0.0636422634 -0.0328458548 -0.0425036177 0.0446766615 0.0010288954 0.0577751398 0.1047483981 -0.0086426511 0.0012290850 0.0998905152 -0.0612820275 -0.0446190611 0.0188434273 0.0938845426 0.0349444598 -0.0140036577 -0.0599833727 -0.1366100907 -0.1400314420 0.0511756055 -0.0317848921 0.0385330059 -0.1044438556 -0.1332495958 0.0163553115 0.0144236665 -0.1031708494 -0.0236562118 -0.1187830642 -0.0044095721 0.0155630298 0.0045596454 0.0595873147 -0.0835986957 -0.1218078509 -0.0374588259 -0.0007409187 -0.0705110878 -0.0778664872 -0.0625890419 -0.0972251669 -0.0039132000 -0.0521773882 -0.0244999733 -0.0771167129 -0.0964879096 0.0577838980 -0.0498242155 0.0674310103 -0.0141699519 -0.0504886620 -0.0335282087 -0.1081922650 -0.0536234193 0.0703565627 0.0742199868 0.0662964433 0.0978043526 -0.0273740366 0.0849774778 0.0598554015 -0.0439355522 -0.0449164137 0.0738172308 -0.0512068458 -0.0338346660 0.0554451048 0.0193509609 -0.0721806809 -0.1372121274 -0.0780088976 -0.1160234064 0.0799382031 0.0186863653 -0.0524856523 -0.0775222033 -0.0236557946 0.0459395796 -0.0897375792 0.0145377815 0.0613011643 -0.1953677237 -0.3463777006 0.0795892626 -0.1873617768 -0.2339239120 0.0751014426 -0.0901538134 0.0074357162 -0.1229892969 -0.0913577899 -0.0464464054 0.0448998772 -0.0615284331 0.0252154544 0.0196189992 -0.0531339794 0.0802834705 -0.0536069907 0.0588370264 0.0607325435 -0.0782908276 -0.0114047229 -0.0292930305 -0.0671989173 -0.0291124061 0.0273194555 -0.1222034544 0.0275143925 -0.1130738258 -0.1091125309 -0.0485727899 -0.1232382879 -0.1070875973 0.0722782388 0.0138175469 0.1882264614 0.2302970737 0.3360715210 0.3141410649 0.4809618890 0.3001728654 0.0500961058 0.0470726080 -0.0452501625 -0.1121467650 0.0587023199 0.0030967756 0.1007115543 0.2856088877 0.1560358703 0.2483788431 0.1736643612 0.1035367697 0.0657385364 -0.1029635742 -0.0618192591 -0.1066648737 0.0589931086 -0.0643183142 -0.2039318383 0.1252968013 -0.0549665056 0.0312124733 0.2560034394 0.5009277463 -0.0166614205 -0.0526400693 0.0919431746 -0.0091639897 -0.0444927141 -0.0175591931 -0.0916152373 -0.0979984999 0.0794585869 -0.1453875750 -0.0709972605 -0.1083558723 -0.0282770824 0.2149567306 0.0684843808 0.1132694930 0.0599196777 -0.0473297313 0.0425891802 0.0194052812 -0.0103269136 0.0214964431 -0.0314384364 0.0236558579 0.0729075074 -0.0269777998 0.1204486787 -0.0897565335 -0.0085200276 0.0953578502 0.2054034323 0.1372600496 0.0236115102 0.0154323671 -0.1304862499 -0.1621681899 0.0329389460 -0.0540511198 -0.0430073403 0.0251218285 0.0922645181 0.1297548264 0.0299967974 -0.0403258726 -0.0350733623 -0.0623035133 -0.0605053231 0.0552726239 0.0239742994 0.1031457931 -0.0415379480 -0.1000468507 0.0752357543 0.0564091951 0.0929411799 -0.0841787383 0.1080459654 0.0403939262 -0.0926945359 0.0039464235 -0.0814014226 0.0451187305 -0.0079369582 -0.0815747529 -0.1228019297 -0.0434181914 -0.0922905058 -0.1990644783 -0.2194229364 0.0859362781 -0.0610129610 0.2368656397 -0.0703261495 -0.1530120522 -0.0306320116 -0.0894895643 -0.0872555450 -0.1084600240 0.0087775849 -0.0605752505 0.0551328622 -0.0806870610 0.0796369463 0.0774316490 -0.1025919169 -0.1311718822 -0.1886271983 -0.1345041990 0.0909170583 0.0185623504 0.1419276446 -0.0252927784 -0.0137829389 0.0444893576 -0.1486052722 -0.0792195946 -0.0813960433 -0.0551610216 0.0641673729 0.0394219831 0.0671849251 0.1059342176 -0.0000879914 0.0531200171 0.0972577482 -0.0007107034 0.0776471645 0.0857745856 -0.1174021512 -0.0122271078 0.0453985557 -0.0023092828 -0.0211675595 -0.0227782130 -0.0600445531 -0.0587099791 0.0657221004 0.0741532743 0.0153201055 -0.0228126161 0.1180185974 0.1036701724 0.1040007174 -0.0395385809 0.0018194229 0.0808584467 -0.0633931458 -0.0862845853 -0.0223204438 -0.1292693317 -0.1142663285 -0.1204335988 -0.1012037024 0.0274970271 -0.0493331328 0.0400454812 0.0132150678 -0.0332523957 -0.0962769538 -0.0023663975 -0.0264122467 -0.0970456898 -0.0921990424 0.0501515679 0.0692501962 0.0056953728 -0.0022083446 -0.1143228114 0.1022808850 -0.0419076681 -0.1345346719 -0.0495974123 -0.0168094933 -0.0340927169 -0.0866467878 -0.0891297236 -0.0807558596 0.0598717965 -0.0129126227 -0.0829693824 0.0112542687 -0.1282966733 0.0615446791 0.0496395193 0.0210499205 0.0171171743 -0.0700803921 0.0572256893 -0.0301766749 0.0412295572 0.0086941393 0.0203820951 -0.1257205606 -0.0217973869 0.0006359637 -0.0543028526 -0.1298730671 0.0025475386 -0.0754660815 -0.0111220321 0.0176108181 0.0070053041 0.0370347947 0.0328995325 -0.0159449521 -0.0821593031 -0.0058102910 -0.0692914426 -0.0227204505 0.0158191826 0.0704836845 0.0519414879 -0.1008690000 -0.0169474334 -0.0793027133 -0.0702646077 0.0367671847 -0.0145803317 -0.0498652272 0.0187335871 -0.0035901424 0.0252748150 -0.0558282137 -0.0802607909 -0.1061761752 -0.1103477776 0.0379219986 0.0216540955 -0.0657124892 0.0235494282 0.0414438993 -0.0640445128 -0.1403555721 -0.1078054979 0.0297202021 -0.1127505824 0.1049990505 -0.0781460851 0.0555768460 -0.0992422625 0.0102531239 0.1025917232 -0.0270059519 0.0466720313 0.0010481809 -0.0679600164 -0.0183969215 -0.1373965144 -0.1232749000 -0.1166754141 -0.1408202350 -0.0760985613 0.0037938007 -0.1009541079 -0.0267104656 0.0336046219 -0.0287253410 -0.0068222061 0.0653667897 -0.0199827850 -0.0120012239 0.0440977514 -0.0410769880 0.0696202964 -0.0796915144 -0.1014518589 0.0090764239 0.0935927033 0.0810331702 0.0530954711 -0.0565253943 -0.0848083794 0.0329897143 0.0803004205 -0.0910905972 0.0155061185 0.0601423159 -0.0524975471 0.0481721051 -0.0691532418 -0.1411244869 0.0577921607 -0.0464643426 0.0381975919 -0.0252565444 -0.0005238797 -0.1122265831 -0.1340177059 -0.1348658055 0.0530323535 -0.0042841416 0.0454122089 -0.1071546376 -0.0212366004 -0.0637250468 -0.0069799875 -0.0176685099 0.0734175146 -0.0122718588 0.0936331376 0.0985709280 -0.0642122999 0.0149388686 -0.0954254046 -0.0749182105 -0.0882826000 -0.0229692589 -0.1069916859 -0.0042104940 -0.0719109029 0.0482720993 -0.1311042905 -0.0037645074 0.0603461042 0.0438266098 0.0426721871 0.0888061970 0.0337609202 0.0388653129 0.1027231812 0.0283257291 -0.0556147434 -0.0061948332 0.0230226088 -0.0154455919 0.0255367290 -0.0131742069 0.0213449337 -0.0738489106 -0.0100733172 0.0562254302 -0.0529588386 0.0156440139 0.0538999587 0.0621251762 0.0189361572 -0.0796447396 -0.0779203326 -0.0803311616 0.0782588124 0.0339383781 0.0334311128 -0.0657374188 -0.0720738769 0.0285434127 -0.1047898009 -0.0773577839 0.0287666321 0.0456962883 -0.0002307370 -0.0807146803 0.0619312823 0.1019985229 0.0682736784 -0.0496110953 -0.0050722882 0.0825424343 0.0979106128 0.0541421324 -0.0847613066 0.0797128677 -0.0523456559 -0.0293285400 -0.0715377629 0.0486400723 -0.0577965677 -0.0406031236 0.0760067552 0.0644339472 0.0100490227 -0.0244517401 -0.0500246882 -0.0853586122 -0.0281699374 -0.0363422111 0.0277199298 0.0601322949 -0.1085856408 0.0312013030 0.0727100670 -0.0184890628 -0.0909915566 0.0482252240 0.0422905236 0.0653751642 -0.0267206505 -0.0474911183 -0.0039835572 -0.0056850091 -0.0719948858 -0.0598439872 -0.0039440766 -0.0808485448 -0.1115475297 0.0470756888 0.0400060564 -0.0460618734 -0.0964859501 0.0359903276 0.0004366487 -0.0007468760 -0.0975581631 -0.0125790760 -0.0138136744 0.0311647654 0.0411847234 -0.0792883486 -0.0050715432 0.1027837545 0.0981016308 0.0776309520 -0.0842233077 -0.1075213775 -0.0365207046 0.1053521037 -0.0262311623 -0.0067026764 -0.0584427901 0.0238399059 0.0173744112 -0.0859485865 0.0110079423 -0.0122395083 -0.0449003950 -0.0827198029 -0.0344435871 -0.0439155027 0.0226143748 -0.0629177466 -0.0461626351 0.0069844574 -0.0905426219 -0.0205214769 0.0783430487 -0.0526390560 -0.0752111226 -0.0991140157 -0.0525673516 0.0162113309 -0.0985357687 0.0202600360 0.0110807940 -0.0094762072 0.0138091743 -0.0976607352 0.0665636957 -0.0165171549 -0.0360845029 0.0553762317 -0.0986977294 -0.0918689966 -0.0305622071 0.0911472887 -0.0256015211 -0.0497640744 -0.0717610642 0.0504872203 0.0323967785 0.0045413077 -0.0122295618 0.0964741409 -0.0607280880 -0.0254137814 -0.0000701025 -0.0569673777 0.0435064882 -0.0904793143 0.0538902432 0.0904255658 -0.0038243085 0.0314397812 0.0981578678 0.0040517896 -0.1028320268 -0.0760132074 0.0402042419 0.0294665694 -0.0729351267 -0.1038459688 -0.0898362622 -0.0047386885 0.0590774119 0.0147593468 -0.0441384017 0.0675761551 0.0791381896 -0.0345345363 -0.0476294309 -0.1030176878 -0.0453895554 0.0847288966 0.0944699496 0.0585171282 -0.0137729421 0.0764771551 -0.1048799530 0.0588315725 -0.0467474684 0.0050565079 0.0872835219 0.0972970873 -0.0246564299 0.0252715796 -0.0931117013 0.0448237360 0.0198106617 0.0243122727 0.0495564789 -0.1035119146 -0.1001523733 0.0027179495 0.1068563610 0.0094748512 -0.0503528528 0.0306937546 0.0345666856 -0.0063400492 -0.0942915231 0.1114796400 -0.0959932953 -0.0297074020 0.0153680742 -0.0502668060 -0.0241266191 -0.0163247883 -0.0532285795 -0.0971802324 -0.0726991370 -0.0835737437 0.0801176578 0.0661775991 -0.0122214081 -0.0094114942 -0.0503673144 0.0664863363 0.0760456175 -0.0328805707 0.0036167293 -0.1152467653 0.0555915236 -0.0027174284 0.0546620041 -0.0733752474 -0.0054928628 -0.1278222650 -0.0468290895 -0.0234152004 0.0536344498 -0.0334000066 -0.1051929221 -0.0927842259 -0.0904945284 0.0143386424 0.0530701429 -0.0315094478 -0.0368792675 0.0568634458 -0.0062932442 -0.0200995971 -0.1260567158 0.0159014389 -0.1193291470 -0.0037108702 -0.0195391029 0.0347280726 0.0175844636 0.0000642706 -0.0951863751 -0.0792112499 -0.1270179749 0.0491054691 -0.1233799309 0.0154769728 -0.1135446578 -0.0908653960 -0.0618871823 -0.0721364692 -0.0282687508 0.0923219994 -0.0791176260 0.0192848407 -0.0245517902 0.0419673435 0.0156150665 -0.0216696560 0.0275480710 0.0800235271 0.1143202782 0.0116119273 0.1123139486 0.0219847187 -0.1376698315 0.0623240247 0.0579225868 0.0513224974 -0.0744761825 0.0496183187 -0.0005635843 0.0446682721 -0.0473542660 -0.0562367104 0.0028432608 -0.1049210504 -0.0341755562 -0.0572059378 -0.0901593789 -0.0380461365 0.0146357212 -0.1186860725 -0.1407828480 0.0548305325 -0.0621265620 -0.0616166480 -0.1123749688 -0.0130664725 -0.1145576090 0.0551401079 -0.0226242617 0.0855933428 0.0018611434 0.0500432104 0.1100068837 -0.0120727196 -0.0073659346 -0.0106543824 -0.1008638293 -0.1362221986 0.0158543400 -0.0254023336 0.0615434460 -0.1284755766 -0.0576346181 -0.0544077680 0.0693993866 -0.0658498481 -0.0503587797 0.0250568148 0.1086561009 -0.0636387393 -0.0711828172 0.0005402640 0.0990560204 0.0094764754 0.0234893262 -0.1109063402 -0.0329743847 0.0366929471 -0.0058510229 0.0232636780 -0.0528797060 -0.1023026630 -0.1110894978 0.0007656142 -0.0346183181 -0.0157160610 -0.1075789779 0.0544979200 0.0372992866 -0.1077451855 -0.0024727238 -0.0723769516 -0.0842468515 0.0474873409 -0.0573764332 0.0014938992 -0.0682432577 -0.1116686761 -0.0142935403 -0.1126137003 -0.0508967862 -0.1005978212 0.0233564805 -0.0638656691 0.0653139725 0.0296175182 -0.0947397426 -0.0469535962 -0.0801438689 -0.0293683335 0.1036402881 0.0986035690 0.1172505990 -0.0712736249 -0.0846937150 0.1346444935 0.0099194609 -0.0764835998 -0.1072889045 0.0283333603 -0.0914250612 0.0728542060 0.0228268690 -0.1253979653 -0.1256359965 -0.0673089623 0.0643914044 -0.1266445220 -0.0141782621 -0.0395471454 0.0503727943 0.0901417881 -0.0979185998 0.0035931766 0.0541322678 0.0446676537 -0.0393651947 0.0821940154 0.0344913863 0.0014884300 -0.0383318029 0.1145194843 0.0341291800 -0.0606973991 -0.0679610595 0.1202493533 0.0197584555 0.0623244531 0.0561705232 0.0359314233 0.0958286598 0.1303026974 -0.0739638954 -0.0827475116 -0.0019606294 0.0236278102 0.0451356284 -0.0055158571 -0.1004999354 0.0443918221 -0.1054118276 -0.0400046892 0.0616990253 -0.0726932511 -0.0321940407 -0.0963635519 0.0049055754 0.1117390469 -0.0800985247 0.0448862165 -0.0163212046 -0.0498181060 0.0377249122 0.0207620710 0.0815105587 0.0254574716 -0.1085619479 -0.0106941387 -0.0916202441 -0.1275368035 0.0452326611 0.0065097702 0.0604806095 0.0220296681 0.0400661081 -0.0015829850 0.0604128465 0.0187273193 -0.0567734726 0.0683441013 -0.0067967270 -0.0673684105 -0.0019705449 0.0069872136 0.0842181593 0.0155250998 -0.0921475887 0.0371804200 -0.0800921321 -0.1068301871 -0.0229005739 -0.0879678130 -0.0633330792 0.0205268208 -0.0553540885 0.0348773003 0.0260655284 0.0695301294 -0.1048176214 -0.0739472210 0.0781116039 -0.0968357548 0.0768881589 -0.0410493910 0.0719097182 -0.0671133995 0.0684717223 0.0861814097 -0.0667374656 0.0673280954 0.1059119701 -0.0152943656 -0.0870672539 0.0264389962 0.0625657588 0.0199393276 -0.0445319898 0.0496154018 0.0501630493 0.0368512683 0.0952217951 -0.0554963611 -0.0407614149 0.0203464087 -0.0773492157 0.1043643877 0.0802500620 0.0047699120 0.0347483754 -0.0352637656 -0.0429066196 -0.0724190846 -0.0055849990 0.0465941243 -0.0524459928 -0.0025808651 -0.0051495745 -0.0383406654 -0.0880579352 0.0199913383 -0.0164867379 0.0188561510 0.0016703693 -0.0142343165 -0.0281812064 -0.1276903003 0.0063408576 -0.0163905751 -0.0842074826 0.0103615597 -0.0562982336 0.0287195891 0.0893685520 -0.1106750518 0.0202201009 0.0128566995 -0.0360142142 0.0870202184 -0.0500371121 0.0880251974 -0.0418675430 0.0435687602 0.0014347583 -0.0760397017 -0.0707376897 -0.0633101463 0.0879525393 -0.0375722796 -0.1093136221 -0.0748183727 -0.0044410382 -0.0920884460 0.0613272600 -0.0230968893 0.0021156424 0.0101020085 -0.1010603830 0.0451542586 -0.0950511470 0.0141611956 0.0930831581 0.0533898808 0.0520038381 0.0805763602 -0.0263795052 -0.0495498776 0.0890522152 0.0742053166 0.0195389073 -0.1020123735 0.1059879810 -0.0124408081 0.0002388880 -0.0432287194 0.0419154726 0.1288143545 0.1330842227 -0.0213477314 -0.0589698851 -0.0862847567 -0.0806842968 -0.0059582335 -0.1271475554 -0.0571101904 -0.0742944926 -0.0356355906 -0.1083725542 0.0375923365 -0.0952463895 -0.0171722714 0.1010451913 -0.0945485234 -0.1085502952 -0.0582050942 -0.0673739687 0.1102186590 0.0681151301 -0.0820810050 -0.0222653151 -0.1007385403 -0.0176921804 -0.0739606023 -0.0489872880 0.1020683646 -0.0328615271 -0.0027291270 -0.1183504388 -0.0535501316 -0.0472970083 0.0374064744 -0.0740846843 -0.0974396095 -0.0574443527 -0.0368012264 -0.0596381575 -0.0010172462 -0.0383380540 0.0223834384 0.1355311871 0.1044591740 -0.0633041859 -0.0363124460 -0.0683455095 0.0886061415 -0.0418591164 0.0235407092 -0.0225406587 -0.0161058027 0.0384879187 -0.0547200143 0.0164975114 0.1158488989 -0.0748870447 0.0354713053 -0.0468737856 -0.0204085857 -0.0516741611 -0.0101426393 -0.1029427797 0.1111710221 -0.0024594201 -0.0553341024 0.0051329825 0.0525715649 0.0824630335 0.0823739842 0.0276237521 0.1133414209 0.1022364870 0.0165368039 0.0401435196 0.0490430184 -0.0086289216 -0.0660467818 0.0230660439 -0.0362424329 0.0239012130 0.1045144945 -0.0467903838 -0.0173548181 0.0110458564 -0.0163179934 0.1079608649 -0.1384135783 -0.0336226225 -0.0414585993 -0.0817384496 -0.1195387840 -0.0766899288 -0.0279228892 0.0487194136 0.0128498031 0.0123928450 0.0247715507 0.0042066961 0.1075111553 0.1104119793 0.0504768752 0.1767323315 0.1504631788 -0.0540115759 0.0357126743 -0.0529722832 0.0472486317 0.0632454082 -0.0627410412 -0.0267132670 -0.0097439354 -0.0710150599 -0.0151218222 0.0235573240 0.0351751857 -0.0470114797 -0.0798016340 0.0839779377 -0.0405168384 -0.0650501996 0.0396341980 0.0184307396 -0.0359594747 -0.0092297131 -0.1390979588 -0.0623311289 -0.0793157220 -0.0920265689 0.1191615239 0.0970920548 -0.0557298511 0.1322477758 -0.0630752221 -0.0729777142 0.0604660921 -0.1006705612 -0.0796411037 0.0765052959 -0.0636517480 -0.0960573032 -0.0304618925 -0.0050980910 0.0696272328 -0.0479244478 -0.0134571334 -0.0336827636 0.0986851454 0.0245296359 0.1002874225 -0.0988607034 0.0040141046 0.0555521250 0.0730906725 0.0847162008 -0.0050120205 -0.0986538604 -0.0539868921 0.0032693297 -0.0439904854 -0.0409491956 -0.1117364392 0.1477466673 0.0791656822 0.1097099632 0.0361873955 -0.0321264155 0.1337958425 -0.0078009996 0.0845455006 0.0547421128 0.0020126773 -0.0349457413 0.0768475011 0.1352331638 -0.0398390591 0.0124954376 0.0249025598 -0.0656439140 0.1338908970 0.0883664265 0.0843889192 -0.0362517349 0.0350550115 0.1355614215 0.0584660918 -0.0782330111 0.0809400156 0.0951900482 0.0650700778 0.0846276507 -0.0298923925 0.0644020811 0.0985577628 0.1221129745 0.0636216998 0.0032732736 0.0113886157 -0.1322618127 0.0117683103 0.0068159597 -0.0160006918 0.1013947725 -0.0556442440 0.0255206637 0.1143676639 -0.0621338859 0.0630447268 -0.0982814357 -0.0870294273 0.0275723655 -0.0134418840 -0.0102944234 -0.0019506783 0.0865673348 0.0612420030 0.0147571554 -0.0997013524 -0.0950568542 0.1228314191 -0.0564937852 -0.0144617110 -0.0250128824 0.0060439720 -0.0613340326 0.0240774602 0.0022130087 0.0242836475 0.0980698019 -0.0448887125 0.0657587945 -0.0935492069 0.0828520954 -0.0707171559 0.1033152491 0.0991680771 0.0953633338 0.0004822835 0.0941241682 0.0253876895 -0.0540424436 0.0278940499 -0.1076563597 0.0705212653 0.0472483039 -0.0345141962 -0.0211621001 -0.0864379108 0.0479402095 0.1008982360 0.1095965505 -0.0671292618 0.0226418227 0.0271628648 0.0223968029 0.0941757560 0.0906317532 0.0165162683 -0.0581450425 -0.0132121593 -0.1071312651 -0.0411221981 0.0804692656 -0.0957028717 0.0328741074 -0.0699564517 0.0796328187 -0.0512926616 -0.0703867078 -0.1062459424 -0.0844837129 -0.0861131400 -0.0212255940 -0.1025060192 0.0173925161 -0.0314919651 -0.0900311470 0.0138713270 -0.0246189013 0.0705195665 -0.0654788315 0.0395513773 -0.0631494373 -0.0092472062 -0.0920009688 0.0167653561 0.0191543102 0.0922751874 0.0648333579 -0.0694060624 -0.0525347777 -0.0400541946 -0.0073314682 0.0795987546 -0.1029858589 0.0089379475 0.0075441301 0.1042615622 0.0647114068 -0.0473858491 -0.1046820059 -0.0810634792 -0.0606389493 0.0595952570 -0.0088759437 -0.0718454272 0.0467395782 -0.0217654034 -0.0372227132 0.0238584131 0.0724057108 -0.0906372517 -0.1117971092 0.0398350507 0.0132893771 -0.0837191641 -0.1037941203 -0.1023201793 -0.0028519556 -0.0587155595 -0.0530889034 -0.0661776215 0.1054067016 0.0692504346 -0.0615416840 0.0302692354 0.0032523796 -0.0703133494 -0.0151966959 0.1078803539 -0.0734038725 -0.0555175059 0.0803804696 0.1087311059 -0.0504788794 -0.0785210803 -0.0256987661 0.0173117667 -0.0910783261 0.0590987355 0.0781036764 0.0164328665 -0.0762758404 0.0564138442 -0.0846511871 0.0998974591 -0.0733958483 0.0516793877 0.0429662019 0.0720694661 -0.0503311530 -0.0386796221 -0.0601984337 0.0424191505 0.0661330223 -0.0677121505 -0.0817135125 0.0792365074 0.0074338019 -0.0369376317 -0.0808713958 -0.0297646597 0.0717938989 -0.0700621158 0.0660096556 -0.0888668597 -0.0413463488 0.0265423954 -0.0130049586 0.0751633048 -0.0245639384 0.0880216211 -0.0808431134 0.0866893381 0.1096431613 0.0347329974 -0.0158900172 -0.0107718781 0.0852367431 0.0554080755 -0.0219519958 0.0341938734 0.0483484268 0.0738699585 -0.0743414462 0.0416416973 0.0696733147 0.0298306048 0.0765871853 0.0667464882 0.0646730959 -0.0375106260 0.0440439880 -0.0146945789 -0.0961321741 0.1002787203 -0.0474346280 -0.0454688594 0.0078422800 -0.0933822542 0.0903590620 0.0714467615 -0.0951736718 -0.0902811214 -0.0303585827 -0.0119767338 -0.0678549707 0.0803785175 -0.0278107747 0.1060706824 0.1043537408 -0.0823922530 0.0509401858 -0.0534352735 0.0839533359 -0.0973391011 -0.0790964812 0.0541118234 -0.0667484030 -0.0134676546 0.0045215487 -0.0325940624 -0.0421851873 -0.0001719033 -0.0594534278 -0.0291381013 -0.0034923449 -0.0380894914 -0.0518885367 0.0901106596 0.0885013044 0.0937107652 0.0857827365 -0.0568971671 0.0615861714 -0.0409546122 0.1097177565 -0.0741073787 -0.1034101397 0.0601389855 -0.0291810483 0.0928531587 -0.0183828101 0.1010892242 0.0216269195 -0.0911303312 0.0459661782 0.0919009894 -0.0755242780 -0.0067668930 -0.0270064026 -0.0185739845 0.0106641054 -0.1073320955 0.0222021341 -0.0056292191 0.0712817609 -0.0355312824 0.0092842877 -0.0814628750 -0.1722722501 -0.0057997797 -0.0753567219 -0.1734620780 0.0267829522 -0.0846729949 -0.0785938799 0.1029249430 0.1225798130 -0.0410372689 0.0394789129 -0.0153001044 -0.0403360836 -0.0017293368 -0.0236271918 -0.0155287432 -0.1100653931 0.0938025117 -0.1059852988 -0.0912084058 0.0065016374 0.0016291067 0.0423947871 -0.0807551444 -0.1220703572 0.0576922372 -0.0358894318 -0.1148624197 -0.0184610728 0.0941877514 0.0436449498 -0.0912665948 0.0394117385 -0.1029189229 -0.1078512743 0.0682460964 -0.1007483751 0.1086907685 0.0307779908 -0.0929933488 0.0547491163 0.0118157491 0.0259437747 -0.0131094791 -0.0139838196 -0.0008270429 -0.1354109645 -0.1474401653 -0.0235016253 -0.1903847903 -0.1445695907 -0.1650616676 0.0253413580 0.0326745361 -0.0895959288 0.0624667257 0.0717018843 -0.0927034616 -0.0890151262 -0.0909554884 -0.0949346796 -0.0894603059 -0.0818914771 -0.0158501975 0.0073133907 -0.0883883089 -0.0379677266 -0.0407372266 -0.0146703199 0.0309925675 -0.0647882000 0.0653458387 0.0185152590 0.0530643314 0.0986520648 -0.0769576505 -0.0465044156 0.0782231241 0.0678464472 0.0671747923 -0.0561413094 0.0926589668 0.0361707658 0.0179962367 -0.0040645897 -0.0150892213 -0.0780173838 -0.0566205308 -0.0330150872 -0.0517533049 -0.0490241051 -0.0402460694 0.0121968836 -0.0369233415 -0.0182610974 -0.0836027712 -0.0528553911 -0.0322151408 0.0333373472 -0.0592167117 -0.0566154607 0.0101781934 0.0573372096 -0.0264088511 0.0041006804 0.0081369355 -0.0755139366 0.0566034168 -0.0166848227 -0.0869802311 0.0312942863 0.0964900851 -0.0888358057 -0.0641995519 -0.0955711156 0.0084801894 -0.1033598185 -0.0987655073 -0.1000980660 -0.0739223883 -0.1421689540 -0.1423235536 -0.0462522879 -0.0159657840 0.0101303644 -0.1042307168 -0.0344736576 -0.0254662707 0.0168773383 -0.0199804381 0.0651106089 -0.0969158858 -0.0215017498 -0.0588440150 -0.0721346438 -0.0239787325 0.0446697325 0.0611849725 -0.0291969404 -0.0964011848 0.0888203904 -0.0247858986 0.0382883400 0.0385194719 -0.0661080480 0.0867916346 0.0802564919 -0.0624571592 -0.0395329669 0.0826524347 0.0333333611 0.0509088002 -0.1071762145 -0.0486134812 -0.0152376285 -0.0988819972 0.0784816369 0.0812588409 -0.1185675040 -0.1283657104 -0.1336340010 0.1406523436 -0.0729953125 0.0523550883 -0.0132866818 0.0705014244 -0.0476836376 0.0094252955 -0.1189548448 0.0693133324 -0.0711079091 -0.0180417672 -0.1168412715 -0.0511194244 -0.0887077004 -0.0792096555 -0.0054063085 0.0894013494 -0.1110281348 0.0299004503 -0.0815095007 -0.1012810171 -0.0249653049 0.0450692661 0.0056564282 0.0202587508 -0.0433423594 -0.0321552865 -0.0708459988 -0.1038729548 0.0351863429 0.0128948148 -0.0958431363 -0.1175422296 -0.1162287071 -0.1255841255 0.0166603271 -0.0325712785 -0.0383970812 0.0392156169 0.0244580861 0.0432637706 0.0463364311 0.0364331827 0.0308533460 -0.0251976456 -0.0544869453 0.0335395485 -0.0481964573 0.0015659130 0.0369553342 0.0582005940 0.0349042863 -0.1114316285 -0.0984902754 0.0605665110 -0.1313252896 0.0817840770 -0.0171953049 -0.0602375083 0.0366101451 0.0875122547 0.0425019115 -0.0031150728 0.0860781372 -0.0162915885 0.1036247760 -0.0150160166 0.0460169464 -0.0076794974 0.0761543438 -0.1253024042 -0.1241744831 0.0751208141 -0.0503807589 0.0307996478 0.0448596738 0.0237851962 -0.0873049051 -0.0787947103 -0.0374671184 -0.0496114194 -0.1087012216 -0.0882872120 0.0419226997 0.0809941515 -0.0256646127 -0.0056660911 0.0211458597 -0.0733890906 0.0613324083 -0.0565589741 -0.0762355328 0.0655595586 0.0341383852 -0.1387565434 -0.0955773443 -0.0455867797 0.0282596722 0.0013255645 0.0737175718 0.0363008305 -0.1127364114 0.0518487543 -0.0369104370 0.1052647084 -0.0601054318 0.0166030377 0.1020731032 0.0157327205 0.0923804492 -0.0739856139 -0.0458722413 -0.1019666940 -0.0451056659 -0.0218825862 -0.0556092821 0.0465198010 -0.0989728197 -0.0668998361 0.0357258767 -0.0170843098 -0.0176133402 0.0359205380 -0.0137075698 -0.0302508175 0.0427980758 -0.0248862524 -0.1016100422 0.0241261330 -0.0705908388 0.0729546547 0.0205584709 0.0495504662 0.0588819571 0.0817533508 -0.0959319919 -0.0658656061 -0.0263348874 0.0094615277 -0.1174596995 -0.0712786391 0.0380852036 -0.0946191922 0.0318467729 0.0582620054 -0.0242399834 0.0387875289 0.0735833719 0.0606612116 0.0303453673 0.0925420448 -0.0546689481 -0.1103052199 -0.0001958248 0.0170828886 -0.0056743366 -0.0224635713 -0.0667223334 0.0240564849 0.0740530118 0.0260481909 -0.1397910863 0.0429822505 0.0424452871 -0.0693910792 0.0668616891 0.0915493667 0.0474178642 -0.0020672185 -0.0021980689 0.0492106415 -0.0300293975 0.0720493495 -0.0480688438 0.0684695318 0.0404542424 0.0049911602 -0.0605081767 0.0369164944 0.0518092141 0.0835936591 -0.0874541551 0.0615209080 -0.0605971925 -0.0880044103 0.0921839550 0.0094091669 -0.0543617532 0.0942034498 0.0868106782 0.0902882665 0.0253251567 0.0887374133 -0.0096052969 0.0760355741 -0.0877667442 -0.0311903916 -0.0012067666 -0.0920885429 -0.1241785884 -0.0737488121 0.0135873239 -0.1436066628 0.0604851916 0.0116605386 0.0282722116 0.0297978967 0.0789608508 0.1036411375 -0.0617916621 0.0501715876 -0.0852195770 0.0616712868 -0.0812936276 -0.0479667187 0.0744257569 -0.0737867728 -0.0672633126 -0.0708046034 -0.0652872026 0.0837821513 0.0076984954 -0.1530678272 -0.0486560576 -0.2221317440 -0.1532874256 0.3264836669 0.0306720547 0.0807850286 -0.1143639460 -0.0885719359 -0.0566694476 0.0085157659 -0.0819616765 0.2563831806 0.1896554083 0.5459381342 0.1818134934 0.0832879916 0.3340488970 0.0095673315 0.0518183708 0.1261220723 -0.0407278761 0.1460177898 0.0449351817 0.1814508587 0.2118517905 0.0928274095 -0.0004197856 -0.0524621606 -0.2418529242 0.0696657151 0.0325898528 0.0390812755 0.0959869772 -0.1110457554 -0.0530675799 -0.0173656158 0.0690820143 -0.0215159636 0.0333360024 0.0253184605 -0.1277021021 0.1057650223 0.0001038447 0.1352927387 0.1050483882 0.2251923978 -0.0123449359 0.0391059183 -0.0898493528 -0.0927837715 -0.1220367476 -0.0731082708 -0.0719809830 -0.0514426567 0.0467136353 0.0727629364 -0.1015072465 0.0609555691 0.0072483318 0.0918309763 0.1645492315 -0.0210435912 0.0187467895 0.0650517866 0.0045278305 -0.0102593740 0.0107826721 -0.0455800667 0.0799990594 -0.0446743853 -0.0273709092 -0.0285916626 -0.0699229240 0.0934822112 -0.0818034708 -0.0984975472 0.0547677726 -0.0594072826 -0.0574835986 0.0373279750 -0.0581250489 0.0254659206 -0.0699236393 0.0866870135 -0.0829854310 0.0094076768 0.1069903672 -0.0886022449 0.0091851801 -0.0106283119 -0.0267055165 -0.0916240662 -0.0747040287 -0.0550369471 0.0993622541 0.0922722593 0.0806797892 0.0689531937 0.3356001675 0.1052613780 -0.0062099206 0.0056569101 0.0209796578 -0.0184115246 -0.1250120848 -0.0854619145 -0.0481743105 0.0779115185 -0.0159445535 0.0123288929 -0.0199800711 0.0255841929 0.0311930478 0.0358085632 -0.0304768663 0.0088315895 -0.1503463835 -0.0589334257 -0.1920337379 0.0753588527 0.1073214188 0.0391963646 0.0014298263 -0.0886206925 -0.0984679908 0.0454667471 0.0409359075 -0.0684246942 -0.1058960557 0.0351171754 -0.1081405208 0.0276642740 -0.0090790614 -0.0949065834 -0.0877498686 0.0533070862 -0.0607452542 0.0038484258 -0.0932059065 -0.0654933602 0.0387138948 0.0314883180 0.0415605903 -0.0245004408 -0.0071772835 0.0605033301 0.0572087802 -0.0397774279 -0.0373833142 -0.0011794721 -0.0322622173 -0.0833688378 0.0546079464 -0.0640052110 0.0762020648 0.0245883148 -0.0600885600 -0.0299263075 -0.1001438797 -0.1089095622 0.0069297701 0.0159602538 -0.0249262825 0.0151602393 0.0048951702 0.0248452313 0.0675773323 -0.0727683008 -0.0340703987 0.1097296104 -0.0196411721 -0.0012581769 -0.0393091142 0.0037979484 -0.0790393800 -0.0372565687 -0.0075407689 0.0057720914 0.0699376017 -0.0709044561 0.0245441627 -0.1209211797 0.0154750738 0.0163071603 -0.0210664142 -0.0210340545 -0.0994356200 -0.0154185463 0.0423528813 -0.0852532759 0.0134362457 0.0332565345 -0.0925839618 -0.0187392440 -0.0989380628 -0.1283605993 0.0004106559 -0.1180277914 -0.0062209461 -0.1171377897 -0.0008354970 0.0265015922 -0.1223981529 -0.0736939758 -0.0355250463 -0.0197415892 0.0789686292 -0.0291284546 0.0333087109 -0.0634476095 0.0033594214 -0.0735010877 0.0356635302 0.1063408554 -0.0385973677 -0.0469413437 0.0154024279 0.0134146949 -0.0851885453 0.0866537243 -0.0371406265 0.0416985303 0.0973926485 0.0873439461 0.0722192600 -0.0153628141 -0.0575692728 -0.0819893554 0.0370364375 0.0789419934 0.0119311977 -0.0835419819 0.0762343183 0.0154836494 -0.0024264716 -0.1287574619 0.0594811365 -0.0003000805 0.0493590385 0.0539223105 -0.0170465931 0.0285076983 -0.0121953785 -0.0379601568 -0.1100994647 0.0818156004 -0.0476333462 0.0630843714 -0.0362973735 0.0176101252 0.0474719219 -0.0420697704 0.0617293604 -0.0923496708 0.0807737112 -0.0864905044 0.0770733431 0.0729404166 0.0677016452 0.0591967516 -0.0753186047 -0.1182306707 -0.0909795612 -0.0038558692 0.1006323248 -0.0423562080 -0.0747420564 -0.0098802596 -0.0651545599 0.0251167268 0.0998708606 -0.0768776536 0.0299906246 0.0077434927 -0.0579324067 -0.0123014823 -0.0516212247 -0.0720100552 -0.1073657945 -0.0923956409 -0.0975848138 -0.0750704780 -0.1213166565 0.0248981640 0.0201562289 -0.1264348775 -0.0879361853 -0.0510343425 -0.1305534840 0.0413236655 0.0531227514 -0.1097621098 0.0729457289 0.0414890721 -0.1323618740 -0.0078040063 -0.1213932261 0.0725259930 -0.1117162630 0.0256999303 -0.0743271634 -0.0680753589 -0.1386733651 0.1198339537 -0.0435511135 -0.0237479396 -0.0015217856 -0.0509638824 0.0606357791 -0.0892778635 0.0269324724 -0.1222175211 -0.1290223300 -0.0091928793 -0.0422760956 -0.0375817232 -0.1069510803 -0.0467535667 0.0714198649 0.0704200119 -0.0412221625 -0.0672220886 0.0263103377 0.0659018904 -0.0631060377 0.0535658002 0.0168396272 -0.1030524448 -0.0097226202 -0.1367465109 -0.0799304992 -0.1125275567 0.0727546737 0.0277557280 -0.0497638024 0.0309338458 -0.0472670309 -0.0728593394 -0.0773023292 0.0393543355 -0.0214328971 0.0806512609 -0.0896669254 -0.0648703277 -0.0133374985 0.0767692775 -0.0281285457 0.0542635657 -0.0426588804 0.0482395776 -0.0285955612 -0.0513392054 0.0802679285 -0.0227996819 -0.1367572099 -0.0891086832 -0.0476326905 -0.0605002157 0.0186460204 0.0814086646 -0.0350840986 -0.0718441531 0.0060741776 -0.0159260929 -0.0654943436 -0.0834932774 0.0721216351 -0.0320822671 -0.0697729513 -0.1115694121 -0.0750962943 0.0680503771 -0.1246029437 -0.0329911970 -0.0931261480 -0.0465295464 0.0415454544 0.0192312002 -0.0336408243 0.0585429184 0.0649886653 0.0524648428 -0.1328521073 0.0481954738 -0.0345009938 -0.0348300338 0.0524843633 0.0577579811 0.0136159649 -0.0988275856 -0.0767304152 -0.0310363248 0.0647656620 -0.0514502563 0.0147162396 0.0269608200 -0.0760423392 -0.0530358851 0.0537558869 0.0215040892 -0.0395860896 -0.0243591666 -0.0821798295 -0.0021373555 0.0055455938 -0.0636473000 0.0764615834 -0.0308815558 -0.0701298043 -0.0743161961 -0.1096587405 -0.0150649510 -0.0001537004 0.0430632085 -0.1019559503 -0.0641817451 0.0383461416 -0.0603423491 -0.0950136855 -0.0985540822 -0.0701302439 0.0266793370 0.0334541649 0.0040698419 0.0478122011 0.0106983911 -0.0338024162 0.0077524222 -0.0202476941 -0.1020879596 -0.0659089535 -0.0657209381 0.0160132516 -0.0674814284 -0.0134491175 -0.1327043623 0.0216320902 0.0793758631 0.0405778363 0.0858396515 -0.0107704606 -0.0221698657 0.0711985976 -0.0230695400 -0.0485726334 -0.0557057746 0.0384680554 -0.1359932125 -0.0928305984 -0.1328093261 -0.0651494190 -0.0541151017 -0.0382811800 0.0509304516 0.1168630868 -0.1048184559 0.0298917741 0.0804072320 -0.0535248630 -0.0900076032 -0.0122713074 0.0577030033 0.0855516046 -0.0977684781 -0.0831713751 0.0040707216 0.0875054598 -0.0501399226 0.0295663923 0.0323060900 -0.0459038541 0.1016041934 -0.0481872112 -0.0464128479 -0.0928699970 0.0114747556 -0.0408183858 -0.0501785427 0.0747184008 -0.0287959278 -0.1192422956 0.0206255633 -0.0833319128 -0.1218439043 0.0640287176 -0.1374795586 0.0503751449 0.0089194132 -0.1185928807 -0.0052570389 0.0040216958 -0.0118091675 -0.0643005893 0.1054450348 0.0467980504 0.0268099159 -0.0337429941 0.0045684972 0.0093905870 -0.0774055347 0.1378874630 0.0733412132 -0.0230147634 -0.0347193964 0.0399824753 -0.0319726802 0.0249979682 -0.0566538684 -0.0595336631 -0.0676735491 0.0594349243 -0.1326408088 -0.0496821404 0.0997035205 0.0416055508 0.0980955139 0.1147926748 0.0937855095 -0.0787129402 0.0771700069 -0.0427162163 0.0549339317 -0.0831378922 -0.1147195548 0.0044387397 -0.1209804192 -0.0652175471 0.0412225351 -0.0588966198 -0.0340936147 -0.0277073365 0.0152087808 -0.0071988199 0.0392909199 0.0592192486 0.0186986309 -0.0603050888 -0.0646117702 -0.0479725637 0.0736337453 0.0290963929 -0.0432808734 -0.0678197816 -0.1006133556 -0.0953794643 -0.1176936179 -0.1025581360 -0.0318409838 -0.0100660948 0.0512953475 -0.1424067020 -0.0980944261 0.0275276657 0.0478195883 -0.0168824904 -0.1363683641 -0.0496729054 -0.0171030536 0.0223879069 -0.0592293553 -0.1343227625 -0.0113960803 -0.0313172340 -0.0704514682 -0.1185936034 0.0494407676 0.0317548998 -0.1254226416 -0.0920329094 0.0504030623 0.0480405241 0.0217405353 -0.0145726837 -0.0003332312 0.0397544466 -0.1319733709 0.0299874768 0.0239740163 -0.1523452252 -0.1796571463 0.0268354975 0.0578333102 -0.0522834882 -0.0663712695 -0.0603697821 -0.0139664775 0.0725791156 -0.2815829515 -0.1475393623 -0.1055422127 -0.1929921061 0.0125173237 -0.2614606321 -0.0149633279 0.1019275263 -0.0647945032 0.0495859943 0.0639673397 0.0059414157 -0.0333580449 -0.0216034725 -0.0865017101 -0.1547032595 -0.0799736977 -0.1801003218 0.0281889439 0.0842896849 -0.0191293657 -0.0011948386 0.0187751055 -0.0742906108 -0.1413717121 -0.0221630558 0.0643453375 -0.1276061535 0.0323221460 -0.1126024425 -0.0447142497 -0.1608069986 -0.1636880338 -0.0241661575 0.0656161010 -0.0475280955 0.0967740715 0.0668436959 0.1183442771 -0.0011621297 0.0648932904 0.1177824140 -0.1152813360 -0.0250306092 0.0773544982 -0.0792539343 0.0456074700 -0.1076466590 -0.0331108235 -0.0393937156 -0.0023057230 0.0792732090 -0.0874965861 -0.1176229045 0.0011196831 0.0733827874 -0.0576779656 -0.0397621281 0.0474876724 0.0118829105 -0.0782471597 -0.0061581507 -0.0300320163 -0.1103509665 -0.0622455627 -0.0021149665 0.0303795785 -0.0805312395 -0.0916494578 -0.1269889772 0.0698524117 -0.0149029493 0.0418455303 -0.0256499276 -0.0560479611 0.0783425272 -0.0663185716 -0.0092545673 -0.0938379467 -0.0977111608 0.0004520782 0.0541631505 0.0490231924 -0.0136888009 -0.0151601266 -0.0495575890 -0.0584416538 0.0324424803 0.0511769801 0.0257253516 -0.1151700616 0.0443988927 -0.0923507959 -0.1125623956 -0.0062515135 0.0526478514 -0.0096701710 0.0188795608 -0.1158736721 -0.0493429005 0.0024967445 0.0137830740 0.0194703657 -0.0451453067 0.0240921173 -0.0016141286 -0.1474757791 0.0568975322 0.0394187123 -0.0094279973 0.0323539712 0.0274905972 0.0495071076 0.0605253316 -0.0472021736 0.0288103577 -0.1087284237 0.0313552245 -0.0529701039 -0.0326667577 0.0112319402 -0.0242139790 0.0106117763 0.0260429289 0.0810387284 -0.0469087884 0.0614071675 0.0683933645 -0.0060539576 0.0198704861 -0.1217187569 -0.1138812229 -0.0361373127 -0.0331475437 -0.1323383301 0.0699486434 -0.0139189549 -0.0915486962 0.0673347265 -0.1253042519 -0.0861403644 -0.0735897645 0.0496143252 -0.0169516895 -0.1340725422 0.0341219939 0.0482380204 -0.0304264016 0.0005653942 0.0456442274 0.0449266285 -0.0635928214 -0.1284240186 0.0563563518 -0.1032269076 0.0489075892 0.0648002177 0.0015242446 -0.1340389550 -0.0311574973 -0.0535789207 -0.1001572534 0.0344003290 0.0250442475 -0.0454918370 0.0743613020 -0.0529260077 0.0939947069 0.0162611138 0.0428128913 0.0774251074 -0.0428276695 -0.0326473527 -0.0461540557 -0.0289627351 0.0424060114 0.0332657918 0.0595781766 0.0795495585 -0.1244605407 -0.0781832263 0.0698583126 -0.0623331144 -0.0470594987 -0.1191152781 0.0736780837 0.0756396130 -0.0107633630 0.0445935987 -0.0820409879 -0.0342596397 0.0293073617 -0.0875648037 0.0765510723 -0.0651024655 -0.0854682773 0.0421721600 -0.0058169328 -0.1027099788 -0.0703891888 0.0028427891 -0.0291144289 -0.0121478494 -0.0812929794 0.0214763153 0.0856625959 -0.0972503498 -0.0469493791 0.0152258398 0.0158587638 0.0161370635 0.0184008330 -0.1094543934 -0.0652776212 0.0038460642 0.0240384191 0.0992089882 -0.0622325018 0.0467557125 -0.0836340487 -0.0974443629 -0.0404072627 -0.1153594106 -0.0460599773 -0.0797285512 -0.0270117316 -0.0596125461 0.0159057714 0.0522067957 0.0466366820 -0.1328043342 0.0172625277 0.0281157549 -0.1401020288 -0.1400642246 -0.0272211209 -0.0330519676 -0.0335311815 0.0101426495 0.0441319756 -0.0768725649 -0.1234393194 -0.0214041229 -0.0411938727 -0.0778531209 0.0220394321 0.0293023232 -0.0098799644 0.0681543425 -0.0131081520 -0.0982354879 0.0760166198 -0.1014410332 -0.0626328439 -0.0710516721 -0.0409322456 0.0490927696 0.0081160069 -0.0577454157 0.0042170882 -0.0855585337 -0.0820792764 -0.1106876284 0.0000799969 0.0363428742 -0.0759130046 0.0993215591 0.0893947557 -0.0107930154 -0.0143671110 -0.0158602949 0.0106189344 0.0010380301 -0.0026590852 -0.1254141182 0.0260854159 -0.1229849830 -0.0940169170 0.0456577055 0.0777191520 0.0626077726 0.0128169274 0.0315533504 0.0797665492 0.0493468456 -0.1064420342 0.0301453583 0.0221501999 0.0314376093 0.0814903751 -0.0713197365 0.0672082454 -0.0888380259 -0.0795005560 0.0771524012 -0.0466566943 0.0486831404 -0.0234936439 0.0379016623 0.0535885803 -0.1401473284 0.0788885430 -0.0443315767 0.0199257601 -0.1055204943 -0.1241468936 -0.1024676934 -0.1005999669 0.0607705489 -0.1016993374 0.0009319370 0.0509399995 0.0274568535 0.0011353026 0.0668164119 0.0991381034 0.0876630843 -0.0890657380 -0.0924080983 -0.0303324442 -0.1006109715 -0.0039309040 0.0577895083 0.0460408926 0.0304583814 0.0286947563 -0.0229664724 -0.1164345071 -0.1082284227 -0.0848653764 -0.0085693989 -0.0129463812 0.0009216589 -0.0326772742 0.0615977794 0.1042186320 0.0310497228 0.0098221907 -0.0765471756 -0.0155609781 0.1168826148 0.0028915540 -0.0646788999 0.0651953146 0.0333214253 0.0518934950 0.0865017325 0.0335160345 -0.0182719976 -0.0837899372 -0.0708757862 0.0078187315 -0.0235033594 0.0666505992 -0.0734966099 0.0201345384 0.0416454822 -0.0732374042 -0.0184469968 -0.1006898656 0.1067904010 0.0957557037 0.0716420487 0.0293047410 0.0464165807 0.0452032946 0.1049942970 -0.0682280883 0.1050604582 -0.0747808069 -0.0731319487 -0.0634599403 0.0791178867 -0.0196824800 -0.0730269477 0.0011200779 -0.0041606375 -0.1693088710 0.0562111251 -0.0117768198 -0.0775110275 0.0176067594 0.1058568656 0.0717892647 -0.1717571914 -0.2469078600 0.1951257735 -0.2212265730 -0.1312723160 -0.1455457509 -0.1298539937 0.0537411012 0.0709766150 -0.0592939928 0.0176166166 -0.0360744558 -0.2002417743 -0.1893381625 -0.0769656897 0.0323640071 -0.1531549394 -0.1324793100 -0.0327988565 -0.0586790666 0.0556765348 0.0255516469 0.0139907449 -0.0389894992 0.0104290713 0.0756084174 -0.0483351089 0.0082461014 0.0450821519 -0.0860779285 -0.0796427578 0.0996958017 0.0403537601 -0.0291296709 -0.0687326789 0.0616634786 0.0393559746 0.0458283350 0.0013660635 0.0903405547 0.1031562686 0.0692373663 0.0920154527 0.0747791529 0.1303371340 0.1288615167 0.0641343147 0.0835209563 0.0234960951 0.0989978835 -0.0310484134 -0.0512637235 0.1012941748 0.0163943749 0.0355607569 -0.0257014520 0.1239215136 -0.0194794592 0.1314165443 -0.0752797723 -0.0722624063 0.0665399581 0.0999824703 0.0307615846 -0.0704031289 0.0790457278 -0.0974462628 0.0882720947 -0.0243268609 0.0072346553 0.0919356644 0.0846736282 -0.0529149212 0.1084364206 -0.0029062256 -0.0367053747 0.0096104220 -0.0100078881 -0.0261605941 0.0481179915 0.0381904393 -0.0479304232 0.0587669685 -0.0784600824 0.0575431809 -0.0681253076 -0.0799980462 -0.0728863105 -0.0795362368 -0.0004967251 0.0178164653 -0.0127341049 -0.0095890416 -0.0786211416 -0.0477690436 -0.0142024895 0.1344746202 0.1273388416 -0.0646392629 -0.0541438572 0.0485621765 -0.0412211977 0.0760041475 -0.0243806187 0.0199015085 -0.0363155715 0.0002408512 -0.0744825602 0.0591371506 0.1069368348 -0.0759160891 -0.0947517380 0.0218380764 0.1183980554 -0.0368855745 0.0873583853 -0.0549701639 0.0655797943 -0.0205953959 -0.0639462918 0.0451724008 -0.0833586305 -0.0324824490 -0.0904744938 -0.0223781914 -0.0231766123 -0.0934547186 -0.0112991771 -0.0286674201 0.0938637927 -0.1002692208 -0.0815316662 -0.0149887465 -0.0544244684 0.0187031645 -0.0214338526 0.1056362689 0.0877047777 0.0450733900 -0.0706944466 -0.0378989801 -0.0493808389 -0.0681930184 -0.0965568572 -0.0155577809 0.0207931846 -0.0380951092 -0.0760342479 0.0654924214 -0.0556864142 -0.0017304481 -0.0517941080 0.0670106336 -0.1081875637 0.0811813548 0.0065713497 -0.0638815239 0.0770975798 0.0871340260 -0.0806173906 -0.0327972993 0.0159913842 -0.0391085744 0.0967691392 -0.0205631927 0.0524370112 0.0182380378 -0.0499108694 -0.0265058596 -0.0209065061 0.0187091418 0.0833309814 0.0181104820 0.0747793168 0.1040384620 -0.0300591122 -0.0538406298 0.0275211595 -0.0607522652 0.0445938781 -0.0525534712 -0.0481247306 -0.0744307637 -0.0028392624 -0.0407871753 -0.1488193572 0.1308475435 -0.0236642100 0.0743882209 0.0236902591 0.0973456427 -0.0648258552 -0.0511482395 -0.1388719827 -0.0958573744 -0.1765182018 -0.0777123272 -0.1058834270 0.0027934979 0.0567148551 0.0326440372 0.1090415940 -0.0332297757 0.0711793154 -0.0911988914 -0.0136617217 0.1095823646 0.0082944566 -0.0520848967 0.0477789231 -0.0136650950 0.0705816448 0.0290158391 -0.0908299759 -0.0788571090 -0.0140908733 0.0497654304 -0.0533223823 -0.0730216503 -0.0579139329 0.0489453040 -0.0371291339 0.0496079810 0.0357114412 -0.1178698316 -0.0418456942 -0.1597000659 -0.1405586153 0.0131190056 -0.0109319966 -0.0522548445 -0.1120265350 0.0318952277 -0.0359285437 0.1107939929 -0.0972301289 0.0508832783 0.0983674377 -0.0564443879 0.0919044167 -0.0196752138 -0.0732116923 0.0398126431 -0.0780424625 -0.1319236159 -0.0134964688 -0.0614329614 -0.0765623227 -0.0082272291 0.0145498691 0.0301113147 -0.0814449787 0.1005336046 0.0537302494 0.1019210517 -0.0157683343 -0.0616284497 0.0621149987 0.0542769283 0.1096368730 0.0321913660 0.1025876477 -0.0546027236 -0.0967765823 -0.0325446129 0.0934447050 0.0429595709 0.0411690511 -0.0678822994 -0.0531860106 0.0422147065 0.0598626062 -0.1129954904 0.0092068752 -0.0247381646 0.0948279575 -0.0091584390 -0.0698212087 -0.0795561001 -0.0617055632 -0.0423813611 -0.0747869760 -0.0427938178 0.0137751047 -0.0627256334 -0.0430562906 0.0928200707 0.0027506526 0.1074790210 0.0208431780 -0.0610336214 -0.0850479901 -0.1117717326 0.1011621058 0.0996924490 -0.0489055291 -0.0535761379 0.1090902835 0.0570467971 0.1812826395 -0.0257699918 0.0028966989 -0.0796419457 -0.0581617542 -0.0421475284 -0.1206484735 0.0326150730 -0.0345939584 0.0324558392 -0.0909514278 0.0614291690 0.1137087494 -0.0222572312 -0.0875595957 0.0817080736 -0.0189066827 -0.0795861185 -0.0239661783 -0.0143952342 0.0377617069 -0.1046789587 -0.0159799177 0.0780080482 -0.0832203776 0.0910216868 -0.0282476097 -0.0315777697 -0.0009963477 0.1096100137 0.0471832007 0.0384587348 0.0447785594 0.1090717018 -0.0865369886 -0.0024370169 -0.0095231049 0.0323034339 0.1276281327 0.1181452945 0.1171204522 0.1000527889 -0.0815087110 0.1073768958 -0.0819119960 -0.0791773722 0.0476478226 -0.0899147689 -0.1090291962 0.0094582522 -0.0626753643 0.0893277973 0.0808783099 0.0423500985 0.0795118436 -0.0091522336 0.0183733404 0.0494990647 0.0715826303 -0.0068282261 -0.1025726870 0.0601987243 -0.0054773013 0.0412515402 0.0480406135 -0.0020907887 0.0696096793 0.0672887936 -0.0949539319 0.0450128876 -0.0100276833 0.0503230914 -0.0322330967 0.1469785720 -0.0243621524 -0.0001659440 -0.1029446125 0.1817598939 -0.0183608476 0.0522906743 -0.0524150804 -0.0220689382 0.0753069669 0.0705895349 0.0263734497 0.0468403399 -0.1705465168 0.5556875467 0.4002625346 0.3143045306 0.2286912203 0.0644982532 0.0776952729 0.1303371340 0.0136839123 0.0215866417 0.0564780645 -0.0139938220 0.2516081929 0.2814472616 -0.0940878689 -0.2693498135 -0.0569300242 -0.0926649719 0.0452116877 -0.0412085056 0.0538176000 0.0942511111 -0.0992216840 0.0232666805 0.0705943108 0.0810120851 0.0006833325 0.0890848488 -0.0346561745 -0.4347911775 0.0641614795 0.1673316807 0.3383051455 0.0398227982 0.0180038381 -0.1066872999 0.0070017823 0.0691930205 -0.0313166566 -0.0589988455 0.0438961424 -0.0075920150 -0.0242331214 0.0990833566 0.0432963148 0.1236552447 -0.0257998165 -0.1447702348 -0.0557327047 -0.0537158735 -0.0209445506 0.0502590090 -0.0765748471 0.0790631920 0.0411433615 0.0625202656 0.0113509018 0.0681060031 0.0794973597 -0.0371409580 0.0500420928 0.0609609038 0.0355667323 -0.1002895236 0.0697841942 0.1014564484 -0.0230091736 -0.0732855201 -0.0458195135 0.0897946805 0.1052184254 0.0543029755 -0.0912844539 -0.0785295293 0.0274383575 -0.0358921513 0.0348411947 -0.0270494763 -0.0259491634 -0.0474218316 0.0058989422 0.0670937151 0.1117552593 -0.0125151528 0.0973865464 -0.0760547593 -0.0657578111 0.0476139374 -0.0927983746 -0.0447708666 0.0355202407 0.0890944824 0.0614947826 -0.0467807427 0.0905120969 -0.0319967978 -0.0810345188 0.1183271110 -0.0665883496 0.1104741916 -0.0566545576 -0.0539025925 0.0302729066 0.1253363043 0.0250159577 0.0925278440 -0.0142478878 -0.0363090932 0.0426780395 -0.0309866853 0.1308618188 0.0428629033 -0.0346382484 0.0172365382 0.0654010028 -0.0074770618 -0.0699654520 0.0923200920 0.0971820280 0.0679434165 0.0789619014 0.0390001051 0.0002259370 -0.1085017025 0.0084622400 -0.0544027053 -0.0818287954 -0.0732332319 -0.0466332547 -0.0474038087 0.0326497331 0.0895056725 -0.0669385865 -0.0490162037 0.1420453638 -0.0472687930 0.1260637194 -0.0013639153 0.0871629640 0.0884894729 0.1058539227 0.0775874555 0.0587968118 0.0403776951 -0.0538891889 0.1179698706 -0.2150615752 0.0494257770 0.0928366259 0.1100525633 -0.1030063480 0.0798494890 0.0726091042 -0.0707412213 0.0187251624 0.0700630993 0.0427225791 0.0829160884 0.0746111646 -0.1193481386 -0.0644688979 -0.0351994708 -0.0392927155 0.0236476660 0.1122668684 -0.0263475999 -0.0961454213 -0.0016323879 0.0291310064 0.0855978727 -0.0276419912 -0.0054762638 -0.0762560219 0.0209245495 -0.0413498618 0.0406396799 0.0526068099 -0.0845065415 0.0214971323 -0.0381196775 -0.2169248313 -0.1645477861 -0.1546820104 -0.0340072364 -0.1558526754 0.0567818992 0.0543814860 -0.0330137201 -0.0718364045 0.0518257618 -0.0720610544 0.0441550948 -0.3181310296 -0.2411888987 -0.1438258886 -0.0871973038 -0.0433775671 -0.0105981044 -0.1223346964 -0.0688593015 -0.0048412057 0.0279971492 -0.0815132409 -0.1774789989 -0.0363244675 -0.0763867497 -0.0361895226 -0.1716354489 -0.1457526386 -0.1092401594 -0.0001374632 -0.0361289680 0.1157566309 -0.0460952446 0.1055509448 -0.0147510860 0.0777819753 -0.0146235311 -0.0341414176 -0.0304120556 0.0245294198 -0.1519516557 -0.0573658012 0.0001836942 -0.2005449682 0.0302949175 0.0987332687 0.1433428675 0.0750992224 -0.0103907622 0.0085237771 -0.0090790093 -0.0383898616 -0.0457827151 -0.0522445813 0.0392904207 0.1324418783 0.0628902689 -0.1190934479 -0.0545665324 0.1228232309 0.0397950597 0.0438627638 -0.0305337925 -0.0079124011 -0.0279984996 -0.0423248895 0.0860422328 -0.0246221162 -0.0742645115 0.0325287506 0.0735142827 0.0024404079 -0.1073578149 -0.0798658505 0.0696254969 0.0335585773 0.0469658077 0.0554490834 0.0688998550 -0.0371950865 0.0706372410 0.0274370015 0.0705993921 0.0880832225 -0.0837821215 0.0915650204 0.1043457687 -0.0413654298 0.1126511544 0.1282285154 0.0283483714 0.0438724384 -0.0710569546 -0.0896585137 0.0830946267 0.0299879480 -0.0693272054 0.1515100598 0.0302918851 -0.0608033687 0.0717595369 0.0845146999 0.0088688526 -0.0541598536 0.0699678212 0.0741930902 0.1288201958 -0.0268796198 0.0350957848 0.0542522259 0.0989452973 0.0771249682 -0.0195784159 -0.1044325978 -0.0972380042 0.0953931212 0.0436865427 0.0146424202 0.0973116606 -0.0611298420 0.1048583016 0.0276345722 -0.0842435434 0.0108382003 0.0148180397 -0.0210269298 0.0856013745 -0.0897970721 0.0118585769 0.0766246244 -0.0880884454 -0.1058801711 0.0022222027 -0.0194393173 0.0761222541 0.1006031334 -0.0721451044 -0.0701796860 -0.0877908766 -0.0058747558 0.0541730598 0.0880843475 0.1291838735 0.0056767832 0.0394830853 0.0566546954 -0.0797358230 0.0043778475 -0.0795245767 -0.0811752155 0.0290295389 0.0551108085 -0.0279051159 -0.0630249530 0.0680480674 -0.0523290969 -0.1362318695 0.0515388660 -0.0246215537 0.0346287936 0.0466645993 0.0231249966 0.0044469405 0.0332507752 0.0344073400 0.0042311731 -0.0058225659 -0.0622457340 -0.0592894889 0.0216811132 0.0728898346 -0.0785454735 0.0525167286 0.0555927008 0.0146966577 -0.0629628971 -0.1069524586 -0.0787960365 0.0570343845 -0.0303562861 -0.0791104212 0.0215473901 0.0266911611 -0.1240084916 0.0540454239 -0.1042507812 0.0766383111 -0.1298418939 -0.1146250069 -0.0014331695 -0.0519160368 -0.0477450527 -0.1397512108 -0.0473758206 -0.0598437861 -0.0509711131 -0.0439995639 -0.0638685673 0.0422286279 0.0457679443 -0.0277159382 -0.0644323006 0.0960810557 -0.0334407650 -0.0198765174 -0.0012968646 0.0399464481 -0.0939202830 -0.0761559159 0.0568697117 -0.0763321668 0.0186248422 0.1107046306 0.0417582095 0.0430059582 0.0562619790 -0.0750508532 -0.0099719968 -0.0295988563 0.1251936108 -0.0352515578 -0.0006670132 0.0378063023 0.0908730924 0.0894641131 -0.0711912066 0.0044171270 -0.0497906283 -0.0826525614 0.0030644799 -0.0126915583 -0.0968697816 -0.0871569812 -0.1179737151 0.0731332898 0.0414428525 -0.1406659186 0.0381762497 -0.1180111468 0.0221690666 0.0206966922 -0.1140621975 0.0471735038 -0.1162405759 0.0168052260 0.1177186444 -0.0348602720 -0.0008826272 -0.0359093770 0.0350463465 -0.0078355866 -0.0946073756 -0.0149412602 -0.1023455560 -0.0558880791 0.0270771123 -0.0475928597 0.0085507622 -0.0974353328 -0.1347950399 -0.0671215504 -0.1081304550 0.0322886407 0.0637908429 -0.0924635604 -0.0451232344 0.0264504105 0.0866994858 -0.0977914780 0.0759233236 0.0584973246 0.0645881593 -0.0573191568 -0.0984651819 -0.0813128427 0.0164775103 -0.0008058921 0.0934813097 0.0937439054 -0.0242062658 -0.0618136376 0.0149171008 -0.0029470837 -0.0914015695 -0.0681705847 -0.1036425680 0.0197979342 0.0603677444 0.0748768672 -0.0457429811 -0.0329599865 0.0181634184 0.0566165075 0.0013515154 -0.0114409598 -0.0210252106 -0.0057149949 -0.0764283985 0.0253431983 0.0396078378 -0.0795727298 0.1322999746 0.1150430813 0.1113214046 -0.0461408347 0.0801407248 0.0962616280 0.1046708152 -0.0533333942 0.0069488273 -0.1282893419 -0.0839775279 0.0492035337 0.0128809856 0.0656279624 0.0145299872 0.0524476543 -0.0787053406 -0.1129527763 0.0175586361 -0.0363585800 -0.0355840288 0.0624804981 0.0260952339 -0.0241612718 -0.1099642962 0.0646426231 -0.0989968106 0.0270337556 -0.0600669831 -0.1327333450 -0.0439833067 -0.1273021102 -0.0860083699 0.1039925590 0.1056121066 0.1358295530 -0.0777389854 0.0729535595 -0.1216739416 0.0648362339 0.0000805079 -0.0290000364 -0.0426620394 -0.0214569122 -0.0297079310 -0.1091776043 0.0727062449 -0.0179664474 -0.0678152815 -0.0704984218 0.0344702452 -0.0514467694 0.0253624357 -0.0440988392 0.0531363003 0.1104779541 -0.1094904542 0.1146574393 0.0140579063 -0.0577145964 0.1198672429 -0.0372988433 0.0382353961 -0.0501235276 0.0414613932 0.0093901902 -0.0135203023 0.0070789009 0.0098895654 -0.1198268086 -0.0031995696 0.0703559071 -0.0638282150 -0.0677990168 -0.0087019354 0.0037044033 -0.1385895759 0.0692450404 0.0427198857 0.0304597616 -0.0932269841 0.0777043253 0.0151259517 -0.0633976236 -0.1390365362 0.0964105427 -0.0408223122 -0.0293305870 -0.0713095888 -0.0779591650 0.0127262706 -0.0387301371 -0.1016988754 0.0844181329 -0.1195571125 -0.0680295601 -0.1101105660 -0.0724509507 0.0669020712 0.0725651383 0.0204592794 -0.0343546346 -0.0321501270 -0.0505833738 -0.0339535177 -0.0132422810 -0.0580686778 0.0285539776 0.0370969661 -0.0309034288 -0.0087993369 -0.0869870782 0.0078548864 -0.0605970211 0.0688491166 0.1016947478 0.0532922596 -0.0056834770 -0.0635464117 -0.0155238034 0.0151011348 -0.0552138388 0.1004698426 0.0780248865 0.0714491755 -0.0949858204 -0.0632641241 0.0676694512 -0.0203160644 -0.1135211140 -0.0643929988 0.0011064654 0.0192280710 0.0578815937 -0.0052169040 0.0166007727 -0.0439173952 0.0240408909 0.0535330065 0.0943065584 0.0320999324 0.0547611788 -0.1049513295 -0.0342905149 0.0078007155 -0.1077847630 -0.0475452840 0.0837132856 0.0479127876 -0.0033269024 -0.0520011820 0.0842764825 0.0371193141 -0.0841238499 0.0092929229 -0.0133686811 0.1046628952 -0.0593686588 -0.0970905051 -0.0870873630 0.0438228548 0.0585819930 -0.0717719644 0.0833169520 0.0752170980 -0.0727325156 -0.0643654913 0.0369171351 -0.0517064780 0.0115223825 -0.0314113051 -0.0993803591 -0.0236732997 0.0675572455 0.0202344377 -0.0552952737 0.0097780898 -0.0183157735 -0.0341362432 0.0106118517 -0.0546191186 0.0518036783 0.0396726131 0.0632407442 -0.0886585414 0.0264269337 -0.0781265274 0.0855457932 -0.0906730443 0.1037806198 -0.0239559542 0.0678821877 -0.0664964244 -0.0568799749 0.0088244975 0.0569989532 0.0214488674 0.0842751786 -0.0019150425 -0.0668119788 0.0192995369 -0.1248127595 -0.0731149614 -0.0533170141 -0.0013715676 -0.0888814926 -0.0070846081 -0.0423174426 -0.0143047106 0.0451190993 -0.0824534371 -0.0525565557 -0.0023820326 -0.0233348068 -0.0092027700 -0.0343046561 -0.0740609989 0.0264948756 0.0035557523 0.0042077913 0.0422349125 -0.0530194640 -0.0638141781 -0.0749381632 -0.0947697833 0.1223605573 0.0727076679 -0.0062410603 0.0647245646 0.0121626332 0.1059104502 0.0836469531 0.0452629626 0.0130588561 0.0404049903 -0.1108893901 -0.0933374241 -0.0849845037 0.0934279934 0.0226533432 -0.1232245192 -0.0897540003 -0.0188478958 0.0516573675 0.1216983721 0.0350954384 0.0493462794 -0.0009072424 -0.0087645669 -0.1035271734 -0.0332227573 0.0880259722 0.0319874398 0.0176977161 0.0939088091 0.0704384744 -0.0483047366 0.0228275657 -0.0447437242 -0.0434444100 0.0832888782 -0.0350480005 0.0106522813 -0.0043044775 0.0178821906 -0.0190040395 0.0934518725 -0.0371566527 0.0562725663 0.0010769819 0.0933638215 -0.0009469368 0.0004264687 0.0294806082 -0.0082798740 -0.0428661257 0.0080090379 -0.1168580204 0.0841929615 0.1332583427 0.1362668127 -0.0590459406 0.0885609314 -0.0075055039 0.0578060523 -0.0693352297 0.0529851057 -0.1354412884 0.0182992779 -0.0868588462 -0.0350459255 0.0509243943 0.0773480088 0.0329575166 -0.0641622841 -0.1274819374 0.0271649435 0.0827999040 0.0239722989 0.0136160329 -0.0551830009 0.0594476126 -0.0358762331 -0.0425954983 -0.0800671279 0.0392292142 -0.0853105262 0.1079709083 -0.0598884262 -0.1189697832 0.0609017946 -0.0780032054 -0.0945728496 -0.0400310569 -0.1267313659 -0.1220579147 -0.0161064658 0.0717818365 -0.0926032886 -0.1036519855 -0.0825015977 -0.0073414100 0.0284704510 0.0583983287 -0.1113396138 0.0193791520 -0.0300356988 0.0350098163 -0.0769121647 0.0221266672 0.0989667848 0.0302023422 -0.0946386531 0.0433737226 -0.0696956515 -0.0041854479 -0.0517308936 -0.0822995529 0.0332777910 0.0754773542 0.0298084430 -0.0991922393 0.0443128720 -0.0826429203 -0.0097505674 0.0946822762 -0.0012715161 -0.0114041567 -0.0710369274 0.0091339201 -0.0188108757 -0.0115339458 0.0172435790 -0.0392824486 0.0697374493 -0.1015134081 -0.0754034221 -0.0160482526 -0.0720565170 -0.0265337601 0.0282997377 -0.0748609155 -0.0283452272 0.0131913051 -0.0550378673 -0.0474426262 -0.0908869952 -0.0963854715 -0.0263488181 0.0304017495 -0.0009074396 -0.0742177740 -0.1173882633 -0.0940878615 0.0460821688 -0.0922606438 -0.0603175163 -0.1033959687 -0.1047725677 -0.0105886515 0.0938525274 -0.0901886299 0.0068375971 -0.0319399834 -0.0192856509 -0.0826333165 -0.0101567777 -0.0422942415 0.0053255078 0.0004705332 -0.1237368584 -0.0973662883 -0.1143731177 -0.1273701489 -0.0390616283 0.0233216304 0.0703600347 -0.0189470313 0.0046253679 0.0284185186 -0.0588451698 -0.0903144032 -0.0412360951 0.0610003322 0.0233877674 -0.0847442150 0.0356853902 -0.0389920846 -0.0488958582 -0.0690381527 -0.0715184137 -0.0067476896 0.0016147841 0.0568305887 0.0787831694 0.0686811581 -0.0435730852 0.0124146109 -0.0184745267 -0.0365926884 0.0298000779 0.0586382560 0.0583027974 -0.0963695943 0.0598319620 -0.0356578231 0.0398144722 0.0024268925 0.0808699280 -0.0762282908 -0.0947234556 -0.0319545791 0.0688416958 -0.0212031975 0.0978914499 -0.0502200015 0.0830497369 -0.0556322932 -0.0020061412 0.0523275025 0.0885325521 0.0210577529 -0.0841849223 -0.0078140767 -0.0396915898 -0.0127846543 -0.0251229592 0.0713069290 0.0261233151 -0.0780736580 0.0618326813 -0.0000490472 0.0465301722 -0.0909975097 -0.0188388508 -0.0881445631 -0.0161640532 -0.0855038017 0.0357354321 -0.0580935329 -0.0515359901 -0.0459879600 0.0621400774 0.0082436837 0.0835477039 -0.0164035875 -0.0321195014 -0.0050046849 -0.0277163200 0.0421263613 -0.0442852862 0.0102316979 -0.0351508223 -0.0910238400 0.0837112889 -0.0106208762 0.1051426977 0.0504905693 0.0653785467 0.0590866245 -0.0960224867 -0.0984618068 0.0199325308 -0.0172031429 -0.0438352600 0.0091030169 0.0030320324 -0.0391425192 0.1034300849 0.0797839314 -0.0906185135 0.0644130334 -0.0264669470 -0.0446293652 -0.1166444272 -0.0535453893 0.1070639640 -0.0530821607 -0.0747978538 0.0677177757 0.0694753677 0.0334439203 0.0264369715 -0.0093978364 0.0773761719 -0.0450585410 -0.0759129748 0.0384540111 0.0126026114 0.0052855178 -0.0392622575 0.0590235069 0.0000790010 0.0109218173 0.0068701077 -0.0822262466 -0.0170102362 0.0240014549 0.0507239737 -0.0789380595 -0.1050048918 0.0504182577 -0.0210811421 0.0057919472 0.1084990650 -0.1422157884 0.0429420583 0.0203822982 -0.0704602301 0.0816975161 0.0052968678 -0.0703438744 -0.0954349041 0.0532058813 -0.0410425849 0.0133522470 -0.0055753081 0.0484580547 0.0788326859 0.0480728298 -0.0782703534 -0.0150474459 -0.0377337635 0.0854170620 0.0191770047 0.1060813367 0.0260550231 -0.0830772072 0.0379044414 -0.0018168762 0.0074681863 0.1009378284 0.0732583478 0.0473315865 -0.0385508239 0.0457575433 0.0112221269 -0.0347033851 0.0152652748 -0.0329939052 -0.0129207037 0.0713323727 0.0584017672 0.0512910709 0.0181426518 -0.0706061050 -0.0241263937 -0.0781566724 -0.1116382480 -0.1230506077 -0.0288165882 -0.0721789971 -0.1097417623 -0.0541786551 0.1115053594 -0.0437424257 0.0753836632 0.0961281210 -0.0102083683 0.0396654904 -0.0686586052 0.1302927583 0.1150544509 -0.0400432907 -0.0912317708 -0.0700109154 -0.1073910818 0.0377748497 -0.0929595679 -0.1281338334 -0.1027835608 0.0732284263 -0.0443486832 -0.0813879371 -0.0693960860 0.0298126172 -0.0575392842 -0.0826198906 0.0559735298 0.0110601336 -0.0176221505 0.0407049954 0.0486335605 -0.0653066859 0.0163841899 -0.1151038259 0.0226809029 -0.0207640938 -0.1075509489 0.1078716293 0.1067896858 0.0855064318 -0.0563478991 0.0926965326 -0.0761294216 0.0414055102 -0.0578838475 -0.1107897311 0.0762163103 -0.0041291774 -0.0564439110 0.0283865444 0.0864572749 -0.0143243838 -0.1219452545 0.1326673031 0.0523475334 -0.0706305131 0.0009526648 0.0649024174 -0.0800183713 0.0046291864 -0.1048646271 0.0819124132 -0.0969577208 -0.0863202140 -0.1071066931 0.0431114323 0.0875931010 -0.0596513450 0.0126402527 -0.0506807715 -0.0660782903 0.1084650457 0.1105542630 -0.0751739219 0.0716905966 0.0328885838 -0.1004610807 0.0971861109 -0.0926708058 -0.0939641818 -0.0203811694 0.0110779107 0.0401406363 -0.0313390084 0.0760378689 0.1012277305 0.0856353045 0.0351172201 -0.0476746857 -0.0595121346 0.0881677940 -0.0140099358 0.0270440858 -0.0055515375 -0.0677846372 -0.0020319270 0.0589792207 -0.1533092260 -0.0672596842 -0.1809993684 -0.1162814572 -0.1089786813 -0.0092379544 -0.0114419283 -0.0386001132 0.1244316399 -0.0827423930 -0.0163654108 0.1051244810 0.2106443346 0.0645671114 0.1565818191 0.0171676520 0.0535141006 -0.0061656549 -0.0738451332 -0.0120270848 0.0955579430 0.0563782938 -0.0060548559 -0.0745755881 0.0043499349 0.0562735461 -0.0044642263 0.0651972145 0.0182717890 -0.0428118519 -0.0646115392 -0.0574688092 -0.0987313166 -0.0010349848 -0.0216024872 0.1165971979 0.0844219029 -0.0059961155 0.0874052420 0.0721279830 0.0649727136 0.0109789884 -0.0651695877 -0.0520157330 -0.0561752282 0.0201619864 0.1058117747 0.1365375370 -0.0540310778 -0.0532328859 0.0615353100 0.0749814808 -0.0119808502 0.0352283418 -0.0842352286 0.1243953779 0.1014712453 0.0405988209 -0.0082394918 0.0554314591 -0.0906415656 -0.0445401892 -0.0301676989 -0.0837162808 0.0126716793 -0.0295786783 -0.0519030057 -0.0050940663 -0.0197416544 0.0627174228 0.0834881663 0.0558909625 0.0478787720 0.0658603311 -0.0341192335 -0.0938747525 0.0147583932 -0.0513416827 0.0852838606 0.0605611019 0.0029274186 -0.0858663619 -0.0312884673 0.0190718733 -0.1024452746 0.1185456440 0.0394677594 -0.0206554197 -0.0246314742 0.1057882011 0.0025550625 0.0869197398 0.0553711802 0.0839585587 -0.0003664350 -0.0217240192 0.0075918227 0.1201213151 0.1048936620 -0.0066574756 -0.0279955883 -0.0473526455 -0.0555641167 -0.0667499900 0.0385421142 -0.0380749218 0.0415353477 0.0533986837 -0.0910920501 0.0146674067 -0.0979887545 0.0994941741 -0.0617598332 -0.0614322014 -0.0997825861 -0.0653578788 0.0942517072 -0.0027182340 0.1020661667 0.0648814216 0.0013134805 0.0133475158 0.0967709124 0.0123722060 0.0951253101 0.0305512734 -0.0466272198 -0.0110011213 0.0031852652 -0.0023335223 -0.0419080593 0.0517117605 0.0632932261 -0.0742942765 0.0637633875 -0.0737719312 -0.0005728797 0.0980868116 0.0118846549 0.0472286791 0.0445585214 -0.0540278815 -0.0197962373 0.0264724363 -0.1052332968 -0.0591770001 0.0051122899 0.0018311064 -0.0771401376 0.1366976351 -0.1364885718 -0.0835092217 -0.0646737367 -0.0631608665 0.0486109890 0.0544057526 0.0416181721 0.1125623062 0.0601070970 -0.1234673932 -0.0675499439 -0.1179625839 -0.0018656254 0.0193102807 0.0267929435 0.0457621776 -0.0345299244 -0.0987336114 0.0101367394 -0.0732039437 0.0195259415 0.0687846988 -0.0305749085 0.0288336761 -0.0577486269 0.0032572448 0.0370925926 0.0461292379 -0.0887440667 -0.1032266989 0.0695697218 -0.0941020697 -0.1342179030 -0.0512058660 -0.0732907578 -0.1207957938 -0.0297049992 0.0522634014 0.0005286056 0.0135426773 0.1170269623 -0.0605880879 -0.0792489201 0.0333996266 0.0451830775 -0.0061391341 0.0324740969 -0.0484689400 -0.0667953640 -0.0830319673 0.0034978315 -0.0977399051 -0.0391656980 0.0683556199 0.0701633543 -0.1143004969 -0.1072178483 -0.0948674306 -0.0689810812 -0.0181371141 -0.0837866291 -0.0015680641 0.1048771739 -0.0871463493 0.0564616323 0.0637654662 -0.0520258620 -0.0889384449 0.0372105092 -0.0950438380 0.0425273925 0.0880278945 -0.0534963235 -0.0513154082 -0.0141025288 -0.1234491542 -0.1211950332 0.0052960576 0.0238836389 -0.0173942633 0.0636761189 -0.1297799349 -0.0247572474 -0.0900089964 -0.0018085093 -0.0491049401 -0.0477859564 0.0867877305 -0.0821079612 -0.0953439176 -0.0332377888 -0.0361862294 0.0452092737 -0.0646034479 -0.0137521448 0.0642180294 0.1013492495 -0.0611955635 0.0321836285 -0.0355647951 -0.0536340028 -0.0181940440 -0.0619272888 -0.0335888863 -0.0256836191 -0.0725009814 0.0314230025 0.1080083251 -0.1042331979 0.0694506764 0.0306477994 0.0486862995 -0.0172279403 -0.0784182996 -0.0853551477 0.0137367994 -0.0115369037 0.0521806777 -0.0260008574 -0.0130200759 -0.0734366328 -0.0614355393 -0.0964199081 0.0058650430 0.0176022612 0.0700320005 -0.0101931253 -0.0337370373 -0.0874226317 0.0747821853 0.0101589328 0.0569740497 0.0634954274 0.0503822155 -0.0620691031 -0.1021765918 -0.0805757120 -0.0957077369 0.0634381548 -0.1133511439 -0.1378647834 -0.1373324990 0.1153730974 -0.0594790280 0.0147921015 -0.0373198651 -0.1339895427 -0.0129009541 0.0108069414 0.0514629409 0.0416160971 0.0740379468 -0.0846726298 -0.1106367707 -0.1138930172 -0.0090577668 -0.0234560072 -0.0805600360 -0.0891495496 -0.1066223755 0.1336808801 -0.0104037328 -0.0899656340 0.0072389683 0.0112426803 -0.0873958468 -0.0218880996 0.0480341464 0.0218017772 -0.0936806053 -0.0886835307 -0.0476470217 0.0034824386 -0.0846508294 0.0121620363 0.0131866699 0.0691099539 0.0965944007 0.0288932938 -0.0611150935 0.0099621266 -0.0831182972 0.0701738000 -0.0178824570 0.0487036668 0.0801263005 0.0009493164 0.0271463972 0.0215074867 -0.0339653417 -0.0760407522 -0.0342149474 0.0282198694 0.0066693714 0.0308966469 -0.0754283667 0.0654429644 0.0507189929 0.0176043920 0.0676930323 -0.0076012625 -0.0677301586 0.0153253702 0.0493094996 -0.0672668889 -0.0728901327 0.0145616382 -0.0970421284 0.0290658474 0.0839800388 -0.1249830350 0.0222475678 -0.1346002072 0.0152598070 -0.0151327085 -0.1149104312 -0.0517689921 -0.1246718019 -0.0163299497 -0.0741678849 -0.0201396607 0.0114998566 0.0280550160 0.0405152850 0.0671735704 0.0497610942 -0.0719308183 -0.0634300485 -0.0095758475 0.0180501863 0.0698277503 -0.0235510431 0.0744022205 0.0806852505 0.0838634223 0.0897293910 -0.0071797459 0.0807702690 0.0469940826 -0.0187015664 0.0504219867 -0.0886303112 -0.1001062468 -0.0175047703 0.0557525121 -0.1363583803 -0.0719433054 -0.1390508860 -0.0141207613 -0.0692453384 -0.0649050772 -0.0580051132 -0.0242090374 -0.0951860175 0.0568579584 -0.0110149439 0.0515080094 0.0383927822 -0.0014284402 -0.0573373288 -0.0950764045 0.0578758232 0.0760181323 0.0587847084 -0.1019860283 0.0759442896 -0.1182642952 -0.0603594035 0.0159753058 -0.1260304600 -0.1299599409 -0.0334452838 -0.0204794537 -0.0653904825 0.0024039578 0.0065044183 0.0043687760 -0.0655277967 0.1357570440 -0.0334322825 -0.0685381889 -0.0596558191 0.0186460167 0.0714187101 -0.1159508452 0.0047261654 -0.1400655806 -0.0230197124 0.0238236059 0.0385410413 -0.0090323985 -0.0633467212 -0.1361491233 -0.0798362494 -0.0041049197 0.0473168343 -0.1094397828 0.0554223955 0.0995052755 -0.0557456799 0.0690601915 0.1051372886 -0.0412309021 0.0262508020 -0.1033672765 -0.0791274011 0.0741573870 -0.0311502889 -0.0117417872 -0.0584460683 -0.0170862898 -0.0880649984 -0.0830656886 0.0467545725 -0.1166639626 -0.0037002780 -0.0630377233 0.0229188576 -0.0222059600 0.0170191880 0.0804450959 -0.1401273012 -0.0871116519 0.0075661619 -0.1209478453 0.0192459039 -0.0151467146 0.0615648627 -0.1233190075 0.0352946706 0.0658665895 -0.0729991272 0.0165804587 0.0456952713 0.0528511964 -0.1284603477 0.0862615258 0.0292074755 -0.0769434422 0.0708982348 0.0776434019 -0.0936270207 0.0496723391 -0.0367885865 0.0646917224 -0.1480595767 0.0220272187 -0.1297539771 0.0395686217 -0.1374336928 -0.0581845380 0.0020095475 -0.0153656704 0.0469353124 -0.0010175571 0.0614631437 0.0019031090 0.0660298541 0.0018818423 0.0532678366 -0.1297521144 0.0697316974 -0.0274839904 -0.0585841127 -0.0782494470 -0.0891880170 0.0390845425 -0.0893286318 0.0250941925 0.0131954690 0.0698360205 0.0630389750 0.0273695849 -0.1162683517 0.1285334378 0.1063121781 -0.0445730202 0.0333781689 0.0717999116 -0.0870480239 0.0401250422 -0.0451486520 0.0314686894 -0.0463495478 -0.0601119436 0.0141254356 -0.0685510859 -0.0299991276 -0.1364362240 0.0331544057 0.0738695413 0.0140201012 0.0714637637 -0.1086903587 -0.1040559858 0.0904218927 0.0724875778 0.0442038625 0.0423272550 -0.0668668300 -0.0250788257 -0.0000851676 -0.0641495809 0.0397780500 0.0575674176 -0.0544089824 -0.0494647101 0.0610420741 -0.1001554579 -0.1042360365 -0.0502377301 -0.0360311083 -0.0962706581 -0.0665639415 -0.0357214622 -0.0758794397 0.0346311331 0.0187429767 0.0175512917 0.0427890047 0.0515165031 0.0642942041 0.0223143790 -0.0722770020 0.0493217669 -0.1404896975 -0.1106763929 0.0167197138 -0.1141008809 0.0101009281 0.0687317923 -0.0315231830 -0.1062441394 0.0703615695 0.0091694994 0.0254243240 0.0274294019 0.0820032805 -0.0516138785 -0.1509364396 -0.0215755794 0.0307147596 -0.0181476064 0.0583839044 -0.0958259180 0.0930720121 0.0278416127 0.0332987793 0.0512545109 -0.0250911415 -0.0456867889 -0.0499480776 0.0934025571 0.0706976950 0.0628236234 -0.0794391409 -0.0808078200 0.0698154047 0.0095854038 -0.1176397651 -0.1115611792 -0.0044517526 -0.0888049677 0.0196685381 -0.0809304267 -0.0608757995 -0.0432181694 0.0713467523 -0.0504177921 -0.0592559762 -0.0218212921 0.1071836054 0.0883702114 -0.0759384334 0.0245365649 -0.0408054553 0.0535260513 -0.0295394473 0.0022316016 -0.0340820253 0.0407353416 -0.0521164201 0.0103648091 -0.0051595969 -0.0587916262 0.0007607812 0.0151751339 -0.0161341578 -0.0933000222 0.1077189445 0.0559739321 -0.0416562483 0.0238655806 -0.0062878355 0.0355348289 -0.0145343225 -0.0942582041 -0.0615138002 -0.0825329721 -0.0101172104 0.0919573307 0.0149765955 -0.0849681795 -0.0665972084 -0.1390152425 -0.0410630070 -0.1328158975 0.0420993902 -0.0202582050 -0.0330112427 -0.0599521622 0.0008200680 -0.0077301925 -0.1095660776 -0.0615434721 -0.0929122344 -0.1384920180 0.0471818186 0.0677095354 -0.0713674724 0.0716581121 -0.0170926116 0.0058397134 0.1097186133 0.1211099476 0.1092438623 0.0224486757 0.0435087271 0.0903666541 0.0410999842 0.0852936581 0.0946808755 -0.0713271648 -0.0325139835 -0.0795608535 -0.0525061600 -0.1185611710 -0.1153143719 0.0676882640 -0.0074517448 -0.0575359948 -0.0515366122 -0.0016415486 -0.0357517563 -0.1351380199 -0.0603095666 0.0657237545 -0.0857239142 -0.0917655230 -0.1088250205 0.0972775370 -0.1085156649 -0.1096051335 0.0179325137 0.0467418060 -0.1142459065 0.0055801026 0.0116423313 -0.0010813905 -0.0332835019 0.1043681279 -0.1266414672 -0.0399581231 0.0236488301 0.0577669442 -0.0776683763 0.1047435030 0.0789012015 0.0962127522 0.0178408064 -0.0394095220 -0.0048062550 -0.0004752811 0.0354747549 -0.1231868044 -0.0704369769 0.0034553439 -0.0971180424 -0.0139040481 -0.0651816353 0.0663786158 -0.1060860604 0.0285789631 0.1222874820 0.0061533283 0.1183868051 -0.0731594190 0.0558899790 0.0925244093 0.0683696419 -0.0150202885 0.0990433097 0.0772445500 0.0772133619 0.0649770200 0.0305018369 -0.0560138896 -0.0532664210 0.0785747617 0.0712968484 -0.0237306636 -0.0827648640 -0.0325862914 0.0036119753 -0.0341294818 0.0732779950 -0.0695895627 -0.0278073791 -0.0244961306 0.0767274871 0.0404381491 -0.1114126146 -0.1145700738 -0.0053458293 -0.0278832167 0.0085180067 -0.1321247816 -0.0253078248 0.0696609169 -0.0203148611 -0.0556318350 0.0175534338 0.0865119845 0.0676242709 0.0020211935 0.0675980002 -0.0994032323 0.0676275641 -0.1069250256 0.0484742373 0.0105695259 -0.0925918072 0.0720328614 0.0689355135 0.0366956964 0.0509351157 0.0044401437 -0.0266993195 0.0166793019 0.0573695563 0.0675766021 0.0413425863 -0.0454585627 0.1029306352 0.0132642351 -0.0910818279 0.0016356838 0.0131989401 -0.0851569399 -0.0532456338 -0.1025410593 -0.1246982366 0.0359501168 0.0167382918 -0.0975862667 -0.0496896282 0.0179015528 0.0649136677 -0.1004234925 0.0187712517 -0.0578612834 0.0335901231 0.1183977425 -0.0794792771 0.1377698928 -0.0592925288 0.0371014215 0.0629670769 -0.0720401481 -0.1142371893 0.0335204788 0.0676602125 0.0278833620 -0.0934832916 -0.0747306570 0.0081189796 0.0258074906 -0.1400770843 -0.0146347582 0.0921717286 -0.0410897806 0.0843897760 -0.0066287592 0.1009922326 0.0289178193 -0.0282422006 -0.0869865716 0.0053004101 -0.0896381810 0.0800409317 0.0500107706 0.0923481435 -0.0643631145 -0.0647087619 -0.0479079857 -0.0478178114 -0.1388994753 -0.0699571669 0.0512179099 -0.0901151299 0.0725544766 0.0159345642 -0.0509731956 0.0451476760 0.0369635522 -0.1244378239 -0.1419557780 -0.0926405489 -0.0116592525 0.0488579310 -0.0234376024 -0.1305852383 -0.1069141254 -0.1385628730 0.0934091061 0.1001557112 -0.0357764363 0.0121957958 0.0412509628 -0.0531893745 0.0893504843 0.0783825740 -0.0411987342 -0.0513385534 0.1255540401 0.1255230308 -0.1411159635 0.0058653932 -0.0853368938 -0.0660125092 -0.0794876218 -0.0088585243 -0.0791166052 -0.1263892353 0.0135161486 -0.1219739243 -0.0232171100 0.0696045831 -0.0115401037 0.1083796248 0.0936529264 -0.0905921757 0.0104675563 0.0558523796 -0.0993325040 -0.0474855714 -0.0098725548 0.0689320788 -0.0155439563 0.0620400645 -0.0527967252 -0.0343062952 0.1266279370 0.0297467671 0.0349028148 -0.0370983854 0.0697237998 0.0439105779 0.0651008189 -0.0637578070 -0.1076205075 -0.0601433627 -0.0418899655 0.0126305744 0.0411282480 -0.0706274658 0.0873968899 0.0319624394 -0.0329666287 0.0877247304 -0.0503214486 -0.0082196742 -0.0900308490 0.0973378271 0.0437031835 -0.0851812437 -0.0461874232 -0.0102101341 -0.0529301390 0.0365886539 0.0044480339 0.0996362120 0.0030506700 0.0426488668 -0.0729573369 0.0192409754 -0.0643715933 -0.0627081990 -0.0422325507 -0.0452639759 0.0740094483 -0.0351417363 0.0162016600 -0.0266353786 -0.0927956104 0.0863465667 0.0027981326 -0.0138119683 -0.1032447144 -0.0676270127 0.0273185968 -0.0512478277 0.1038018763 0.1007840931 -0.0998761132 0.0321463197 0.0868494809 -0.1094219536 -0.1102450341 0.0129838213 -0.0734614283 -0.0803791136 -0.0183454379 0.0235145986 -0.0501855053 0.0513827801 -0.0987297148 -0.0087734535 -0.0313148126 -0.0871030614 0.0289108157 -0.0508730710 -0.0670653731 0.0140560120 -0.0782746226 0.0545610040 -0.0957508534 0.0169174224 0.0355208665 -0.0342257023 0.0135943741 0.0600880533 -0.0933692753 0.1024372727 0.0938053727 -0.0238699764 0.0843463540 0.0633253753 -0.0116818622 -0.0113953650 0.0472292155 -0.0233656168 0.0805796981 0.0068930835 -0.0226989239 -0.0311584771 -0.0429674834 -0.0884501785 -0.0425487980 0.0694795251 -0.1017537341 -0.0247330666 0.0294004530 -0.0063290149 -0.0704178363 -0.0211655125 0.1074390560 -0.0577977672 -0.0537211038 0.0607394129 0.0171014071 0.0244858563 -0.0925178826 -0.0502603017 -0.0078491047 -0.0087574050 -0.0877826288 -0.0161209404 -0.0176395848 -0.0906177610 0.0409436226 -0.0884066224 -0.0762460977 0.0780180842 0.0310187936 -0.0647874475 -0.0412227660 0.0149487108 -0.0493638851 -0.0633155107 -0.0661559179 -0.0768114701 0.0696488619 0.0940243453 0.0906300992 0.0377499908 -0.0486374572 -0.0447327495 -0.0966803804 -0.0821046084 -0.0496058166 0.0987705588 0.0747338235 0.0648497790 -0.0906158686 -0.0483774021 0.0877518356 0.0350301713 0.0297785401 -0.0863300115 -0.0419948325 0.0602460951 -0.0539476797 -0.0404686183 -0.0213535428 -0.0057519376 0.0109960586 0.0768862069 0.1050264537 0.0438120216 0.1009681374 0.0351752639 -0.0706461221 0.0216660500 -0.0744425207 -0.0301855281 0.0104871094 0.0791108459 0.0939803720 -0.0718246102 -0.0735541582 -0.0895162821 -0.0989352390 -0.0316697359 0.0469876081 -0.0279100388 -0.0985321701 0.0580558181 0.0964988023 -0.0564656854 0.1074873060 -0.0373208374 -0.0442681909 -0.0304795206 0.0326074660 0.0820868760 -0.0347728953 0.0268618166 0.0685987025 0.0874778181 0.1108683795 0.0836310834 -0.0291801989 0.0299132317 0.0775013268 0.0186475068 0.0857426524 0.0977790654 -0.0309655201 0.0760762617 0.0308481958 -0.0666273385 -0.1098303050 0.0666877925 -0.0227744672 -0.0478694513 0.1098830253 0.1203326285 -0.0570316613 0.1106837466 0.0400537960 0.1074235886 -0.0743338838 0.0287595950 -0.0287344214 0.0318882838 -0.0261561237 0.0539882109 -0.0463509746 0.0253602900 -0.0372535065 0.0859817788 -0.1075170562 -0.0398930907 -0.0614226647 -0.0985149220 0.0628440976 -0.1071400344 -0.0412036814 -0.0361163281 0.0793532059 0.1039033309 -0.0783412158 0.0433628783 -0.0489090756 -0.0317504518 -0.0641485453 0.0995752811 0.0980146304 0.0269050300 0.0362376757 0.0787536129 0.0415917821 -0.0135482335 0.0138984388 -0.1217729449 0.0556963235 0.0072316402 0.1279128939 0.0042394856 -0.0111263441 -0.0747351721 -0.4211378992 -0.2152616829 -0.2008212060 -0.3733797967 -0.2154071331 -0.1196863502 -0.0269609541 -0.0155958207 0.0014180676 -0.0036167544 -0.0388113298 0.0301365629 0.0384874791 0.0938229412 0.1244340688 0.0278638098 -0.1056309491 -0.1277857870 0.0819322765 0.0859904140 0.0552114397 0.1015321910 0.0788851976 0.0742182434 0.0177661236 -0.0745967031 -0.0968740135 0.0368712470 -0.1382635534 -0.0564130731 0.0676217750 0.0544453822 -0.0716183037 0.1122030392 0.1005427316 -0.0455696657 -0.0011344649 -0.0817571729 0.0004328105 0.0801577866 -0.0392195918 0.0879833102 0.1082942188 0.1306879669 0.0090257088 -0.0349167176 -0.0227031745 -0.0123636490 0.0471920893 0.0067581921 -0.0532645360 -0.0172124729 0.0098231379 -0.0387730673 -0.0457190536 0.1279483587 -0.0079395641 -0.0644361824 0.0617225319 0.0111157596 -0.0986855775 -0.0745523199 0.0743892193 0.0074957460 -0.1103005856 0.0171964616 0.0056561083 -0.0110332966 -0.0842841119 0.0659272671 0.1083151996 -0.0249506608 -0.0807053521 0.0428886861 0.1009749770 -0.0231032595 -0.0211699605 -0.0230319127 0.1315107644 -0.0116864750 0.1092741713 0.0427378789 -0.0295211542 -0.0466854386 -0.0060623400 -0.0871892720 0.0553814955 -0.0864565894 -0.0016653722 -0.0216580331 0.1224305257 -0.0865612775 -0.0098187234 -0.0710447505 -0.0471569225 0.0445414633 0.0430432409 0.1190600917 0.0561236963 -0.0097970031 0.0085122008 0.0915897936 -0.0246703830 0.1194735765 0.0698262379 0.0603931211 0.0384484045 -0.0139385890 -0.0757404864 -0.0572405867 0.0769080147 0.0063206335 0.0197911263 0.0499719791 0.0813317448 -0.0392391086 -0.0845335424 -0.0824905634 0.1238726526 0.0953809768 0.0620867573 0.0080059655 0.0481068492 -0.0289814286 0.0966879353 0.0345592983 0.0009966608 0.0823737085 0.1131064966 0.0907837600 -0.1062806621 0.0252010580 -0.0688011274 0.1052288041 -0.0472357571 -0.0650394782 -0.0253421478 -0.0698163584 0.0178098511 0.0444763117 0.0852580667 0.0626280382 -0.1096433178 0.0705160350 0.0129989106 0.0213073678 -0.0036839810 0.0461404473 -0.1301544458 -0.1342276037 -0.0762995332 0.0111023393 0.0537895486 0.0784716606 0.0419334061 -0.1029872149 0.0365572535 -0.0958898589 -0.0009828048 -0.1194961816 0.0412241668 0.0041438611 -0.0900985003 0.1080446392 0.0593977869 0.0565317161 0.0163496286 -0.0370613411 -0.0129952710 -0.0596529283 -0.0964451805 0.0753451660 -0.0301248915 -0.0781929865 -0.0802831575 0.0220366027 -0.1003439650 0.0673871636 -0.0408991389 0.0343019776 0.0185936224 0.0651239529 -0.1230913848 -0.1419743448 -0.0810191631 -0.0393525772 -0.0567181744 -0.1049916744 0.0248841662 -0.0582792573 -0.1062622219 -0.1000266820 -0.0054337070 -0.0280123893 -0.0193440448 -0.0642104000 0.0067356010 -0.0521965474 0.0555390976 -0.1214501932 0.1001837477 0.0066644093 0.0004160702 0.0858063921 -0.0123986499 -0.1319971830 -0.1160189509 0.0580717698 0.0274061728 0.0899467915 0.0932825059 -0.0092398226 -0.0909109563 -0.0133279106 -0.0773556828 -0.1062282920 -0.0097287511 0.0510056838 0.0302417222 0.0344250575 0.0430657864 0.0624581426 -0.0530448481 -0.0134645440 -0.0488723293 -0.1076700911 0.0273951124 0.0610341839 -0.0616689734 0.0455537327 -0.0811959580 -0.0770561695 0.0700347498 -0.0673538595 -0.0306925420 -0.0803962052 0.0176793411 0.1379501224 -0.0592246689 0.0285097994 -0.0272330008 -0.0752139017 -0.0033586062 0.0547022931 0.0215914063 -0.1394169778 -0.1339227855 -0.0448031649 0.0583527461 0.0735663101 -0.0381050967 0.0044513517 -0.0971171111 -0.0199208334 -0.0403436273 -0.0808628649 0.0754944980 -0.0354557931 0.0069492757 0.0812622458 -0.0664798170 -0.0714705288 -0.0877504274 -0.1015577912 -0.0636451095 -0.0369406119 0.0479338467 -0.0975209922 0.0452796221 -0.0870144069 -0.0428796187 -0.0280742850 -0.0345562845 0.0716321170 -0.1030829325 -0.0793638825 0.0114635564 -0.0087016104 0.0317881964 -0.0874204561 -0.0713059455 -0.0018310553 -0.0335000567 -0.0115311891 -0.0996024311 -0.0353735164 -0.0189234670 -0.0198800936 0.0002191348 0.0230190046 0.0002065195 -0.0617676191 -0.1356952488 0.0050651529 -0.0410262384 -0.0134069622 0.0111955479 -0.1301426440 -0.1218821332 0.0743952692 0.0380584933 -0.0056160665 0.0270245373 0.0464785397 -0.1084911749 -0.1136060283 -0.0620839223 -0.0207985658 0.0725735947 -0.0208529402 -0.0112316906 0.0445431173 0.1003202721 -0.0023010047 0.0561886728 -0.0100791799 -0.0144005641 0.1099019423 -0.0011408159 -0.1090286598 -0.0835047364 -0.0910350308 -0.0232892297 -0.1148288250 -0.0114943860 0.0147792511 0.0477298796 -0.0413887054 -0.1045945957 0.0705574155 -0.0301002562 -0.0132193351 0.0139422752 -0.1236132830 -0.0084716510 -0.1075956747 -0.0253084339 -0.1246648207 -0.0999743640 0.4293446839 -0.0009678801 0.0558318719 -0.0652344301 -0.0123869320 0.0152350469 0.0091792746 -0.0311952662 -0.0857694447 -0.1213110536 -0.0616708398 -0.1219277978 0.0644630566 -0.0217620563 0.0076272339 0.0053376779 -0.0613021776 0.0486548394 0.0473993458 0.0774730742 0.0007482320 -0.0124037126 -0.0803073272 -0.1009825766 0.0889835209 -0.0826888606 0.0870547891 -0.0588788502 -0.1204734594 -0.0748343691 0.0150743695 0.0260266997 0.0252948813 0.0045826216 0.0207587816 0.0481882952 -0.0789435580 -0.0437179469 -0.0269692373 -0.0852003917 -0.0046859984 -0.0783352777 -0.0487206057 0.0680660978 -0.0344822928 -0.0240238681 -0.1255983561 -0.1153533831 -0.0744632930 -0.0526340455 -0.0331043303 -0.0684469789 0.0621874779 0.0822113156 -0.0680960566 -0.0977938771 -0.0925427824 -0.1061507463 -0.1450249106 0.0166447293 0.0126726944 -0.0593731217 -0.0865445808 0.0064045563 -0.1091966033 0.1018098444 -0.0369286984 -0.0489385650 0.0198211670 -0.0102246320 0.0675760210 0.1134891808 0.0377610736 -0.0852928013 -0.1239075214 -0.0490365662 -0.0853427052 -0.0735632479 -0.0682194605 0.0906850100 -0.1179928780 0.0499259718 -0.0633464456 0.0739048347 -0.1254558116 -0.0074472744 -0.0857533813 0.0632536858 0.0710090026 0.0675919876 0.0513787195 0.1348712444 0.0368727073 -0.0022850849 -0.0411879160 -0.0152520826 0.0246101040 -0.1191530749 0.0316076204 -0.0368985236 -0.0887387395 -0.0660404786 0.1319381446 0.0912629962 -0.0673964992 -0.0063766465 0.0008170083 -0.0925776735 -0.0209020972 -0.0932179987 0.0904849321 0.1005540490 0.0667366385 -0.0514346324 -0.0393331274 -0.0959530175 -0.0490420386 -0.0746195987 -0.1030293852 0.0175965428 0.0450825356 -0.0943354517 -0.0478905290 0.0950902849 0.0166439563 -0.0456888936 0.0718437433 -0.0063060098 0.0906039625 -0.0382732973 -0.0128447553 0.0561107323 -0.0665214583 0.0189581998 0.0536836907 -0.0734074637 -0.0411336981 -0.1151540354 -0.0244651958 -0.0162293296 0.0515221208 -0.0469527803 0.1140223518 0.0033213790 -0.0172340516 0.0777944848 0.0321627483 0.2334603071 0.2046025395 0.1412243396 0.1005320773 0.0882931650 0.0110079302 0.0176274348 -0.0124777723 0.0554842800 0.0554778464 -0.0245349631 0.0869461820 0.0829660147 -0.1198202819 0.0731787682 -0.0699380562 0.0393403359 -0.0523754433 -0.0353140682 -0.0266919360 -0.0944884792 -0.0537856631 0.0502315462 -0.0172996968 -0.0848623663 0.0861836225 -0.0941288769 -0.0885457844 -0.0866261795 -0.0788594410 -0.0015405827 -0.0338386595 0.0508226454 0.0839692950 0.0878039375 -0.0196912996 0.1263159215 0.0086580385 -0.0823919699 -0.0698356554 -0.0041029556 -0.0464495458 0.1179579124 0.1140258163 -0.0186050888 -0.0130935358 0.0530517846 0.1177146509 -0.0369881094 0.0935874879 0.0958773643 -0.0463068746 0.0530437753 0.0364565141 -0.1237783432 0.0583320372 -0.0877202749 -0.0632349029 -0.0195039492 0.0251341984 -0.0398907438 -0.0160984397 -0.0348587558 0.0813379586 -0.0443944037 0.0149956346 -0.0830458179 -0.0549402982 -0.0151301371 -0.0507115908 0.0602747686 0.0722500682 -0.0717353448 -0.0657833889 0.0087525817 -0.0225247052 -0.1141365021 -0.0927153304 -0.0054526371 0.0637668148 -0.1250053495 -0.1044571325 -0.0518279858 -0.1130712107 0.0238946471 -0.0264333077 0.0089847874 -0.0803608373 0.0413148254 0.0087911105 -0.0643593594 -0.1360711306 0.0060477173 0.0143835684 -0.2615814507 -0.0399225131 -0.1095957905 0.0563851222 -0.0365109146 0.0887467265 -0.0656283572 0.0021567417 0.1918260604 0.0536575466 -0.0340837091 0.1470128149 -0.1086063012 -0.2540822625 -0.0875937492 -0.0837221220 -0.0399565250 -0.0066998568 -0.0881140158 -0.0530483313 0.0773007348 0.0084911436 0.0805984661 0.0023901360 -0.1417447925 -0.0102992281 -0.0028368069 -0.0314487405 -0.0563006587 -0.0428054035 -0.0499745682 0.0050709993 0.0569824986 -0.0746932402 0.0723846778 -0.0100519825 0.0211821590 0.0269008782 -0.0610950477 0.1273008585 -0.0800844878 0.0848134980 0.1178094521 0.0362039693 0.0674156398 0.0192877688 0.0614749305 0.1044974625 -0.0769164488 -0.0786916688 0.0465520844 -0.0113981795 -0.0151477568 0.0157233682 -0.0094650649 0.1278661489 0.0441716164 -0.0049715564 0.0084565952 -0.0849414989 -0.0892088562 -0.0713873729 0.0268948972 0.0002710670 -0.0156761333 0.0793991610 -0.0211552233 0.0565699190 0.0529572219 -0.0868804306 0.0290962309 0.0474438928 -0.0315409079 -0.0415755585 0.0634529665 -0.0677070245 0.0563044697 -0.0101132346 0.0086092139 0.1037884578 0.0074096653 0.0347741060 -0.0323827527 0.0637893081 -0.0869328231 -0.0353408270 0.0168868825 -0.0047380142 -0.0184764285 0.0354709253 0.0846231654 -0.0324653164 0.0873581991 -0.0397086702 0.0282700472 0.0530845970 0.0770248771 -0.0048326147 -0.0010087710 -0.0449515656 0.0098792566 -0.0839336440 -0.0756113753 0.1128166392 0.0263029486 0.0900054425 0.0534430444 -0.0333262347 0.0116754808 -0.1067857444 0.0681760833 0.0689546540 -0.0401289389 0.0182418916 0.0403472297 0.0923728719 -0.0645486712 -0.0696321651 -0.0946765095 -0.0626403913 -0.0136490241 -0.0027675484 0.0924696177 0.0185856540 0.0242506843 0.0612650067 0.0293202791 -0.1106903777 0.1162247285 0.0935867578 0.0832894519 -0.0602098033 0.0738520920 0.0371531174 0.1212254390 -0.0681025386 0.1313635707 -0.0812437758 -0.0054939678 0.0171485562 -0.1407205313 -0.0017808933 -0.1281375885 -0.1326886266 -0.0125442417 -0.1218815818 -0.0096575180 -0.1190379187 0.0408348404 0.0653736070 -0.0549461879 0.0003483298 -0.1161257699 -0.0846984163 -0.0938440263 0.0270501841 -0.1323022544 -0.0966742337 0.0250262916 0.1079513878 0.0785040259 0.0272380095 0.0941700190 0.0498884171 0.0778042972 0.0224438179 -0.0802986026 -0.1358644217 0.0418478176 -0.0821507275 0.0399821885 -0.0413143076 -0.0039025212 0.0114462012 0.0469754674 0.0501806960 0.0210276954 -0.1249632612 -0.1199975088 0.0575940646 -0.0989672765 0.0200018175 -0.0654696226 0.0351053700 -0.0511490814 -0.0530420728 -0.0904366598 -0.1004559919 -0.0646991357 0.0574288219 0.0933406428 -0.0384265706 -0.0544027723 0.0319379717 0.0494823158 0.0608474985 -0.1040021703 0.0636602491 0.0364996195 0.0261598378 -0.0658690557 -0.1120063439 -0.1310562044 0.0339946225 0.0510388128 -0.0586110875 -0.0345103294 0.0054592043 0.0828637928 -0.0855879113 0.0954010040 0.0465802252 0.0015664077 -0.0634083822 0.0243063010 -0.0236410722 0.0082137100 0.0431829579 -0.1233762354 -0.1215885803 -0.0230512451 -0.0144736189 0.0328409262 -0.0016348956 0.0382337719 -0.1145520881 0.0099171037 -0.0791371018 0.0128445476 -0.1021675020 -0.0281333476 -0.1141108796 0.0769800320 0.0299320538 -0.1293768287 -0.1122113541 -0.0342324972 -0.0811449587 0.0592267253 0.0384081602 0.0758425295 -0.1143727675 -0.0319516174 -0.0613878667 -0.0940265954 0.0231680740 -0.0153025053 0.0583399571 -0.0146065876 0.0562466532 -0.0031399727 -0.0580086969 -0.0590791740 -0.0967661068 -0.0256067440 -0.0597882792 0.0652838200 -0.1003867388 -0.0942280516 0.0142164528 -0.0463830531 0.0457595140 -0.0345736966 -0.0381760523 0.0511055589 0.0458450466 0.0213419572 -0.0334780291 0.0661747158 -0.0959638283 -0.0104468642 -0.0095973210 -0.0412220955 -0.1342845112 0.0587436222 -0.0565894321 0.0116594695 0.0804902837 -0.0511386059 -0.0233035479 -0.0591018870 0.0608485118 0.0763172805 0.0142449951 0.0518876091 0.0551196001 -0.0164060406 -0.1173262447 0.0575993173 -0.0310839899 -0.1158165559 0.0313237347 -0.0135363033 0.0324679539 -0.1152977496 0.0587160587 0.0022990298 -0.0854834989 -0.0040119984 0.0800223872 -0.1098670512 -0.1354511082 -0.0836254507 0.0724996775 -0.0580666140 -0.0872080997 0.0474677533 -0.0797387213 -0.0569578111 0.0743368566 -0.0763500333 -0.0455055609 0.0061297640 -0.0076804459 -0.0419840440 0.0628258586 -0.0818031430 0.0573687628 -0.0164118633 -0.0721150190 -0.0882661790 -0.0337296799 0.0498632826 -0.0695448294 -0.1365934163 -0.1031258330 0.0279882886 0.0075262254 -0.0319826826 -0.0033810940 -0.0238261353 0.0730669796 0.0804633871 0.0267352909 0.1378642023 0.1883989275 -0.0054372200 0.0115717845 -0.0340281129 -0.0599853732 0.0624114834 0.1334094554 -0.0623880439 0.1137255430 0.0908564553 0.0470887087 0.0165588856 -0.0642087534 -0.0036014272 -0.0532691516 -0.0472899154 0.1004245579 -0.0339026824 -0.0284503791 -0.0076313987 0.0502590686 -0.0268324092 0.0025467607 0.0677256063 0.0837019980 0.0310908370 -0.0320107900 0.0888680071 0.0789435580 0.0482458957 0.1104380786 -0.0647311509 0.0041558184 0.0270724259 -0.0554974452 -0.0747605339 0.1314802319 0.0338766351 -0.0445312932 -0.0001476618 -0.0323915742 0.1454178840 0.0716493428 -0.0288545545 0.0303683113 -0.0548984371 0.0191888511 0.1103795394 0.2412640005 -0.0047259545 -0.4367111027 -0.0700700656 -0.0409250669 0.0987720639 0.0056084674 0.1202149019 0.0948623791 0.3767661750 0.2171662599 0.3112659454 0.0867140293 -0.3869134188 -0.5089271069 0.0287127793 0.0289786309 0.0198336393 -0.0876354128 0.1004983783 0.0365540236 0.0858319700 0.0711786225 -0.0794087723 0.0355832875 -0.0928440019 -0.0536266230 -0.0332982317 -0.0277672727 -0.0737051368 0.1041970626 -0.0440686084 0.0172767173 -0.0490757003 0.0675856248 0.0497953184 -0.1214211956 -0.0510729179 -0.0284555368 0.1071548164 0.1305267364 -0.0146407150 -0.0349463671 -0.0935552195 0.0638018772 -0.1066196039 -0.0942204818 0.0654780716 -0.0255177058 0.0333464108 0.0039003051 -0.0266979355 -0.0249039605 0.1057347134 0.0608233288 -0.0038370751 -0.0733385608 0.1080799997 -0.0830552951 0.0274184793 0.0313321650 -0.0278672799 -0.0490564331 -0.0728494823 0.0403341651 0.0529108942 -0.0466860756 -0.0663007349 0.0615114272 0.0241866410 -0.0118831694 -0.1105385944 -0.1001600772 0.1045826077 0.0882528424 0.0677273721 0.1188456193 -0.0859885737 0.0330631174 0.0575326644 0.0997413397 0.0984290317 0.1100268066 -0.0386433825 0.1122801378 -0.0846566334 -0.0427043438 0.0115772793 0.0171843302 -0.0462341309 -0.0817367136 -0.0690588430 0.0960508361 0.1071693152 0.0623752959 0.0615657829 0.0427734554 0.0308731478 -0.0652160123 -0.0856633261 -0.0204696879 -0.0197857209 -0.0240995847 0.0022585650 -0.0269564651 0.0905434713 0.0815910250 -0.0810279697 -0.1095265001 -0.1173840985 -0.0626659840 0.1422395706 0.0619488880 0.0497419797 -0.0069268611 0.1413051486 0.0974110216 0.0060245511 0.0747482404 0.0387920141 -0.0808113515 -0.0230554193 -0.0258169025 -0.0252627842 0.0449881777 0.0096723828 0.0636617988 0.0448804609 -0.0791110396 -0.0664211363 -0.0909916982 0.0712249354 0.0623113029 0.0318797156 0.0233403221 0.0660748035 0.0870956331 0.0542746820 -0.0663576573 -0.1086658612 -0.1150722653 -0.0842540935 0.0791039616 -0.0377126187 0.0120747257 -0.0920258760 -0.0975532383 0.0148728602 -0.0177326277 0.1017668694 0.0874432400 0.0024405059 0.1041353196 0.0572618395 -0.1059049442 -0.1293452680 0.0502854548 0.0698576272 -0.1008654013 -0.0342381224 -0.0842489749 -0.0530547835 0.0437671691 -0.0474411324 0.0173503906 -0.0063459403 0.0611850061 0.0194121394 -0.0715673864 -0.0757867992 0.0884407982 0.0735219419 0.1030758470 0.0601552427 -0.0637633950 -0.0138859563 0.0507165194 -0.1223381460 -0.1123657450 -0.0841352344 0.0495747216 0.0119422525 0.0352183208 -0.0471813120 -0.0744403228 0.0484652296 0.0671706349 0.0913413689 0.1150064692 0.0813797340 0.0422417894 -0.0217013471 -0.0059025972 -0.0434878170 -0.0754439682 -0.0214244239 -0.0553494096 0.0328591354 0.0019771131 0.0522057787 0.0911133811 -0.0392483510 0.0523465686 -0.0417538658 0.0494394377 -0.0380092897 -0.0275562797 -0.0700679570 0.1029984355 0.0918110758 -0.1015858576 -0.1089333221 0.0487393141 -0.1266324818 -0.0011322488 -0.1332685500 0.0793609694 -0.1058847159 0.0749911293 0.0042154812 0.0807298720 0.0841782093 -0.0640996695 -0.0341680124 -0.0565533936 -0.0831204876 0.0018042214 -0.1116077229 -0.0789936855 0.0314515121 0.0870163441 0.0672971159 -0.0440531299 -0.0745118558 0.0227980018 0.0764463842 -0.1114848331 -0.0982120931 0.0405549817 -0.0127424970 -0.0969610438 0.0163137782 -0.0574521609 0.1305631399 -0.0499708727 -0.0848151520 -0.0121356463 -0.1056289971 -0.0677480474 -0.0221145675 -0.0832498521 0.0430696011 -0.0678250119 0.0248173624 -0.0776153356 0.0141503215 -0.0388719514 -0.0054662153 0.0596335381 -0.0174641907 -0.0738929361 0.0210545361 -0.0219599381 0.0013529509 0.1002470106 -0.1098509803 -0.0886675566 0.0618346967 0.0965738595 -0.0061973948 0.1160179377 -0.0407948978 0.0840645283 -0.0761425272 -0.0909378454 -0.0939591303 -0.1058124006 -0.1166570038 -0.0024900979 -0.0794402659 -0.0529878289 0.0001789971 -0.0089054080 -0.0910738334 0.0503816567 0.0869648755 -0.0554214008 -0.0823631436 0.0597356856 0.0999539793 0.0093734115 0.0044521024 -0.0571801066 -0.0992285237 -0.1267796308 -0.0518434234 -0.0727248788 -0.0540964156 0.0013226632 -0.0576290488 0.0894455984 0.0757288337 -0.0168120526 -0.0834288076 -0.1075371802 -0.0125613753 0.0513899215 -0.0485569239 -0.0748541281 -0.0742401257 0.0214987844 -0.0009941608 -0.0238762945 0.1011377126 0.0845496804 -0.0094238129 -0.0663119853 -0.0083413636 0.0288043600 -0.1085165516 0.0431946218 -0.0399329886 -0.0639599413 0.0347087421 -0.0664192587 -0.0335458964 -0.0725094154 0.0861663744 -0.0331827067 0.0964140669 0.0122046322 -0.0444637276 0.0302500483 0.0105671166 -0.0905844718 -0.0261180438 0.0564059205 -0.0638349801 0.0591811836 -0.0823857188 0.0437981412 -0.0394437201 -0.0360868908 -0.1381767988 -0.0758579820 0.0155538293 -0.1442220509 -0.1441219598 -0.1279678345 0.0533443578 -0.0430160165 -0.1019177213 0.0251235217 0.0147011876 0.0597775131 0.0923097581 0.0710748583 0.0530205779 -0.1228973418 0.0081791542 -0.0459659211 -0.0206897203 -0.0822551027 -0.0379579812 -0.1267638654 -0.0851922110 0.0097613363 -0.0422268994 -0.0248967372 -0.0413629562 0.0127513828 0.0520619750 0.0481792316 -0.0956138521 0.0297760814 -0.0311388467 -0.0184602849 -0.0487529486 -0.1092334092 -0.1472104043 0.0067368420 0.0862190723 0.0695402846 0.0105150715 -0.0870288238 -0.0269951001 0.0019160360 0.0197775364 0.0665948987 0.0964080393 0.0794339627 0.0349836349 0.0238987952 -0.0673555359 -0.1121696085 -0.0905938968 0.0156210931 -0.0044858633 0.0600450709 -0.1054641977 0.0897780955 -0.0980772823 0.0224046409 -0.0029539689 -0.0675242990 0.0491445288 0.0529798418 -0.0290949587 -0.0678774193 0.0783620179 0.0592888780 0.0488496050 0.0202454459 -0.0777125210 -0.0492196158 0.0187221263 -0.0969552472 0.0320425034 0.0116600683 -0.0317422152 0.0069674617 0.0642210916 0.0433073789 0.0298417062 0.1186221689 0.0215585213 0.0885044113 -0.0082837995 -0.0292451624 -0.1352847517 -0.0667671114 0.0752659068 -0.0456338078 -0.0723637938 0.0499280952 -0.1184746921 -0.0020577633 -0.0920129269 -0.1211444139 0.0640769377 -0.0237735622 0.0027559623 -0.0043489560 0.1005244106 0.0108778626 0.0814817399 0.0175542384 -0.0690467656 -0.1034814194 0.0073731318 0.0556855649 0.0109176338 0.0058074668 -0.1083860174 0.0777430385 -0.1056087539 0.0020672008 0.1048862487 0.0801490992 0.0571056344 -0.1012142450 -0.1495919377 0.0067838966 -0.0211425964 -0.0881060287 -0.1333720833 -0.1113112792 -0.0572283864 -0.1230887473 -0.1142455637 -0.0765318871 0.0324188098 -0.1177582517 -0.0544316284 -0.0489548594 -0.0762279481 0.0182888228 0.0102502275 0.0935408399 0.0564712472 0.0596261621 -0.1161049306 -0.0707759932 -0.0017962485 -0.0205963925 0.0001742330 -0.0778689906 0.0101594422 -0.0490274951 -0.1298498958 -0.1294914335 -0.1403702796 -0.0339165553 0.0672882572 -0.0754557252 -0.0420403965 0.0131717706 -0.0959519222 0.0643041357 0.0398126990 0.0050706072 -0.1037138179 -0.0178155564 0.0942432135 -0.0246635750 0.0223686192 -0.0320981704 -0.0110993227 0.0508843102 0.0045553446 -0.0950472727 0.0647371486 0.0098803155 -0.0395104215 0.0991086885 0.0526096523 0.0370989256 0.0680630580 -0.0854177400 -0.0861118883 -0.0510850102 -0.0992524400 0.0701610297 0.0012009367 -0.0522576347 0.0136100501 0.0598585159 0.0180369467 0.0194093212 -0.0699371845 -0.0126548856 -0.0915009305 0.0793095976 -0.0605731905 -0.0436343923 -0.0288219675 -0.0562673658 0.0244615525 -0.0454957560 -0.0096932426 -0.0013309345 -0.0083365887 0.0552318841 -0.0896361321 -0.0790281594 -0.0570709370 -0.0142846629 0.0604002774 -0.0448496938 0.0295895487 0.0633305162 0.0553646535 -0.0980727002 0.0538880825 -0.0841591209 -0.0891082287 0.0546266586 0.0460246652 0.0401269346 0.0041781440 0.0151062459 -0.1221560761 -0.0309825502 -0.0776730180 0.0593421906 0.0811513364 0.0063850209 -0.0760431141 -0.0140148774 -0.0923065245 0.0495177656 0.0428228974 -0.0050592571 0.0287506431 -0.0502513982 0.0113529786 0.0642203987 -0.0375925973 -0.0840206966 -0.0789866298 0.0384754390 0.0067749992 -0.0747809261 -0.1057538688 -0.0370990559 -0.0297349915 0.0526150428 -0.0828522891 0.0268075690 -0.0395806283 -0.0570627563 -0.0427202731 -0.0967460871 -0.1083067134 -0.0703298226 -0.0920595303 0.0723128468 -0.0359900594 -0.0450920761 -0.0381615162 0.0869903564 -0.0417244062 -0.0261670798 0.0892244279 -0.1100303233 0.0548682958 -0.0963521600 0.0861342698 -0.0548123755 -0.0956473500 -0.0645451620 -0.0278924033 -0.1303309500 -0.0341285691 -0.0673533082 0.0856080800 0.0977201164 0.0487304926 0.1047720015 0.0647579134 -0.0600004867 0.0391779393 0.0756562799 0.0757427514 -0.1001297459 0.0750836879 0.0285770595 -0.0170015767 -0.0707327276 -0.0485119596 0.0056828186 -0.0374829322 -0.0179669484 0.0104177296 0.0167489350 -0.0088778660 0.0756223798 -0.0987239331 0.0013805181 -0.0747265667 -0.0058978572 -0.0134427547 0.0517687351 0.0116852224 -0.0445032716 -0.0301474929 -0.0140515044 -0.1089382246 0.0375014246 0.0881157815 0.0715863556 -0.0806753412 0.0364973545 -0.0197074786 -0.0154827554 -0.1004348248 0.0991160423 0.0835007429 0.0935053527 -0.0784620643 -0.1113971546 0.0491300374 -0.0106912181 0.0767192096 -0.0416885838 0.1062367111 -0.0532741994 0.0834285617 -0.0998485535 -0.0436785370 0.0258779228 0.0368167162 0.0216048211 -0.0773317143 -0.0943145230 -0.0755081028 -0.0872000083 0.0407006592 -0.0794220567 -0.0081817657 -0.0089617521 -0.0731501430 -0.0710573792 -0.0751721486 -0.0898144469 -0.0965343267 -0.0247198194 -0.0019741207 0.0808574557 -0.1086216047 -0.0658635795 -0.0247885138 -0.0574118160 0.0553563237 0.0798992515 -0.0404445231 -0.0001921356 0.0264758915 0.0625153780 0.0272983164 -0.0701176152 0.0565087944 -0.0970803276 0.0275790989 0.0802385211 0.0827664733 -0.1038801894 0.0841480345 -0.1059418991 0.1012992710 0.1021448374 0.0578005910 0.0648863241 0.0028012884 0.0123374686 -0.0097445045 0.1104950309 0.0454593226 -0.1325466931 0.0718641952 0.0633645281 -0.1217412949 -0.0025671353 -0.0570817217 -0.0023233271 -0.0344008096 -0.1183566973 0.0518257096 0.0586217120 -0.0152930273 0.0365374610 -0.0520219095 -0.0731775612 -0.0321779996 -0.0527470745 0.0056471527 -0.0441377386 -0.0474981517 -0.1343831569 0.0832345784 -0.0135794729 -0.1362394840 -0.0118802637 0.0737489387 0.0127602518 -0.0690027252 -0.0820643604 0.0659522489 -0.0163536966 -0.0174183808 0.0720632225 -0.0190288574 -0.0875078812 -0.1417900026 0.0758325234 -0.0415172875 0.0013271781 -0.0084402552 0.0727709606 -0.0652183294 0.0792554617 -0.1091266721 0.0046536764 -0.0895158648 0.0625383854 0.0326726362 0.0742856413 0.0579769425 0.0068099727 0.0457263328 0.0773261040 -0.0795185789 -0.0926140994 0.0675343573 0.0621490218 -0.0703160167 0.0279149022 -0.0637016967 0.0150074959 0.0823661238 -0.0399673767 -0.1196454912 -0.0243821628 -0.0760914087 0.0165075660 -0.0755804479 -0.0424172543 0.0716245621 -0.0140281469 -0.0411269143 0.0654404387 -0.0800913721 -0.0465762839 -0.0627181679 -0.0063598305 -0.0064259367 -0.1293154806 -0.0134201385 0.0183002856 -0.0548336171 -0.0768967718 