-0.0911780596 0.0046320069 -0.0754819140 -0.1149969548 -0.0493738241 -0.0143833859 0.0402600765 0.0773857608 0.0324231833 -0.0399989523 -0.0902974382 -0.1048266217 0.1164987758 0.0657488182 -0.0111081479 -0.0258059893 0.0998511761 0.0853292346 -0.0594273806 -0.1352622956 -0.1396537721 -0.1646585912 -0.0169269294 -0.0448851660 -0.0183788911 -0.0784627274 -0.0368278325 -0.0241239015 -0.0218674410 -0.1334058046 -0.0403895713 -0.0081597921 0.0332384482 -0.0850398540 -0.0034750050 0.0529407822 -0.0036224907 -0.1288743317 0.0631604269 0.0903537273 -0.0681385994 0.0373174399 -0.0762866884 -0.1144411415 0.0007219287 -0.1304042488 0.0863895342 -0.1444151103 -0.0367568582 0.0586436391 -0.0544029325 0.0530533046 -0.1251984388 0.0048611979 -0.1135532632 0.0047483593 -0.0666722208 0.0193487257 -0.1094621345 -0.0449178293 0.0379054360 -0.0533605590 -0.0605873801 0.0519914925 -0.0786811039 -0.0205890909 0.0402622856 -0.0251472853 0.0513832532 -0.0433210097 -0.1448292434 -0.0427965261 -0.1294506788 -0.0374118872 0.0505889580 0.0463933945 0.0352009237 -0.0918804631 0.0138702439 -0.0702918842 0.0368812792 -0.0032623701 -0.1063219085 -0.0390098579 0.0963492766 0.0072003840 0.1334422976 0.1502520740 -0.1241096929 0.0453505814 0.0276201870 0.0910287276 -0.1783517599 -0.1806110591 -0.0308314208 -0.0460612774 0.0791593492 -0.0864340439 -0.0577288605 0.0703132525 0.0079953540 -0.1424000710 -0.1486601084 0.0018479516 0.0559226312 0.0382639654 -0.0784182027 -0.0467350818 -0.0996368974 -0.0106817046 0.0883154124 -0.0641972125 -0.1014374867 -0.1904135197 0.0819619000 -0.1675972641 0.1434875727 0.2351913303 -0.0922268033 0.1174526587 -0.1264108121 -0.0703507587 0.1034337953 0.0818606913 -0.1269314140 -0.1199302971 -0.0021899780 -0.0605527312 0.0000833116 0.0025896432 -0.0088067735 -0.1031911597 -0.1593752503 -0.0662233382 -0.1187459081 -0.0466568209 0.1621777862 0.1827606857 0.0996398255 0.0464778207 0.0237527471 -0.1103356555 -0.0858270004 0.0199678876 0.0211042464 -0.0119414544 -0.1189836338 -0.0200770423 -0.0844169036 -0.0334831886 -0.0061303303 -0.0588391349 0.0351302586 -0.1006048992 -0.0202208757 -0.0028713718 0.0192719772 -0.0951228738 -0.0376460031 -0.0732376128 -0.0051058554 0.0531443097 -0.0617204085 0.0611934327 -0.0618129112 -0.0407062769 -0.0304874592 -0.0477811880 -0.2553752065 0.0350575969 0.0110143125 -0.0562873371 0.0886093751 -0.0225702673 -0.1442241669 0.0419676378 0.0964134112 0.0916781574 0.1247764677 -0.0069889566 -0.0949003920 0.0744864717 0.0630034432 0.1350933611 0.0274718422 0.0944363624 0.0425620750 -0.0062886034 0.1189330816 0.0713790432 -0.0286443159 -0.1217634007 0.0693084970 -0.0627855361 0.0340672098 -0.0099973558 -0.0450742394 -0.1333321929 -0.0071766907 -0.0582952350 -0.1425412595 0.0311460961 -0.0575090237 -0.0783960894 -0.0297620930 -0.1545858383 0.0976978689 -0.2490187585 0.0483877547 -0.0226550885 -0.0238052383 0.0193853714 0.0884313732 0.1285972148 0.0341697112 -0.0124244504 0.0134986294 0.0205242522 0.0045931418 -0.0586746112 -0.0641967580 -0.0473229848 -0.1299513429 -0.1160163954 -0.0518752560 -0.0442739874 0.0489707068 -0.1154714301 0.0114911944 -0.0400635526 0.0428601503 -0.0933845118 -0.0880713314 -0.0752504319 0.0761592835 0.0230369270 -0.1028804481 0.0859618485 -0.0157128945 -0.0964536220 0.0967107713 -0.1112562418 -0.0735378414 -0.0868928879 -0.1021333113 -0.0918325707 -0.0617392622 0.0614341050 -0.0832304284 0.0908518583 -0.1064637527 -0.0771080554 -0.1262334436 0.0099191982 -0.0674657375 -0.0436865315 -0.0195281971 -0.0975748897 0.0015655011 -0.0327324197 0.0303511992 0.0155499997 -0.1151790172 -0.1194216385 -0.1000006050 -0.1564910561 -0.0104123522 -0.0552902594 0.0480148681 0.0771489516 -0.0732486546 -0.0307506677 -0.0086118551 0.0225359295 -0.0091202939 -0.1086314023 0.0575965047 -0.1500337869 -0.1157177463 -0.0498389751 -0.0831866413 0.1003418192 0.0107806372 -0.0800341591 0.1189439818 0.0989858359 0.0777863935 -0.1426980048 -0.0279512163 -0.0032691825 -0.0324144512 -0.0132614719 0.0264225714 -0.0183202047 -0.0434219986 -0.0278084222 -0.0982872993 -0.0527615324 0.0577341691 -0.0900099650 -0.0552820899 0.0308691300 0.0817326009 -0.0843760967 -0.1285534501 -0.1202697754 0.0883622915 -0.0777135491 0.0753133893 -0.0595507398 -0.0380537435 -0.1158917546 -0.0305003636 -0.0023943835 0.0183406100 0.0342271365 -0.1763605326 -0.1910177022 -0.1249978542 -0.1485976875 -0.0496347621 -0.0486414954 0.0498619191 -0.1460751444 0.0518910699 -0.0518885031 0.1176350415 -0.0668549389 0.0868199542 -0.0994298309 -0.0842816383 -0.0096840449 0.0159679111 0.0358602963 0.0320933312 0.1287849844 0.0509151705 0.0687621236 -0.0737642050 0.0144822802 -0.1458589882 -0.0010651801 -0.1317692697 -0.0877114087 -0.0323053263 -0.0136974128 -0.1330435425 0.0379205272 0.0783685967 -0.0481087379 -0.1101190001 0.0073089660 -0.0075748987 -0.1193969771 0.0026623146 -0.0198928528 -0.0942138582 -0.1053551808 0.0665516332 -0.1300707608 -0.1162535176 -0.0697856992 0.0694056004 -0.1079770252 0.0515047051 -0.1469591707 -0.0803491846 0.0764788315 0.0585566163 0.0615729876 0.0060392991 -0.0914830565 -0.0570983291 -0.0610995255 0.0736502856 -0.1398303062 -0.1552434713 -0.0265569706 -0.1249627322 -0.0329032689 0.0117485803 0.0676078051 0.0711217895 -0.0871078223 